FANN_FLO_2.1
num_layers=3
learning_rate=0.700000
connection_rate=1.000000
network_type=0
learning_momentum=0.000000
training_algorithm=2
train_error_function=1
train_stop_function=0
cascade_output_change_fraction=0.010000
quickprop_decay=-0.000100
quickprop_mu=1.750000
rprop_increase_factor=1.200000
rprop_decrease_factor=0.500000
rprop_delta_min=0.000000
rprop_delta_max=50.000000
rprop_delta_zero=0.100000
cascade_output_stagnation_epochs=12
cascade_candidate_change_fraction=0.010000
cascade_candidate_stagnation_epochs=12
cascade_max_out_epochs=150
cascade_min_out_epochs=50
cascade_max_cand_epochs=150
cascade_min_cand_epochs=50
cascade_num_candidate_groups=2
bit_fail_limit=3.49999999999999977796e-01
cascade_candidate_limit=1.00000000000000000000e+03
cascade_weight_multiplier=4.00000000000000022204e-01
cascade_activation_functions_count=10
cascade_activation_functions=3 5 7 8 10 11 14 15 16 17 
cascade_activation_steepnesses_count=4
cascade_activation_steepnesses=2.50000000000000000000e-01 5.00000000000000000000e-01 7.50000000000000000000e-01 1.00000000000000000000e+00 
layer_sizes=401 101 5 
scale_included=0
neurons (num_inputs, activation_function, activation_steepness)=(0, 0, 0.00000000000000000000e+00) (0, 0, 0.00000000000000000000e+00) (0, 0, 0.00000000000000000000e+00) (0, 0, 0.00000000000000000000e+00) (0, 0, 0.00000000000000000000e+00) (0, 0, 0.00000000000000000000e+00) (0, 0, 0.00000000000000000000e+00) (0, 0, 0.00000000000000000000e+00) (0, 0, 0.00000000000000000000e+00) (0, 0, 0.00000000000000000000e+00) (0, 0, 0.00000000000000000000e+00) (0, 0, 0.00000000000000000000e+00) (0, 0, 0.00000000000000000000e+00) (0, 0, 0.00000000000000000000e+00) (0, 0, 0.00000000000000000000e+00) (0, 0, 0.00000000000000000000e+00) (0, 0, 0.00000000000000000000e+00) (0, 0, 0.00000000000000000000e+00) (0, 0, 0.00000000000000000000e+00) (0, 0, 0.00000000000000000000e+00) (0, 0, 0.00000000000000000000e+00) (0, 0, 0.00000000000000000000e+00) (0, 0, 0.00000000000000000000e+00) (0, 0, 0.00000000000000000000e+00) (0, 0, 0.00000000000000000000e+00) (0, 0, 0.00000000000000000000e+00) (0, 0, 0.00000000000000000000e+00) (0, 0, 0.00000000000000000000e+00) (0, 0, 0.00000000000000000000e+00) (0, 0, 0.00000000000000000000e+00) (0, 0, 0.00000000000000000000e+00) (0, 0, 0.00000000000000000000e+00) (0, 0, 0.00000000000000000000e+00) (0, 0, 0.00000000000000000000e+00) (0, 0, 0.00000000000000000000e+00) (0, 0, 0.00000000000000000000e+00) (0, 0, 0.00000000000000000000e+00) (0, 0, 0.00000000000000000000e+00) (0, 0, 0.00000000000000000000e+00) (0, 0, 0.00000000000000000000e+00) (0, 0, 0.00000000000000000000e+00) (0, 0, 0.00000000000000000000e+00) (0, 0, 0.00000000000000000000e+00) (0, 0, 0.00000000000000000000e+00) (0, 0, 0.00000000000000000000e+00) (0, 0, 0.00000000000000000000e+00) (0, 0, 0.00000000000000000000e+00) (0, 0, 0.00000000000000000000e+00) (0, 0, 0.00000000000000000000e+00) (0, 0, 0.00000000000000000000e+00) (0, 0, 0.00000000000000000000e+00) (0, 0, 0.00000000000000000000e+00) (0, 0, 0.00000000000000000000e+00) (0, 0, 0.00000000000000000000e+00) (0, 0, 0.00000000000000000000e+00) (0, 0, 0.00000000000000000000e+00) (0, 0, 0.00000000000000000000e+00) (0, 0, 0.00000000000000000000e+00) (0, 0, 0.00000000000000000000e+00) (0, 0, 0.00000000000000000000e+00) (0, 0, 0.00000000000000000000e+00) (0, 0, 0.00000000000000000000e+00) (0, 0, 0.00000000000000000000e+00) (0, 0, 0.00000000000000000000e+00) (0, 0, 0.00000000000000000000e+00) (0, 0, 0.00000000000000000000e+00) (0, 0, 0.00000000000000000000e+00) (0, 0, 0.00000000000000000000e+00) (0, 0, 0.00000000000000000000e+00) (0, 0, 0.00000000000000000000e+00) (0, 0, 0.00000000000000000000e+00) (0, 0, 0.00000000000000000000e+00) (0, 0, 0.00000000000000000000e+00) (0, 0, 0.00000000000000000000e+00) (0, 0, 0.00000000000000000000e+00) (0, 0, 0.00000000000000000000e+00) (0, 0, 0.00000000000000000000e+00) (0, 0, 0.00000000000000000000e+00) (0, 0, 0.00000000000000000000e+00) (0, 0, 0.00000000000000000000e+00) (0, 0, 0.00000000000000000000e+00) (0, 0, 0.00000000000000000000e+00) (0, 0, 0.00000000000000000000e+00) (0, 0, 0.00000000000000000000e+00) (0, 0, 0.00000000000000000000e+00) (0, 0, 0.00000000000000000000e+00) (0, 0, 0.00000000000000000000e+00) (0, 0, 0.00000000000000000000e+00) (0, 0, 0.00000000000000000000e+00) (0, 0, 0.00000000000000000000e+00) (0, 0, 0.00000000000000000000e+00) (0, 0, 0.00000000000000000000e+00) (0, 0, 0.00000000000000000000e+00) (0, 0, 0.00000000000000000000e+00) (0, 0, 0.00000000000000000000e+00) (0, 0, 0.00000000000000000000e+00) (0, 0, 0.00000000000000000000e+00) (0, 0, 0.00000000000000000000e+00) (0, 0, 0.00000000000000000000e+00) (0, 0, 0.00000000000000000000e+00) (0, 0, 0.00000000000000000000e+00) (0, 0, 0.00000000000000000000e+00) (0, 0, 0.00000000000000000000e+00) (0, 0, 0.00000000000000000000e+00) (0, 0, 0.00000000000000000000e+00) (0, 0, 0.00000000000000000000e+00) (0, 0, 0.00000000000000000000e+00) (0, 0, 0.00000000000000000000e+00) (0, 0, 0.00000000000000000000e+00) (0, 0, 0.00000000000000000000e+00) (0, 0, 0.00000000000000000000e+00) (0, 0, 0.00000000000000000000e+00) (0, 0, 0.00000000000000000000e+00) (0, 0, 0.00000000000000000000e+00) (0, 0, 0.00000000000000000000e+00) (0, 0, 0.00000000000000000000e+00) (0, 0, 0.00000000000000000000e+00) (0, 0, 0.00000000000000000000e+00) (0, 0, 0.00000000000000000000e+00) (0, 0, 0.00000000000000000000e+00) (0, 0, 0.00000000000000000000e+00) (0, 0, 0.00000000000000000000e+00) (0, 0, 0.00000000000000000000e+00) (0, 0, 0.00000000000000000000e+00) (0, 0, 0.00000000000000000000e+00) (0, 0, 0.00000000000000000000e+00) (0, 0, 0.00000000000000000000e+00) (0, 0, 0.00000000000000000000e+00) (0, 0, 0.00000000000000000000e+00) (0, 0, 0.00000000000000000000e+00) (0, 0, 0.00000000000000000000e+00) (0, 0, 0.00000000000000000000e+00) (0, 0, 0.00000000000000000000e+00) (0, 0, 0.00000000000000000000e+00) (0, 0, 0.00000000000000000000e+00) (0, 0, 0.00000000000000000000e+00) (0, 0, 0.00000000000000000000e+00) (0, 0, 0.00000000000000000000e+00) (0, 0, 0.00000000000000000000e+00) (0, 0, 0.00000000000000000000e+00) (0, 0, 0.00000000000000000000e+00) (0, 0, 0.00000000000000000000e+00) (0, 0, 0.00000000000000000000e+00) (0, 0, 0.00000000000000000000e+00) (0, 0, 0.00000000000000000000e+00) (0, 0, 0.00000000000000000000e+00) (0, 0, 0.00000000000000000000e+00) (0, 0, 0.00000000000000000000e+00) (0, 0, 0.00000000000000000000e+00) (0, 0, 0.00000000000000000000e+00) (0, 0, 0.00000000000000000000e+00) (0, 0, 0.00000000000000000000e+00) (0, 0, 0.00000000000000000000e+00) (0, 0, 0.00000000000000000000e+00) (0, 0, 0.00000000000000000000e+00) (0, 0, 0.00000000000000000000e+00) (0, 0, 0.00000000000000000000e+00) (0, 0, 0.00000000000000000000e+00) (0, 0, 0.00000000000000000000e+00) (0, 0, 0.00000000000000000000e+00) (0, 0, 0.00000000000000000000e+00) (0, 0, 0.00000000000000000000e+00) (0, 0, 0.00000000000000000000e+00) (0, 0, 0.00000000000000000000e+00) (0, 0, 0.00000000000000000000e+00) (0, 0, 0.00000000000000000000e+00) (0, 0, 0.00000000000000000000e+00) (0, 0, 0.00000000000000000000e+00) (0, 0, 0.00000000000000000000e+00) (0, 0, 0.00000000000000000000e+00) (0, 0, 0.00000000000000000000e+00) (0, 0, 0.00000000000000000000e+00) (0, 0, 0.00000000000000000000e+00) (0, 0, 0.00000000000000000000e+00) (0, 0, 0.00000000000000000000e+00) (0, 0, 0.00000000000000000000e+00) (0, 0, 0.00000000000000000000e+00) (0, 0, 0.00000000000000000000e+00) (0, 0, 0.00000000000000000000e+00) (0, 0, 0.00000000000000000000e+00) (0, 0, 0.00000000000000000000e+00) (0, 0, 0.00000000000000000000e+00) (0, 0, 0.00000000000000000000e+00) (0, 0, 0.00000000000000000000e+00) (0, 0, 0.00000000000000000000e+00) (0, 0, 0.00000000000000000000e+00) (0, 0, 0.00000000000000000000e+00) (0, 0, 0.00000000000000000000e+00) (0, 0, 0.00000000000000000000e+00) (0, 0, 0.00000000000000000000e+00) (0, 0, 0.00000000000000000000e+00) (0, 0, 0.00000000000000000000e+00) (0, 0, 0.00000000000000000000e+00) (0, 0, 0.00000000000000000000e+00) (0, 0, 0.00000000000000000000e+00) (0, 0, 0.00000000000000000000e+00) (0, 0, 0.00000000000000000000e+00) (0, 0, 0.00000000000000000000e+00) (0, 0, 0.00000000000000000000e+00) (0, 0, 0.00000000000000000000e+00) (0, 0, 0.00000000000000000000e+00) (0, 0, 0.00000000000000000000e+00) (0, 0, 0.00000000000000000000e+00) (0, 0, 0.00000000000000000000e+00) (0, 0, 0.00000000000000000000e+00) (0, 0, 0.00000000000000000000e+00) (0, 0, 0.00000000000000000000e+00) (0, 0, 0.00000000000000000000e+00) (0, 0, 0.00000000000000000000e+00) (0, 0, 0.00000000000000000000e+00) (0, 0, 0.00000000000000000000e+00) (0, 0, 0.00000000000000000000e+00) (0, 0, 0.00000000000000000000e+00) (0, 0, 0.00000000000000000000e+00) (0, 0, 0.00000000000000000000e+00) (0, 0, 0.00000000000000000000e+00) (0, 0, 0.00000000000000000000e+00) (0, 0, 0.00000000000000000000e+00) (0, 0, 0.00000000000000000000e+00) (0, 0, 0.00000000000000000000e+00) (0, 0, 0.00000000000000000000e+00) (0, 0, 0.00000000000000000000e+00) (0, 0, 0.00000000000000000000e+00) (0, 0, 0.00000000000000000000e+00) (0, 0, 0.00000000000000000000e+00) (0, 0, 0.00000000000000000000e+00) (0, 0, 0.00000000000000000000e+00) (0, 0, 0.00000000000000000000e+00) (0, 0, 0.00000000000000000000e+00) (0, 0, 0.00000000000000000000e+00) (0, 0, 0.00000000000000000000e+00) (0, 0, 0.00000000000000000000e+00) (0, 0, 0.00000000000000000000e+00) (0, 0, 0.00000000000000000000e+00) (0, 0, 0.00000000000000000000e+00) (0, 0, 0.00000000000000000000e+00) (0, 0, 0.00000000000000000000e+00) (0, 0, 0.00000000000000000000e+00) (0, 0, 0.00000000000000000000e+00) (0, 0, 0.00000000000000000000e+00) (0, 0, 0.00000000000000000000e+00) (0, 0, 0.00000000000000000000e+00) (0, 0, 0.00000000000000000000e+00) (0, 0, 0.00000000000000000000e+00) (0, 0, 0.00000000000000000000e+00) (0, 0, 0.00000000000000000000e+00) (0, 0, 0.00000000000000000000e+00) (0, 0, 0.00000000000000000000e+00) (0, 0, 0.00000000000000000000e+00) (0, 0, 0.00000000000000000000e+00) (0, 0, 0.00000000000000000000e+00) (0, 0, 0.00000000000000000000e+00) (0, 0, 0.00000000000000000000e+00) (0, 0, 0.00000000000000000000e+00) (0, 0, 0.00000000000000000000e+00) (0, 0, 0.00000000000000000000e+00) (0, 0, 0.00000000000000000000e+00) (0, 0, 0.00000000000000000000e+00) (0, 0, 0.00000000000000000000e+00) (0, 0, 0.00000000000000000000e+00) (0, 0, 0.00000000000000000000e+00) (0, 0, 0.00000000000000000000e+00) (0, 0, 0.00000000000000000000e+00) (0, 0, 0.00000000000000000000e+00) (0, 0, 0.00000000000000000000e+00) (0, 0, 0.00000000000000000000e+00) (0, 0, 0.00000000000000000000e+00) (0, 0, 0.00000000000000000000e+00) (0, 0, 0.00000000000000000000e+00) (0, 0, 0.00000000000000000000e+00) (0, 0, 0.00000000000000000000e+00) (0, 0, 0.00000000000000000000e+00) (0, 0, 0.00000000000000000000e+00) (0, 0, 0.00000000000000000000e+00) (0, 0, 0.00000000000000000000e+00) (0, 0, 0.00000000000000000000e+00) (0, 0, 0.00000000000000000000e+00) (0, 0, 0.00000000000000000000e+00) (0, 0, 0.00000000000000000000e+00) (0, 0, 0.00000000000000000000e+00) (0, 0, 0.00000000000000000000e+00) (0, 0, 0.00000000000000000000e+00) (0, 0, 0.00000000000000000000e+00) (0, 0, 0.00000000000000000000e+00) (0, 0, 0.00000000000000000000e+00) (0, 0, 0.00000000000000000000e+00) (0, 0, 0.00000000000000000000e+00) (0, 0, 0.00000000000000000000e+00) (0, 0, 0.00000000000000000000e+00) (0, 0, 0.00000000000000000000e+00) (0, 0, 0.00000000000000000000e+00) (0, 0, 0.00000000000000000000e+00) (0, 0, 0.00000000000000000000e+00) (0, 0, 0.00000000000000000000e+00) (0, 0, 0.00000000000000000000e+00) (0, 0, 0.00000000000000000000e+00) (0, 0, 0.00000000000000000000e+00) (0, 0, 0.00000000000000000000e+00) (0, 0, 0.00000000000000000000e+00) (0, 0, 0.00000000000000000000e+00) (0, 0, 0.00000000000000000000e+00) (0, 0, 0.00000000000000000000e+00) (0, 0, 0.00000000000000000000e+00) (0, 0, 0.00000000000000000000e+00) (0, 0, 0.00000000000000000000e+00) (0, 0, 0.00000000000000000000e+00) (0, 0, 0.00000000000000000000e+00) (0, 0, 0.00000000000000000000e+00) (0, 0, 0.00000000000000000000e+00) (0, 0, 0.00000000000000000000e+00) (0, 0, 0.00000000000000000000e+00) (0, 0, 0.00000000000000000000e+00) (0, 0, 0.00000000000000000000e+00) (0, 0, 0.00000000000000000000e+00) (0, 0, 0.00000000000000000000e+00) (0, 0, 0.00000000000000000000e+00) (0, 0, 0.00000000000000000000e+00) (0, 0, 0.00000000000000000000e+00) (0, 0, 0.00000000000000000000e+00) (0, 0, 0.00000000000000000000e+00) (0, 0, 0.00000000000000000000e+00) (0, 0, 0.00000000000000000000e+00) (0, 0, 0.00000000000000000000e+00) (0, 0, 0.00000000000000000000e+00) (0, 0, 0.00000000000000000000e+00) (0, 0, 0.00000000000000000000e+00) (0, 0, 0.00000000000000000000e+00) (0, 0, 0.00000000000000000000e+00) (0, 0, 0.00000000000000000000e+00) (0, 0, 0.00000000000000000000e+00) (0, 0, 0.00000000000000000000e+00) (0, 0, 0.00000000000000000000e+00) (0, 0, 0.00000000000000000000e+00) (0, 0, 0.00000000000000000000e+00) (0, 0, 0.00000000000000000000e+00) (0, 0, 0.00000000000000000000e+00) (0, 0, 0.00000000000000000000e+00) (0, 0, 0.00000000000000000000e+00) (0, 0, 0.00000000000000000000e+00) (0, 0, 0.00000000000000000000e+00) (0, 0, 0.00000000000000000000e+00) (0, 0, 0.00000000000000000000e+00) (0, 0, 0.00000000000000000000e+00) (0, 0, 0.00000000000000000000e+00) (0, 0, 0.00000000000000000000e+00) (0, 0, 0.00000000000000000000e+00) (0, 0, 0.00000000000000000000e+00) (0, 0, 0.00000000000000000000e+00) (0, 0, 0.00000000000000000000e+00) (0, 0, 0.00000000000000000000e+00) (0, 0, 0.00000000000000000000e+00) (0, 0, 0.00000000000000000000e+00) (0, 0, 0.00000000000000000000e+00) (0, 0, 0.00000000000000000000e+00) (0, 0, 0.00000000000000000000e+00) (0, 0, 0.00000000000000000000e+00) (0, 0, 0.00000000000000000000e+00) (0, 0, 0.00000000000000000000e+00) (0, 0, 0.00000000000000000000e+00) (0, 0, 0.00000000000000000000e+00) (0, 0, 0.00000000000000000000e+00) (0, 0, 0.00000000000000000000e+00) (0, 0, 0.00000000000000000000e+00) (0, 0, 0.00000000000000000000e+00) (0, 0, 0.00000000000000000000e+00) (0, 0, 0.00000000000000000000e+00) (0, 0, 0.00000000000000000000e+00) (0, 0, 0.00000000000000000000e+00) (0, 0, 0.00000000000000000000e+00) (0, 0, 0.00000000000000000000e+00) (0, 0, 0.00000000000000000000e+00) (0, 0, 0.00000000000000000000e+00) (0, 0, 0.00000000000000000000e+00) (0, 0, 0.00000000000000000000e+00) (0, 0, 0.00000000000000000000e+00) (0, 0, 0.00000000000000000000e+00) (0, 0, 0.00000000000000000000e+00) (0, 0, 0.00000000000000000000e+00) (0, 0, 0.00000000000000000000e+00) (0, 0, 0.00000000000000000000e+00) (0, 0, 0.00000000000000000000e+00) (0, 0, 0.00000000000000000000e+00) (0, 0, 0.00000000000000000000e+00) (0, 0, 0.00000000000000000000e+00) (0, 0, 0.00000000000000000000e+00) (0, 0, 0.00000000000000000000e+00) (0, 0, 0.00000000000000000000e+00) (0, 0, 0.00000000000000000000e+00) (0, 0, 0.00000000000000000000e+00) (0, 0, 0.00000000000000000000e+00) (0, 0, 0.00000000000000000000e+00) (0, 0, 0.00000000000000000000e+00) (0, 0, 0.00000000000000000000e+00) (0, 0, 0.00000000000000000000e+00) (0, 0, 0.00000000000000000000e+00) (0, 0, 0.00000000000000000000e+00) (0, 0, 0.00000000000000000000e+00) (0, 0, 0.00000000000000000000e+00) (0, 0, 0.00000000000000000000e+00) (0, 0, 0.00000000000000000000e+00) (0, 0, 0.00000000000000000000e+00) (401, 5, 5.00000000000000000000e-01) (401, 5, 5.00000000000000000000e-01) (401, 5, 5.00000000000000000000e-01) (401, 5, 5.00000000000000000000e-01) (401, 5, 5.00000000000000000000e-01) (401, 5, 5.00000000000000000000e-01) (401, 5, 5.00000000000000000000e-01) (401, 5, 5.00000000000000000000e-01) (401, 5, 5.00000000000000000000e-01) (401, 5, 5.00000000000000000000e-01) (401, 5, 5.00000000000000000000e-01) (401, 5, 5.00000000000000000000e-01) (401, 5, 5.00000000000000000000e-01) (401, 5, 5.00000000000000000000e-01) (401, 5, 5.00000000000000000000e-01) (401, 5, 5.00000000000000000000e-01) (401, 5, 5.00000000000000000000e-01) (401, 5, 5.00000000000000000000e-01) (401, 5, 5.00000000000000000000e-01) (401, 5, 5.00000000000000000000e-01) (401, 5, 5.00000000000000000000e-01) (401, 5, 5.00000000000000000000e-01) (401, 5, 5.00000000000000000000e-01) (401, 5, 5.00000000000000000000e-01) (401, 5, 5.00000000000000000000e-01) (401, 5, 5.00000000000000000000e-01) (401, 5, 5.00000000000000000000e-01) (401, 5, 5.00000000000000000000e-01) (401, 5, 5.00000000000000000000e-01) (401, 5, 5.00000000000000000000e-01) (401, 5, 5.00000000000000000000e-01) (401, 5, 5.00000000000000000000e-01) (401, 5, 5.00000000000000000000e-01) (401, 5, 5.00000000000000000000e-01) (401, 5, 5.00000000000000000000e-01) (401, 5, 5.00000000000000000000e-01) (401, 5, 5.00000000000000000000e-01) (401, 5, 5.00000000000000000000e-01) (401, 5, 5.00000000000000000000e-01) (401, 5, 5.00000000000000000000e-01) (401, 5, 5.00000000000000000000e-01) (401, 5, 5.00000000000000000000e-01) (401, 5, 5.00000000000000000000e-01) (401, 5, 5.00000000000000000000e-01) (401, 5, 5.00000000000000000000e-01) (401, 5, 5.00000000000000000000e-01) (401, 5, 5.00000000000000000000e-01) (401, 5, 5.00000000000000000000e-01) (401, 5, 5.00000000000000000000e-01) (401, 5, 5.00000000000000000000e-01) (401, 5, 5.00000000000000000000e-01) (401, 5, 5.00000000000000000000e-01) (401, 5, 5.00000000000000000000e-01) (401, 5, 5.00000000000000000000e-01) (401, 5, 5.00000000000000000000e-01) (401, 5, 5.00000000000000000000e-01) (401, 5, 5.00000000000000000000e-01) (401, 5, 5.00000000000000000000e-01) (401, 5, 5.00000000000000000000e-01) (401, 5, 5.00000000000000000000e-01) (401, 5, 5.00000000000000000000e-01) (401, 5, 5.00000000000000000000e-01) (401, 5, 5.00000000000000000000e-01) (401, 5, 5.00000000000000000000e-01) (401, 5, 5.00000000000000000000e-01) (401, 5, 5.00000000000000000000e-01) (401, 5, 5.00000000000000000000e-01) (401, 5, 5.00000000000000000000e-01) (401, 5, 5.00000000000000000000e-01) (401, 5, 5.00000000000000000000e-01) (401, 5, 5.00000000000000000000e-01) (401, 5, 5.00000000000000000000e-01) (401, 5, 5.00000000000000000000e-01) (401, 5, 5.00000000000000000000e-01) (401, 5, 5.00000000000000000000e-01) (401, 5, 5.00000000000000000000e-01) (401, 5, 5.00000000000000000000e-01) (401, 5, 5.00000000000000000000e-01) (401, 5, 5.00000000000000000000e-01) (401, 5, 5.00000000000000000000e-01) (401, 5, 5.00000000000000000000e-01) (401, 5, 5.00000000000000000000e-01) (401, 5, 5.00000000000000000000e-01) (401, 5, 5.00000000000000000000e-01) (401, 5, 5.00000000000000000000e-01) (401, 5, 5.00000000000000000000e-01) (401, 5, 5.00000000000000000000e-01) (401, 5, 5.00000000000000000000e-01) (401, 5, 5.00000000000000000000e-01) (401, 5, 5.00000000000000000000e-01) (401, 5, 5.00000000000000000000e-01) (401, 5, 5.00000000000000000000e-01) (401, 5, 5.00000000000000000000e-01) (401, 5, 5.00000000000000000000e-01) (401, 5, 5.00000000000000000000e-01) (401, 5, 5.00000000000000000000e-01) (401, 5, 5.00000000000000000000e-01) (401, 5, 5.00000000000000000000e-01) (401, 5, 5.00000000000000000000e-01) (401, 5, 5.00000000000000000000e-01) (0, 5, 0.00000000000000000000e+00) (101, 5, 5.00000000000000000000e-01) (101, 5, 5.00000000000000000000e-01) (101, 5, 5.00000000000000000000e-01) (101, 5, 5.00000000000000000000e-01) (0, 5, 0.00000000000000000000e+00) 
connections (connected_to_neuron, weight)=(0, 1.50000000000000000000e+03) (1, 1.50000000000000000000e+03) (2, 1.50000000000000000000e+03) (3, 1.50000000000000000000e+03) (4, 1.50000000000000000000e+03) (5, 1.50000000000000000000e+03) (6, 1.50000000000000000000e+03) (7, 1.50000000000000000000e+03) (8, 1.50000000000000000000e+03) (9, 1.50000000000000000000e+03) (10, 4.15719080337211499554e-01) (11, -3.28062640900773028196e-01) (12, 1.02792855050204481882e-01) (13, 1.38848943585208994822e-01) (14, 1.50000000000000000000e+03) (15, 1.50000000000000000000e+03) (16, 1.50000000000000000000e+03) (17, 1.50000000000000000000e+03) (18, 1.50000000000000000000e+03) (19, 1.50000000000000000000e+03) (20, 1.50000000000000000000e+03) (21, 1.50000000000000000000e+03) (22, 1.50000000000000000000e+03) (23, 9.07376480548502284407e-01) (24, 9.02554703204752284407e-01) (25, 3.87811650795625684207e-01) (26, 1.31529043115538124553e+00) (27, 2.93767295421967611357e-01) (28, 5.38846504380075197460e-01) (29, -1.66274764948111358764e-01) (30, 7.95726781992797356224e+01) (31, 8.70170027392894951390e-01) (32, 8.81041972164811393320e-01) (33, 2.80454008706234936277e-01) (34, 9.83434133969335455561e+00) (35, 1.50000000000000000000e+03) (36, 1.50000000000000000000e+03) (37, 1.50000000000000000000e+03) (38, 1.50000000000000000000e+03) (39, 1.50000000000000000000e+03) (40, 1.50000000000000000000e+03) (41, 1.50000000000000000000e+03) (42, 9.02762224226118403791e-01) (43, 7.23720820590445956810e-01) (44, -1.00852118199737175730e-01) (45, 7.57683866429782609808e-02) (46, -2.17617822649938230661e-01) (47, -6.07989649575189416986e-01) (48, 3.85569411835426298363e-02) (49, -4.74316752541139100008e-02) (50, 6.39860926260025775214e-02) (51, -3.30765321690227112605e-03) (52, 9.09818102163534453419e-02) (53, 3.33405337170071425223e-01) (54, 4.28929785915990624545e-01) (55, 5.67010118820066133516e-01) (56, 2.98078417154498609420e+00) (57, 2.45310426704467854364e+00) (58, 1.50000000000000000000e+03) (59, 1.50000000000000000000e+03) (60, 1.50000000000000000000e+03) (61, 1.01997413232815326012e+00) (62, 1.00677223995220743724e+00) (63, 2.26940264787097056853e+00) (64, 2.14783445936816697053e-01) (65, 1.80268042122679661432e-01) (66, 2.67543302032607205332e-02) (67, 2.55445773244416363124e-01) (68, 3.32820105582533887212e-01) (69, 4.27095226980197473221e-01) (70, 4.53591787185259720516e-01) (71, 3.34246030132597404805e-01) (72, 5.36512434729512210918e-03) (73, 2.66008634098544471946e-01) (74, 3.57089733708033985060e-01) (75, 4.05018031136964717920e-01) (76, 3.04540841960743879913e-01) (77, 3.68091505193371171245e+00) (78, 1.50000000000000000000e+03) (79, 1.50000000000000000000e+03) (80, 1.50000000000000000000e+03) (81, 1.01537819698345743724e+00) (82, 2.12759886993607372219e-01) (83, 1.68602252988120565602e-01) (84, 1.26242130324884543890e-01) (85, -4.63546451810067441923e-02) (86, 4.36412630485381924927e-01) (87, 3.95747118835542255333e-01) (88, 5.05740978876551561250e-01) (89, 7.31045516263636452337e-01) (90, 6.62802783889913649240e-01) (91, 5.34942057757020084097e-01) (92, 4.67229675890828421991e-01) (93, -7.79077023814480296160e-01) (94, -7.56225630058022457725e-01) (95, 2.82428114228218618553e-01) (96, 4.67342897818243563357e-01) (97, 1.50000000000000000000e+03) (98, 1.50000000000000000000e+03) (99, 1.50000000000000000000e+03) (100, 1.50000000000000000000e+03) (101, 9.38504410236002284407e-01) (102, 3.54042218790589280353e-01) (103, -3.67817408787462218900e-01) (104, 2.18853180765979121736e-01) (105, 3.45865496060092314501e-01) (106, 4.63691362411475238581e-01) (107, 3.29282188519079699329e-01) (108, 7.80997464204138736044e-01) (109, 9.32651520468947170528e-01) (110, 2.13210747138666834033e-01) (111, 3.20096885845418344108e-01) (112, -4.72114301728813023917e-01) (113, 1.65597433703969398877e-01) (114, -5.08252714245149728178e-01) (115, -1.26187922520183071207e-01) (116, 3.84937991204858831473e-01) (117, 1.50000000000000000000e+03) (118, 1.50000000000000000000e+03) (119, 1.50000000000000000000e+03) (120, 1.50000000000000000000e+03) (121, 8.42795183210493403791e-01) (122, -3.05364400765393340098e-01) (123, -4.52723740694615739422e-01) (124, -2.45258240350742541536e-03) (125, 2.45803012991372381302e-03) (126, 4.76351929944693996966e-01) (127, 7.00269621001694875240e-01) (128, 5.71434985159686492651e-01) (129, 8.72051949689888056261e-02) (130, 1.96662146269894227979e-01) (131, 3.15618546256715218346e-02) (132, -4.36864140199691719513e-01) (133, -2.09457171177901801951e-01) (134, -3.08479006142436895654e-01) (135, -6.79902505339604612544e-01) (136, -1.44759067663742313492e+00) (137, 1.50000000000000000000e+03) (138, 1.50000000000000000000e+03) (139, 1.50000000000000000000e+03) (140, 1.50000000000000000000e+03) (141, 8.85696792303444224714e-01) (142, 3.37988374119471246537e-01) (143, 4.14142970287646572380e-01) (144, 3.05514927218153820032e-01) (145, 3.66135362552326815155e-01) (146, 3.15635840529391697995e-01) (147, 4.02086252590591608502e-01) (148, 1.11213702778427250828e-01) (149, -9.51746178186141378319e-02) (150, 5.54630702110320353282e-02) (151, 2.00791656398013940166e-01) (152, -2.38682326518315113262e-01) (153, 7.12770190691043026288e-02) (154, -1.61899401417469196440e-01) (155, -7.89544833447711091878e-01) (156, -1.82353048688698837765e+00) (157, 1.50000000000000000000e+03) (158, 1.50000000000000000000e+03) (159, 1.50000000000000000000e+03) (160, 1.50000000000000000000e+03) (161, 8.43014908282877284407e-01) (162, 3.83192010039569597168e-01) (163, 7.43601372947486405351e-01) (164, 3.93216448553103226082e-01) (165, 3.33760479797650944089e-01) (166, 5.53784944348904017986e-01) (167, -8.36390807384931184165e-02) (168, -9.47895210389176068322e-02) (169, -3.27988326736495944269e-02) (170, -4.18564514618216670927e-02) (171, 8.43981225028353210238e-02) (172, -1.40333981205662067238e-01) (173, -1.48529364309356676221e-01) (174, -1.44764009529116582931e-01) (175, -1.67590754213241566184e+00) (176, -1.66095113671351479745e+00) (177, 1.50000000000000000000e+03) (178, 1.50000000000000000000e+03) (179, 1.50000000000000000000e+03) (180, 1.50000000000000000000e+03) (181, 1.50000000000000000000e+03) (182, 5.36889119444730389397e-01) (183, 5.51168497781941546521e-01) (184, 7.30707436697355716682e-01) (185, 7.52451919663440271790e-01) (186, 4.21566910304192410397e-01) (187, 3.70262493774365208932e-01) (188, 4.05153461225173039395e-01) (189, 2.00812116143215785291e-01) (190, 4.70956080728611947706e-01) (191, 6.10272964749117519112e-01) (192, 3.09878134731917109779e-01) (193, 4.30789694976461301490e-01) (194, -6.06469793523056188711e-02) (195, -1.55122868374799871560e+00) (196, 2.23808274380924959734e-01) (197, 2.74818365237581119231e+01) (198, 1.12268618378720685946e+00) (199, 1.50000000000000000000e+03) (200, 1.50000000000000000000e+03) (201, 1.50000000000000000000e+03) (202, 1.90740138406046588759e-01) (203, 3.05875494624437749280e-01) (204, 5.55840934799295527391e-01) (205, 4.28339566916719316492e-01) (206, 7.74034167330864053547e-01) (207, 5.23246955352853593268e-01) (208, 6.47623065899414651625e-01) (209, 3.98012986350219810650e-01) (210, 3.89087144686662111948e-01) (211, 7.02320017475384528183e-01) (212, 6.84213681939036644231e-01) (213, 4.43501064428668323458e-01) (214, 4.97080019419168517292e-01) (215, 3.34807040755027152112e-01) (216, 2.78316540612401797095e-01) (217, 1.50000000000000000000e+03) (218, 1.50000000000000000000e+03) (219, 1.50000000000000000000e+03) (220, 1.50000000000000000000e+03) (221, 9.22895670742014284649e-01) (222, 3.65008679220935439158e-01) (223, 2.38872615659602355320e-01) (224, 4.38950741255909271388e-01) (225, 5.29211386107428682912e-01) (226, 6.12769008010049409663e-01) (227, 1.56133003513036550114e-01) (228, 5.25050583513227753230e-01) (229, 3.79117699383950013114e-01) (230, 6.22376270467133840825e-01) (231, 7.28957810517362525538e-01) (232, 7.18429209206259078435e-01) (233, 3.96110669468107912117e-01) (234, 6.17222086283950033270e-01) (235, 3.90044335294343069709e-01) (236, -3.43771448655847577935e-01) (237, 1.50000000000000000000e+03) (238, 1.50000000000000000000e+03) (239, 1.50000000000000000000e+03) (240, 1.50000000000000000000e+03) (241, 1.50000000000000000000e+03) (242, 3.93817976804517189127e-01) (243, 3.24465081804930499665e-01) (244, 3.77649598107572870287e-01) (245, 3.77175729198118259156e-01) (246, 3.57394753231780271108e-01) (247, 5.88431773336544172714e-01) (248, 9.12802779297363309219e-01) (249, 7.25035323517609575639e-01) (250, 7.58602532513623861732e-01) (251, 6.27257536894336720223e-01) (252, 6.94817947035097360775e-01) (253, 3.82373686160665360312e-01) (254, 3.43081930172178917182e-01) (255, 3.11507215978888196695e-01) (256, -2.32126787304734460982e-01) (257, 1.50000000000000000000e+03) (258, 1.50000000000000000000e+03) (259, 1.50000000000000000000e+03) (260, 1.50000000000000000000e+03) (261, 1.50000000000000000000e+03) (262, 5.35576898679623547572e-01) (263, 1.09928629934128198331e-02) (264, 4.29499823436419736478e-01) (265, 5.18597866671625329360e-01) (266, 5.93199809913480313739e-01) (267, 8.34559792940292255459e-01) (268, 1.26979270141432354357e+00) (269, 6.74679002190668120065e-01) (270, 6.11739203351959859312e-01) (271, 7.64973041065159398144e-01) (272, 5.85274293213736029884e-01) (273, 4.37707597949628990364e-01) (274, 2.23036350985461900853e-01) (275, 2.90238394555174028522e-01) (276, 3.24001189262540956193e-01) (277, 1.20884341631017133700e+00) (278, 1.50000000000000000000e+03) (279, 1.50000000000000000000e+03) (280, 1.50000000000000000000e+03) (281, 1.50000000000000000000e+03) (282, 7.00957298486676094740e-01) (283, -1.41210257062737154499e-01) (284, 1.36942308534962725597e-01) (285, 3.31170687954339071357e-01) (286, 4.70384135989163953973e-01) (287, 5.04314152874213883493e-01) (288, 9.67252928060348571293e-01) (289, 8.24390004968980072420e-01) (290, 5.23987017005199895436e-01) (291, 5.30287742983068133285e-01) (292, 4.57545090449427649393e-01) (293, 3.88294164060708046904e-01) (294, 3.97626730733855515698e-01) (295, 4.28772434019983605946e-01) (296, 4.92486803167754005894e-01) (297, 1.15777529660544797885e+00) (298, 1.16429385427318021762e+00) (299, 1.50000000000000000000e+03) (300, 1.50000000000000000000e+03) (301, 1.50000000000000000000e+03) (302, 1.50000000000000000000e+03) (303, 1.31199186893238867180e-01) (304, 8.74624876566497538866e-02) (305, 1.83235594007485042001e-01) (306, 4.90077841056234198014e-01) (307, 4.86352372479867567368e-01) (308, 5.01325081129005978298e-01) (309, 5.42140329515771624003e-01) (310, 6.61367027783279826103e-01) (311, 3.42446632474199930130e-01) (312, 4.74698279017423285797e-01) (313, 4.70220124827659402555e-01) (314, 2.88454444689981326366e-01) (315, 3.04650925095415359145e-01) (316, 3.53353181685477246710e-01) (317, 1.17113589379868909823e+00) (318, 1.09547671187601491916e+00) (319, 1.50000000000000000000e+03) (320, 1.50000000000000000000e+03) (321, 1.50000000000000000000e+03) (322, 1.50000000000000000000e+03) (323, 2.70152069905871083932e+00) (324, 9.25906734113231683070e-02) (325, 2.84579199277313621419e-01) (326, 3.37785674319830475643e-01) (327, 3.28497317967139379480e-01) (328, 4.79340845826621897441e-01) (329, 3.47906597207224166368e-01) (330, 3.59321906359733878045e-01) (331, 5.19953438951446744731e-01) (332, 3.18854340265041613645e-01) (333, 3.63587193430542077177e-01) (334, 1.88509186650841570332e-01) (335, 3.19271088850934470216e-01) (336, 4.07924202774231248192e-01) (337, 1.16185244802318021762e+00) (338, 1.50000000000000000000e+03) (339, 1.50000000000000000000e+03) (340, 1.50000000000000000000e+03) (341, 1.50000000000000000000e+03) (342, 1.50000000000000000000e+03) (343, -2.31911332421324489772e+00) (344, 3.73513318711276465223e+00) (345, 3.62745892078714105011e-01) (346, 3.80717620505930387509e-01) (347, 1.93595049053104123482e-01) (348, 2.34022811087032239774e-01) (349, 3.18319501440409574622e-02) (350, 5.22970335643175923690e-02) (351, -5.50349196242821830927e-02) (352, 2.89387581803517535128e-01) (353, 3.02408705130830512964e-01) (354, 3.35638932902239783829e-01) (355, 1.82679971242820954336e-01) (356, 5.62928287036166041801e-01) (357, 7.94866696293727192923e-01) (358, 5.12465744748215534798e+00) (359, 1.50000000000000000000e+03) (360, 1.50000000000000000000e+03) (361, 1.50000000000000000000e+03) (362, 1.50000000000000000000e+03) (363, 1.50000000000000000000e+03) (364, 3.12973887140360729209e-01) (365, 5.90813822581925163213e-01) (366, 3.79810902321420729155e-01) (367, 3.44974655325352985713e-01) (368, 1.67724266845855424224e-01) (369, 3.30418759950622809018e-01) (370, 4.67533261401011090985e-02) (371, -7.88583704906314797434e-01) (372, -2.42136717958321423527e-01) (373, -1.64403434457843188043e-02) (374, 2.66998699120106819382e-01) (375, 5.39573638722881332441e-01) (376, 3.25028811937653483444e-01) (377, 6.35128050825147449920e-01) (378, 1.50000000000000000000e+03) (379, 1.50000000000000000000e+03) (380, 1.50000000000000000000e+03) (381, 1.50000000000000000000e+03) (382, 1.50000000000000000000e+03) (383, 1.50000000000000000000e+03) (384, 7.90410060667039865434e-02) (385, -7.29182269192693854887e-02) (386, 5.42365159688687814565e-01) (387, 6.84094901977277181082e-01) (388, 3.56048028475741074050e-01) (389, -3.20113617769338443253e-01) (390, -1.14098385470385510487e+00) (391, -1.61319153828816286289e-01) (392, -6.88023877725250199155e-01) (393, 2.31616051448160433779e+01) (394, 1.50000000000000000000e+03) (395, 1.50000000000000000000e+03) (396, 1.50000000000000000000e+03) (397, 1.50000000000000000000e+03) (398, 1.50000000000000000000e+03) (399, 1.50000000000000000000e+03) (400, 7.00639770272497686143e-01) (0, 1.50000000000000000000e+03) (1, 1.50000000000000000000e+03) (2, 1.50000000000000000000e+03) (3, 1.50000000000000000000e+03) (4, 1.50000000000000000000e+03) (5, 1.50000000000000000000e+03) (6, 1.50000000000000000000e+03) (7, 1.50000000000000000000e+03) (8, 1.50000000000000000000e+03) (9, 1.50000000000000000000e+03) (10, -1.04706317730292347568e-01) (11, 4.69347172464845030504e-01) (12, 6.14724707326448557843e-02) (13, 5.91244222015280540550e-02) (14, 1.50000000000000000000e+03) (15, 1.50000000000000000000e+03) (16, 1.50000000000000000000e+03) (17, 1.50000000000000000000e+03) (18, 1.50000000000000000000e+03) (19, 1.50000000000000000000e+03) (20, 1.50000000000000000000e+03) (21, 1.50000000000000000000e+03) (22, 1.50000000000000000000e+03) (23, 1.27703043413003869411e-01) (24, 9.57755509434546625780e-02) (25, 1.66586497770925517914e-01) (26, 2.25830236284210283948e-01) (27, 4.47258186743648200601e-01) (28, 2.39386024482958675863e-01) (29, 2.08705859151110839633e-01) (30, -5.08032798115209294210e-01) (31, -2.26677523512566064801e-03) (32, -5.89501355608174834599e-02) (33, 2.24790423850902115754e-01) (34, 2.22514456868825566405e-01) (35, 1.50000000000000000000e+03) (36, 1.50000000000000000000e+03) (37, 1.50000000000000000000e+03) (38, 1.50000000000000000000e+03) (39, 1.50000000000000000000e+03) (40, 1.50000000000000000000e+03) (41, 1.50000000000000000000e+03) (42, 1.96428629350503841655e-01) (43, 9.97682403874558948464e-02) (44, 2.50669526934536479601e-01) (45, 9.70616677277105766031e-02) (46, 6.57961903983288687314e-01) (47, -2.56198322768647727965e-02) (48, 2.78313337722283955789e-02) (49, 6.09927263157567303709e-02) (50, 8.90799633961644465874e-02) (51, 2.03783249497286461649e-01) (52, 1.87397278680663026407e-01) (53, 2.05059489237935865802e+00) (54, 2.94628529003425787547e-01) (55, 2.32060810828913950676e-02) (56, -4.30372447300981196550e-03) (57, 6.61613985008167593271e-02) (58, 1.50000000000000000000e+03) (59, 1.50000000000000000000e+03) (60, 1.50000000000000000000e+03) (61, 2.04930829596361080425e-01) (62, 1.14617104422887736148e-01) (63, 4.37693642750720623980e+00) (64, 2.15186937866358840576e-01) (65, 6.02477374066107795869e-01) (66, 8.80747397181351199258e-02) (67, 7.58855162330545063298e-02) (68, 8.26289331012393241105e-02) (69, 1.72141485874357132169e-02) (70, 6.75131331271839746355e-02) (71, -8.35168837560978094547e-02) (72, -1.72639699336844254507e-01) (73, 1.43892136398926950847e-01) (74, 1.26176378830907248013e-02) (75, 1.98286308801505689603e-01) (76, -7.07095301853525037838e-02) (77, 9.09570740121602161476e-02) (78, 1.50000000000000000000e+03) (79, 1.50000000000000000000e+03) (80, 1.50000000000000000000e+03) (81, 1.25810953569253869411e-01) (82, -4.04268119171206086193e-02) (83, 4.15397398946561330346e-02) (84, 1.39712844724647400341e+00) (85, 1.13084139503348835021e-01) (86, 4.21412569952890544989e-02) (87, -4.82815674042729389703e-02) (88, 2.42172031686050219512e-02) (89, 3.01852050291711415664e-01) (90, -2.97069732948070340528e-02) (91, -1.83880899226217565945e-02) (92, -2.12200505468176731094e-01) (93, 2.11497676850985111274e-01) (94, 2.33685329615932746439e-01) (95, 1.31576658510255156687e-01) (96, 1.05391560104041090429e-01) (97, 1.50000000000000000000e+03) (98, 1.50000000000000000000e+03) (99, 1.50000000000000000000e+03) (100, 1.50000000000000000000e+03) (101, 8.48014305947627222704e-02) (102, 5.38225610820953881408e-01) (103, 2.43244010009484951107e-01) (104, 2.67181810658194074382e-01) (105, -3.67946571046357112644e-02) (106, -2.01741329315190981442e-01) (107, -1.59915764127252724158e-01) (108, -1.67189702577144438944e-01) (109, 2.02651859847672449755e-01) (110, 2.58154670968101518369e-01) (111, 8.97748631593187768063e-02) (112, 2.07738597284187927194e-02) (113, -1.00503355468829339014e-01) (114, 1.27655105970386706371e-01) (115, 1.28616407499529766811e-01) (116, -1.18367680318313261978e+00) (117, 1.50000000000000000000e+03) (118, 1.50000000000000000000e+03) (119, 1.50000000000000000000e+03) (120, 1.50000000000000000000e+03) (121, 1.16753334891637736148e-01) (122, 3.44752280534171173798e-01) (123, 1.84381193765696699272e-01) (124, 1.39561039784401680341e-01) (125, 1.85360177306924278628e-01) (126, -1.49980933359453144638e-01) (127, -2.12085232216192354215e-01) (128, 3.30419908547775476038e-02) (129, 8.49416877560743160958e-02) (130, 2.83767119204943671362e-02) (131, 1.42766356495736101984e-01) (132, 9.54990647538082604306e-02) (133, 3.72486906721159263811e-02) (134, 1.43164915447541812865e-01) (135, 2.18540978940214458692e-01) (136, 1.00758788198941728886e+00) (137, 1.50000000000000000000e+03) (138, 1.50000000000000000000e+03) (139, 1.50000000000000000000e+03) (140, 1.50000000000000000000e+03) (141, 1.76280918311914308605e-01) (142, -3.02952182078139120591e-01) (143, 6.57442868510804689919e-02) (144, -8.37951429481189613568e-02) (145, -2.08960813267326656062e-01) (146, -3.96244235155112992097e-02) (147, 3.87356206520335453330e-03) (148, 4.32608307149848284046e-02) (149, 1.28378586131273175752e-01) (150, 1.31500782422433931673e-01) (151, 2.04414477794957805123e-01) (152, -4.09871957286544325028e-02) (153, 1.51999316261332423350e-01) (154, 1.26426901494532339942e-01) (155, 1.00537503685819554211e-01) (156, 1.95505745515504258947e-01) (157, 1.50000000000000000000e+03) (158, 1.50000000000000000000e+03) (159, 1.50000000000000000000e+03) (160, 1.50000000000000000000e+03) (161, 1.39965007793744961040e-01) (162, -4.90551372947847161288e-02) (163, 1.06535941582414320217e-01) (164, 1.79774791659314453485e-01) (165, 5.88148154012304649751e-02) (166, 2.36829863262962569959e-01) (167, 1.64323839004346744508e-01) (168, -5.55544918110683905166e-02) (169, -7.76628678952115125700e-02) (170, -2.48590612541586507278e-02) (171, 6.84443705884285741314e-02) (172, 1.12326188673745192004e-01) (173, 7.59672813183167455753e-02) (174, 1.33880847239615102806e-01) (175, 7.94768105234451849306e-02) (176, 1.39371700391450276113e-01) (177, 1.50000000000000000000e+03) (178, 1.50000000000000000000e+03) (179, 1.50000000000000000000e+03) (180, 1.50000000000000000000e+03) (181, 1.50000000000000000000e+03) (182, -5.18600269052244752799e-02) (183, 9.27053390472276778178e-02) (184, 1.49108082374415779059e-01) (185, 1.09091886259861936548e-01) (186, 2.26818420531167075360e-01) (187, 1.98647008799440971671e-01) (188, 4.40626511584714039560e-02) (189, -5.39394414451703323177e-03) (190, 1.57269100508787063042e-01) (191, 1.21197957766135414048e-01) (192, -2.00159256996808948559e-01) (193, 5.40256491400647950729e-02) (194, -1.04537609169232020845e-01) (195, 2.08471586559973581787e-01) (196, 9.90258185987588357424e-02) (197, 4.19048265357651605889e-01) (198, 3.89120891848844310812e-02) (199, 1.50000000000000000000e+03) (200, 1.50000000000000000000e+03) (201, 1.50000000000000000000e+03) (202, 1.16613319404540435875e-01) (203, 1.95247468168237875430e-01) (204, 1.69544825141947214098e-01) (205, 1.77996353389313161086e-01) (206, 1.05702549043204072077e-01) (207, 1.85752781770503444525e-01) (208, 1.10317226630721049174e-02) (209, 1.09046378662842214508e-02) (210, 1.34559054445791054233e-01) (211, 1.34887662087867371552e-01) (212, -1.41955856089991866442e-01) (213, -3.01390477016858837622e-01) (214, 1.00581988799806870682e-01) (215, 2.09380948741293870796e-01) (216, 1.77733357051747226096e-01) (217, 1.50000000000000000000e+03) (218, 1.50000000000000000000e+03) (219, 1.50000000000000000000e+03) (220, 1.50000000000000000000e+03) (221, -3.38795776188268005225e-01) (222, 1.05553142727625462460e-01) (223, 4.50831311478435081685e-01) (224, 4.34146919104790529609e-01) (225, 1.12528913327013757595e-01) (226, 1.48860246915345828533e-01) (227, -1.07008406406936026900e-01) (228, -2.11948469503934533442e-01) (229, 1.79298673737966762776e-01) (230, 5.03215396309779558481e-02) (231, -2.71148673733295278443e-02) (232, 7.51956822675598889755e-03) (233, -2.17152745947904457502e-01) (234, -1.67194517395544195448e-01) (235, 1.16020693120547566113e-02) (236, 1.66874591673605104925e-01) (237, 1.50000000000000000000e+03) (238, 1.50000000000000000000e+03) (239, 1.50000000000000000000e+03) (240, 1.50000000000000000000e+03) (241, 1.50000000000000000000e+03) (242, -1.43755589797642829852e-01) (243, -6.07961253879546539847e-02) (244, -1.42325002099332909022e-01) (245, 2.21795700867369577347e-01) (246, -1.83612449809962552383e-02) (247, 4.67488836749204925147e-02) (248, -6.86544192232056427194e-02) (249, 1.61098434778096308295e-02) (250, 1.19734569313354868858e-01) (251, 3.82021589226041111131e-02) (252, -1.13790499658122268301e-01) (253, -1.54827493517002423573e-01) (254, 5.71659126140804593752e-02) (255, 1.63909161284829074656e-01) (256, 1.83836425961393795658e-01) (257, 1.50000000000000000000e+03) (258, 1.50000000000000000000e+03) (259, 1.50000000000000000000e+03) (260, 1.50000000000000000000e+03) (261, 1.50000000000000000000e+03) (262, 1.94223020060374756968e-01) (263, -1.05313924171548778386e-01) (264, -1.03893766081468053031e-01) (265, -9.85570435843036579682e-02) (266, -1.52211485635449228493e-01) (267, 1.38017185395233638046e-01) (268, 1.43580211033007332233e-01) (269, 5.44781845463920312567e-03) (270, 1.39124365072977790314e-01) (271, 1.02001072682905286060e-01) (272, -4.06520167762771666986e-02) (273, -1.85362677565781841516e-01) (274, 1.09982405713289849158e-01) (275, 1.33431947545031875935e-01) (276, 1.14190323428083129187e+00) (277, 1.57149390892152046595e-01) (278, 1.50000000000000000000e+03) (279, 1.50000000000000000000e+03) (280, 1.50000000000000000000e+03) (281, 1.50000000000000000000e+03) (282, -8.85414840236512790117e-02) (283, -1.20962140468059267673e-01) (284, -4.74238835484986909208e-02) (285, -1.17157612871850221742e-02) (286, 7.86341389384550004671e-02) (287, -2.98002436191783376396e-02) (288, 2.31412932649289783404e-02) (289, -8.31167981108991010819e-02) (290, 2.91744138420383658516e-01) (291, -6.75930736344308447094e-02) (292, 4.57628489133765289920e-02) (293, -2.52929825955300668916e-01) (294, 1.39359344169122184587e-01) (295, 2.19810095238427045949e-02) (296, 2.40234808459050297458e+00) (297, 1.73483729521077961744e-02) (298, 7.67783016125005574049e-02) (299, 1.50000000000000000000e+03) (300, 1.50000000000000000000e+03) (301, 1.50000000000000000000e+03) (302, 1.50000000000000000000e+03) (303, 8.82684283622270776659e-02) (304, -4.65155130514995143742e-02) (305, 1.92429659170072153707e-01) (306, 1.33844866484069874302e-01) (307, 1.58883992277541630234e-01) (308, -8.27382972702020436095e-02) (309, 5.65872444626159820658e-02) (310, -1.64802809376191378155e-01) (311, 1.44661449010965170725e-01) (312, -1.55205103238258701470e-01) (313, 3.27023958028199779324e-01) (314, 3.52463402058594277300e-01) (315, 2.67392827919022690875e-01) (316, 2.61591057888095068762e+00) (317, 1.17006571606759451898e-01) (318, 1.28023417309884313120e-01) (319, 1.50000000000000000000e+03) (320, 1.50000000000000000000e+03) (321, 1.50000000000000000000e+03) (322, 1.50000000000000000000e+03) (323, 3.13562597421519373420e-01) (324, 4.69894185133880759597e-01) (325, 1.25283396783727393742e-02) (326, 8.98959979016335092306e-02) (327, 1.38288173727224017462e-01) (328, -8.02309076485346189811e-02) (329, 9.68107524164687621715e-02) (330, 1.79179910027073507894e-01) (331, 1.00425949525200453039e-01) (332, 2.02452491925999872313e-01) (333, 2.46490493458463799659e-01) (334, 5.58377124012606418368e-01) (335, 1.41655873594773340507e+00) (336, 2.65324178752989137120e-01) (337, 1.41231434063080946162e-01) (338, 1.50000000000000000000e+03) (339, 1.50000000000000000000e+03) (340, 1.50000000000000000000e+03) (341, 1.50000000000000000000e+03) (342, 1.50000000000000000000e+03) (343, -3.40122496846073929522e-01) (344, 3.68479692760787180816e-01) (345, 2.90755760079111358340e-01) (346, -1.60070798502201405711e-01) (347, 1.71645596488720159067e-01) (348, 1.88705100513468670975e-01) (349, 2.12509936511970476403e-01) (350, -2.09986916929848721480e-01) (351, 1.96584362093178449671e-01) (352, 2.13465294264462257523e-01) (353, 3.30967762916977381593e-01) (354, 9.36728032613692973563e-01) (355, 7.53649683247705537426e-01) (356, 1.00083964227983024387e+00) (357, 7.10896314147596020128e-01) (358, 4.34185932072109925794e-01) (359, 1.50000000000000000000e+03) (360, 1.50000000000000000000e+03) (361, 1.50000000000000000000e+03) (362, 1.50000000000000000000e+03) (363, 1.50000000000000000000e+03) (364, -1.11211836767604765885e-01) (365, 1.69062943563690171178e-01) (366, -8.51598670167604404613e-02) (367, 5.78852930338126236975e-01) (368, 4.83358469722137862323e-01) (369, 1.07407040244942866836e-01) (370, 1.52695641502066659090e-01) (371, 1.84922212218944503892e-01) (372, 3.36200277720333895459e-01) (373, 2.71332729928243643336e-01) (374, 1.07472767501074306651e+00) (375, 2.89818009585818991969e-01) (376, 1.34002271508096892916e+00) (377, 3.05449636145027236811e-01) (378, 1.50000000000000000000e+03) (379, 1.50000000000000000000e+03) (380, 1.50000000000000000000e+03) (381, 1.50000000000000000000e+03) (382, 1.50000000000000000000e+03) (383, 1.50000000000000000000e+03) (384, 2.75059804350798964290e-01) (385, 3.67467030913298908779e-01) (386, 7.02110394031315310226e-02) (387, 1.86330431619337155702e-01) (388, -1.15101356905889587456e-02) (389, 2.64686863355847235013e-01) (390, 1.15455846367711917333e-01) (391, 2.45041789758245476261e-01) (392, -1.57085682442705182327e-01) (393, 5.05290451717137267806e-01) (394, 1.50000000000000000000e+03) (395, 1.50000000000000000000e+03) (396, 1.50000000000000000000e+03) (397, 1.50000000000000000000e+03) (398, 1.50000000000000000000e+03) (399, 1.50000000000000000000e+03) (400, 2.55463445052668769453e-01) (0, 1.50000000000000000000e+03) (1, 1.50000000000000000000e+03) (2, 1.50000000000000000000e+03) (3, 1.50000000000000000000e+03) (4, 1.50000000000000000000e+03) (5, 1.50000000000000000000e+03) (6, 1.50000000000000000000e+03) (7, 1.50000000000000000000e+03) (8, 1.50000000000000000000e+03) (9, 1.50000000000000000000e+03) (10, -5.71835402867775233204e-01) (11, -6.67778929605295390459e-01) (12, 4.26941404827067105821e-01) (13, -2.17060398183463787447e-01) (14, 1.50000000000000000000e+03) (15, 1.50000000000000000000e+03) (16, 1.50000000000000000000e+03) (17, 1.50000000000000000000e+03) (18, 1.50000000000000000000e+03) (19, 1.50000000000000000000e+03) (20, 1.50000000000000000000e+03) (21, 1.50000000000000000000e+03) (22, 1.50000000000000000000e+03) (23, -9.80618741512102876090e-02) (24, 1.06905627846914080131e-02) (25, 1.26035180977047606143e-01) (26, -2.05054113616930466790e+00) (27, -1.11177098919295347379e+00) (28, 6.55587360316420564299e-02) (29, -1.99899275836754666824e-02) (30, 2.11917330347149462932e-01) (31, 1.46412462161025713758e-01) (32, -7.76071428185828443569e-02) (33, 2.85028074231755620960e-02) (34, -4.32537848050529305510e+00) (35, 1.50000000000000000000e+03) (36, 1.50000000000000000000e+03) (37, 1.50000000000000000000e+03) (38, 1.50000000000000000000e+03) (39, 1.50000000000000000000e+03) (40, 1.50000000000000000000e+03) (41, 1.50000000000000000000e+03) (42, 5.25301623940664236256e-02) (43, 3.27781069646070066792e-01) (44, 2.34836272710497451222e-01) (45, 3.44796780936840796539e-01) (46, -1.37319786933826937236e+00) (47, 1.48268901659657420522e-01) (48, -3.13279373253378470854e-02) (49, 8.48924662935700430344e-02) (50, 1.49521395709886706360e-01) (51, 4.39675186750041538386e-02) (52, 1.02968569315667460295e-01) (53, -3.01279254927449058332e-01) (54, -1.82541542020063563001e-01) (55, 1.78112212958376092686e-01) (56, -1.22781446404929472926e+00) (57, -9.27207470850966664067e-01) (58, 1.50000000000000000000e+03) (59, 1.50000000000000000000e+03) (60, 1.50000000000000000000e+03) (61, 4.20863217117364765002e-03) (62, -4.06339015960497096369e-02) (63, -6.62827195100564425800e-01) (64, -2.09496155440743292431e+00) (65, -5.86490230112032273624e-01) (66, -2.63159844255028141369e-01) (67, -3.41566670439502825807e-02) (68, -5.72170617806388795423e-02) (69, -9.95128278381608305514e-02) (70, -1.57592404126399965314e-01) (71, 1.38352544507861722339e-02) (72, -1.07858462045176302369e-02) (73, -3.94188615703177369642e-02) (74, -1.59281979096009773667e-01) (75, 6.49008415592016163487e-02) (76, 4.97639932366126025443e-01) (77, -9.21439548171093303353e-01) (78, 1.50000000000000000000e+03) (79, 1.50000000000000000000e+03) (80, 1.50000000000000000000e+03) (81, -6.43589311836185052479e-03) (82, 6.72294503517682162652e-01) (83, 2.63191736380495255876e-01) (84, -4.81647881638811004024e-01) (85, -1.85632969060651215054e-01) (86, -7.23104973187233823761e-02) (87, -1.43079055731830689924e-01) (88, 8.99556912611356035425e-02) (89, -2.94859507112247287708e-01) (90, 1.03350988401259211158e-01) (91, -2.43690417869737496748e-01) (92, -2.59240035636788879181e-01) (93, 5.67536000822401118238e-02) (94, -1.14514807158821715904e-01) (95, -7.20979837261967015927e-01) (96, -3.83693674438939591465e-01) (97, 1.50000000000000000000e+03) (98, 1.50000000000000000000e+03) (99, 1.50000000000000000000e+03) (100, 1.50000000000000000000e+03) (101, -1.27157337605933534741e-01) (102, 2.58225573445081124646e-01) (103, 3.19756173646708163893e-01) (104, -4.03891231840179942836e-02) (105, -2.17905259947505335061e-02) (106, 6.73081254645115228952e-02) (107, -5.19015018393439303557e-02) (108, 1.68979907612385772675e-02) (109, -2.62682089860809542259e-01) (110, -1.96123123525458464833e-01) (111, 3.01783762053230764089e-01) (112, 1.67231432565230035692e-02) (113, 3.83112763860271807181e-02) (114, -5.48550997139745866171e-01) (115, -1.35453523098576500416e+00) (116, -3.06720973936709273566e-01) (117, 1.50000000000000000000e+03) (118, 1.50000000000000000000e+03) (119, 1.50000000000000000000e+03) (120, 1.50000000000000000000e+03) (121, -9.92398556470675125007e-02) (122, 2.59539757605579124444e-01) (123, 1.92646608545320924266e-01) (124, 5.06583213056418305009e-02) (125, 1.43048772163393872470e-01) (126, -2.52674340798024546495e-02) (127, -2.38198323056287505906e-02) (128, 1.21198765117844153849e+00) (129, 1.86815811033582329648e-01) (130, -2.97136849819203463507e-01) (131, -3.93250247230775118457e-01) (132, -2.05181465463663802173e-02) (133, -1.68492290801277276591e-02) (134, -1.07409894818747048140e-01) (135, 4.53634006036307824150e-02) (136, 8.15157742950749081290e-02) (137, 1.50000000000000000000e+03) (138, 1.50000000000000000000e+03) (139, 1.50000000000000000000e+03) (140, 1.50000000000000000000e+03) (141, 1.27230364680486467827e-02) (142, 1.22008699757995359159e-01) (143, 1.15129133570309272194e+00) (144, 2.29856291303857263042e-01) (145, -1.57356456608568201494e-02) (146, 1.77636479572410882488e-01) (147, 2.69246995269260547268e-01) (148, 4.21499349647631749161e-01) (149, 7.17193774145903073514e-02) (150, 3.14564692019465201936e-04) (151, 1.03290032637153150058e-02) (152, -5.49740729347281756323e-02) (153, -4.32364200013441946080e-01) (154, -8.27848396031426320141e-02) (155, 5.15345048125212673584e-02) (156, 8.67300263524961867478e-02) (157, 1.50000000000000000000e+03) (158, 1.50000000000000000000e+03) (159, 1.50000000000000000000e+03) (160, 1.50000000000000000000e+03) (161, -1.21603138387183659641e-01) (162, -5.17206730457040741999e-02) (163, 2.39778570132357198019e-02) (164, 2.12696214366338509638e-01) (165, 7.32305924884048276002e-02) (166, 3.55863761598045391654e-01) (167, 4.39676210931519595437e-01) (168, 3.03455859381978110267e-01) (169, -3.06088908439700602138e-02) (170, 2.71480174468328207260e-02) (171, -8.87724662132561626038e-01) (172, 9.97293957807222214429e-02) (173, 7.99057901894262706533e-02) (174, 1.31945334435323691213e-01) (175, 1.27353984498266376013e-01) (176, 1.19048145312161471332e-01) (177, 1.50000000000000000000e+03) (178, 1.50000000000000000000e+03) (179, 1.50000000000000000000e+03) (180, 1.50000000000000000000e+03) (181, 1.50000000000000000000e+03) (182, 4.42852172098658208865e-02) (183, 9.36069872922316137398e-01) (184, 1.43775249119736991954e-01) (185, 4.94810257122766827820e-01) (186, 3.47699025140899120601e-01) (187, 4.03106824529272877999e-01) (188, 3.80175525937817893052e-01) (189, -1.38405069997005386595e-01) (190, 1.26401506689291592833e-01) (191, 1.62655356358771957526e-02) (192, -1.75136536395683967138e-01) (193, -6.48396332768646083133e-02) (194, 1.98235795994210969861e-02) (195, 6.98704723672015637348e-02) (196, 1.53277566762138550693e-01) (197, 5.64598015691817112227e-01) (198, 3.41179686096248824256e-01) (199, 1.50000000000000000000e+03) (200, 1.50000000000000000000e+03) (201, 1.50000000000000000000e+03) (202, -2.58582738413869472893e-01) (203, 2.12281942429382558535e-01) (204, 1.74963337165376209281e-01) (205, 4.46668810287047912677e-01) (206, 1.29255267671681467467e-01) (207, 1.87848278901571075217e-01) (208, -1.99440777203507835225e-01) (209, -1.51547397712270659476e-01) (210, -6.85232397166380957643e-02) (211, 8.12638558932094606790e-02) (212, -1.79755376532262173273e-01) (213, 8.41060643141718425331e-03) (214, 8.36746418538839992207e-02) (215, 1.62953474459075653424e-01) (216, 1.21980203918594334866e-01) (217, 1.50000000000000000000e+03) (218, 1.50000000000000000000e+03) (219, 1.50000000000000000000e+03) (220, 1.50000000000000000000e+03) (221, -1.88327183937284403648e+00) (222, -3.25026178934271159360e-01) (223, 1.59763478900548677730e-01) (224, 1.67921944757831564932e-01) (225, -9.78614299205525679792e-03) (226, 6.57705211756036967063e-02) (227, 1.40227494405059160965e-01) (228, -1.36927481410092477532e-01) (229, -5.18188248436858497903e-02) (230, 2.65413371858725266605e-01) (231, 3.66243545797355518623e-01) (232, 4.59124649293547515416e-01) (233, 6.80086175525287661703e-02) (234, -7.00934386742299464501e-01) (235, 1.47022361121746270030e-01) (236, 1.18161325735898131706e-01) (237, 1.50000000000000000000e+03) (238, 1.50000000000000000000e+03) (239, 1.50000000000000000000e+03) (240, 1.50000000000000000000e+03) (241, 1.50000000000000000000e+03) (242, 2.97260599595223530545e-02) (243, 1.64310621442216253651e-01) (244, -4.36406118513912935630e-02) (245, 1.65543897215710389403e-01) (246, 4.01218940428492398809e+00) (247, 4.71674294255438442125e-01) (248, -4.91229314893267376974e-01) (249, 5.70521224220292388907e-01) (250, 3.63389993214271289634e-01) (251, 3.34446090592480982373e-01) (252, 1.69649450008562720227e-03) (253, 4.09807814811160575630e-02) (254, 1.94323157593498302420e-01) (255, -9.38374643342866077145e-02) (256, 4.69680082108544991182e-02) (257, 1.50000000000000000000e+03) (258, 1.50000000000000000000e+03) (259, 1.50000000000000000000e+03) (260, 1.50000000000000000000e+03) (261, 1.50000000000000000000e+03) (262, 9.30321643082830940230e-02) (263, 2.21207614437647137606e+00) (264, 8.40921968460452418093e-02) (265, 5.62645657682160349466e-01) (266, 2.70115806967244742598e-01) (267, 1.00745480131052791983e-01) (268, 2.61276612203767244491e-01) (269, 1.91672687991074036651e-01) (270, 3.26058952684636638164e-01) (271, 1.64282717152675283856e-01) (272, 3.34732858797414822849e-01) (273, 1.62342222512012225588e-02) (274, 7.81136206305616670464e-02) (275, -3.90163227191974854025e-02) (276, 1.50871759844440813531e-02) (277, 4.64415779766378544746e-01) (278, 1.50000000000000000000e+03) (279, 1.50000000000000000000e+03) (280, 1.50000000000000000000e+03) (281, 1.50000000000000000000e+03) (282, 1.40311483642355572243e-01) (283, 8.10877711945883428157e-01) (284, 2.20275488450569412180e+00) (285, 1.35051013104361156136e-01) (286, 2.03414512898620475356e-01) (287, -1.19842605997576748256e-01) (288, -1.26682305939224887359e-01) (289, 6.86640283236916639659e-03) (290, 1.37644565403034213613e-01) (291, 7.97689923274425560784e-02) (292, 9.73234427638747651157e-02) (293, 1.41219944500869318271e-02) (294, 3.39260045665896806111e-02) (295, 5.77627843267589091703e-02) (296, 2.96057459609646959897e-02) (297, 3.10460692700681883949e-01) (298, 3.28728514221248824256e-01) (299, 1.50000000000000000000e+03) (300, 1.50000000000000000000e+03) (301, 1.50000000000000000000e+03) (302, 1.50000000000000000000e+03) (303, 1.25534671690291688151e+00) (304, 3.57383655399004240838e-01) (305, 4.26829244549455477653e-01) (306, 1.03884332322237205037e-01) (307, -4.89779641992806463735e-02) (308, 5.03844248441648739911e-02) (309, 5.26736008985001710747e-02) (310, -1.25088042707726804226e-02) (311, 9.27688503692537247414e-02) (312, 1.73464353176195074102e-01) (313, 1.09186454168546276389e-01) (314, -8.76556217262784848065e-02) (315, 9.03789962050502160285e-02) (316, 3.80691857784056786329e-02) (317, 3.29100830909548003333e-01) (318, 3.50505857226190764564e-01) (319, 1.50000000000000000000e+03) (320, 1.50000000000000000000e+03) (321, 1.50000000000000000000e+03) (322, 1.50000000000000000000e+03) (323, 2.13592673054147585976e-01) (324, 1.13782544593999095789e-02) (325, 3.76189102044848788786e-02) (326, -1.65279598587533028964e-02) (327, 7.85094748943051257140e-02) (328, 2.36265315634527767186e-02) (329, 3.27268455322393403417e-02) (330, 5.77472723869199358604e-02) (331, 2.46925951163977891456e-01) (332, 1.79801534340091412334e-01) (333, 1.07052910674770990207e-01) (334, -2.95639312625256070466e-02) (335, 1.06611491871971317269e-01) (336, 9.84660056674634964757e-02) (337, 3.79619626757440709053e-01) (338, 1.50000000000000000000e+03) (339, 1.50000000000000000000e+03) (340, 1.50000000000000000000e+03) (341, 1.50000000000000000000e+03) (342, 1.50000000000000000000e+03) (343, -8.88774240641479473801e-01) (344, 1.93668747430979337754e-01) (345, 1.52923051178219138180e-01) (346, 1.06794134311695723683e-01) (347, 1.66334086465065672522e-01) (348, 1.32283768277294405680e-01) (349, 2.00415128709097528636e-01) (350, 1.78835843554790957510e-01) (351, 1.90959246743337085483e-01) (352, 8.17333273037997298793e-02) (353, 1.37825413427510340414e-01) (354, 7.47266682130161841169e-02) (355, 1.06980453972550765274e-01) (356, 1.96918335330516849901e-02) (357, 2.69157185685482247539e-01) (358, 2.32296241923094365367e-01) (359, 1.50000000000000000000e+03) (360, 1.50000000000000000000e+03) (361, 1.50000000000000000000e+03) (362, 1.50000000000000000000e+03) (363, 1.50000000000000000000e+03) (364, 8.42831260051726122162e-02) (365, -1.67770038643237195952e-01) (366, 6.56785657633907615782e-02) (367, -2.63900724365731420562e-01) (368, -8.45869264674472542964e-02) (369, -4.25349478480767980576e-03) (370, 1.14172147306974544612e-01) (371, 7.01162118395720207475e-02) (372, 1.41744733901732783421e-01) (373, 1.09044612809745169318e-02) (374, -4.72034572583973355275e-02) (375, 3.59629985817695008166e-01) (376, 1.21839247244839063433e-01) (377, 1.56519351380579319066e-01) (378, 1.50000000000000000000e+03) (379, 1.50000000000000000000e+03) (380, 1.50000000000000000000e+03) (381, 1.50000000000000000000e+03) (382, 1.50000000000000000000e+03) (383, 1.50000000000000000000e+03) (384, -2.80090669942125239378e-02) (385, 1.35076877956368357481e-01) (386, 1.71194562202466982193e-01) (387, 1.31930643206609826690e-01) (388, -4.16513447941187942014e-01) (389, -6.87517508556021329086e-03) (390, -1.78694918229586896530e+00) (391, -5.97318495182468045535e-01) (392, 8.88027297044594265962e-01) (393, -9.85521671912017449557e-02) (394, 1.50000000000000000000e+03) (395, 1.50000000000000000000e+03) (396, 1.50000000000000000000e+03) (397, 1.50000000000000000000e+03) (398, 1.50000000000000000000e+03) (399, 1.50000000000000000000e+03) (400, 2.66431375436619183317e-02) (0, 1.50000000000000000000e+03) (1, 1.50000000000000000000e+03) (2, 1.50000000000000000000e+03) (3, 1.50000000000000000000e+03) (4, 1.50000000000000000000e+03) (5, 1.50000000000000000000e+03) (6, 1.50000000000000000000e+03) (7, 1.50000000000000000000e+03) (8, 1.50000000000000000000e+03) (9, 1.50000000000000000000e+03) (10, 2.63508945135675853866e-01) (11, 5.38044877781476138523e-01) (12, -7.65790533191665567792e-01) (13, 2.75576037637943138670e-01) (14, 1.50000000000000000000e+03) (15, 1.50000000000000000000e+03) (16, 1.50000000000000000000e+03) (17, 1.50000000000000000000e+03) (18, 1.50000000000000000000e+03) (19, 1.50000000000000000000e+03) (20, 1.50000000000000000000e+03) (21, 1.50000000000000000000e+03) (22, 1.50000000000000000000e+03) (23, -5.36797650384850277838e-01) (24, -5.61150677728600277838e-01) (25, 3.05012440580959054426e-01) (26, 1.58184950695864579018e+01) (27, 1.49046849258912406100e+00) (28, 6.65328721376112652841e-01) (29, -6.78516706918065870546e-01) (30, -6.81797835541962493622e-01) (31, -6.59259713790738555161e-02) (32, -1.29818670328107260703e-01) (33, -1.92701493148778491005e+00) (34, 1.37393905343834998867e-01) (35, 1.50000000000000000000e+03) (36, 1.50000000000000000000e+03) (37, 1.50000000000000000000e+03) (38, 1.50000000000000000000e+03) (39, 1.50000000000000000000e+03) (40, 1.50000000000000000000e+03) (41, 1.50000000000000000000e+03) (42, -5.14031537103600277838e-01) (43, -7.06070508260703000314e-02) (44, -1.05017312126037953846e+00) (45, -1.71401808306996361608e-01) (46, -8.13518152617782597247e-01) (47, -1.44642071623741719222e+00) (48, 2.39713521940733594040e-02) (49, -9.99417656298339229792e-01) (50, -1.12857078518263254097e+00) (51, -1.97055646519901817015e-01) (52, 4.20252519813635871948e-01) (53, 5.29464358810377899722e-01) (54, -5.86643407520259341226e-01) (55, 3.27492388964479852476e-01) (56, 4.02688916327010426599e-01) (57, 5.27844636328073990583e-01) (58, 1.50000000000000000000e+03) (59, 1.50000000000000000000e+03) (60, 1.50000000000000000000e+03) (61, -4.86437544453091175178e-01) (62, -5.60033731388993039069e-01) (63, 1.35548957185052665331e+00) (64, 1.85849287916871230841e+00) (65, 3.38007801635838323051e-01) (66, 4.07780378972947166183e-01) (67, -1.02161687370053377855e+00) (68, -1.42161281872620670619e-01) (69, -4.19090110869328902332e-01) (70, 7.06034893159506182769e-02) (71, 1.40794123446807611932e-01) (72, 3.42760024145165320686e-01) (73, 2.69157237863916487530e-01) (74, 1.24329893529380419714e+00) (75, -1.08757234988215961691e-01) (76, 1.64359728699140339447e-01) (77, -1.81912820276661883756e-02) (78, 1.50000000000000000000e+03) (79, 1.50000000000000000000e+03) (80, 1.50000000000000000000e+03) (81, -4.77416545379109047431e-01) (82, -5.76628554090178116476e-02) (83, 6.15955068546872985813e-01) (84, -1.88472078839369977521e-01) (85, 5.46857621397235149630e-01) (86, 1.99238613894730798304e-01) (87, -1.17131537079721570471e-01) (88, -9.70800982232347675627e-02) (89, 2.73325090635552318818e-02) (90, 7.57752254970635863440e-02) (91, 6.63839192876411049449e-02) (92, 6.78153518024441348544e-01) (93, 3.65578187543932398018e-01) (94, -9.03134963607868490598e-01) (95, 4.44644669625061550455e-01) (96, 7.10330199224873171104e-01) (97, 1.50000000000000000000e+03) (98, 1.50000000000000000000e+03) (99, 1.50000000000000000000e+03) (100, 1.50000000000000000000e+03) (101, -5.72448283660359158453e-01) (102, 7.48862556614030006052e-01) (103, -6.54266862441257424088e-01) (104, -9.70856146097936745232e-02) (105, -3.57681784230915511547e-01) (106, -1.59463289268248464836e+00) (107, -2.25626842413874754978e-02) (108, 3.28875286588303061830e-01) (109, 1.23037864717694706007e-01) (110, 6.90212857918312994165e-01) (111, 1.38653785625914016677e-01) (112, -1.08469256465244748983e-02) (113, 6.25854916074477518606e-01) (114, -7.52736211598994731098e-01) (115, 1.64417752164897823519e+00) (116, 1.11726016796518634600e+00) (117, 1.50000000000000000000e+03) (118, 1.50000000000000000000e+03) (119, 1.50000000000000000000e+03) (120, 1.50000000000000000000e+03) (121, -5.58855757343716397223e-01) (122, 6.54469074226228242352e-01) (123, 2.47741482987240013713e+00) (124, 1.57706600706391669720e-02) (125, -2.04660945720106318690e-01) (126, -4.79833145189013487997e-01) (127, 9.30453937282939118336e-03) (128, 1.33662100951165124796e-01) (129, 7.85512843076656808172e-01) (130, 4.15429148969157058247e-01) (131, 2.25137876339158438110e-01) (132, -2.47556506069930182257e-01) (133, 2.51219080877751410608e-01) (134, 4.81478375625841059637e-01) (135, 1.70145166254163759945e+00) (136, 1.03374116291659845501e+00) (137, 1.50000000000000000000e+03) (138, 1.50000000000000000000e+03) (139, 1.50000000000000000000e+03) (140, 1.50000000000000000000e+03) (141, -5.55944375920243039069e-01) (142, -4.75745121766017664555e+00) (143, -4.91261382317871253544e-01) (144, -2.15998954169668022640e-01) (145, -6.51628188097477134555e-01) (146, -1.36604658180685456514e-01) (147, -1.17044350925382435735e-02) (148, 1.92893340794092899015e-01) (149, 1.31443104005600136519e-01) (150, 1.58184158946137409796e-01) (151, 6.68884174224076422099e-02) (152, -1.77108709373961281663e-01) (153, 5.39771681983933881988e-01) (154, 5.26215468884787718196e+00) (155, 2.50073978020683762580e-01) (156, -9.89788406678796528482e-01) (157, 1.50000000000000000000e+03) (158, 1.50000000000000000000e+03) (159, 1.50000000000000000000e+03) (160, 1.50000000000000000000e+03) (161, -4.79803018498367928046e-01) (162, -2.32917057816464190267e+00) (163, -3.24455173836624033434e-01) (164, 1.57882068828645166780e-01) (165, -1.68116440386647358896e-01) (166, 1.53002767135370670859e-01) (167, 3.58454760683915183914e-03) (168, 3.08088261449419420490e-01) (169, 2.16147417379604134258e-01) (170, -3.24155288142100803106e-02) (171, 3.78209947162644111174e-01) (172, 3.23175782209860484873e-01) (173, 4.49967391019015727771e-01) (174, 1.28426976291008987374e+00) (175, -2.35696097893832362535e-01) (176, -1.05141560096418906767e+00) (177, 1.50000000000000000000e+03) (178, 1.50000000000000000000e+03) (179, 1.50000000000000000000e+03) (180, 1.50000000000000000000e+03) (181, 1.50000000000000000000e+03) (182, -8.80806268270796088871e+00) (183, 1.13631260310811305070e-01) (184, 1.05312324701962389817e-01) (185, 1.01373829483777905258e-01) (186, 9.17678475466821713669e-02) (187, -5.60707094817618420524e-02) (188, 6.00559656749420772703e-02) (189, -1.72587823556342834230e-01) (190, 1.27440820572414931222e-02) (191, 8.84859150853956832883e-01) (192, 6.51579428189774656488e-01) (193, 4.15010172919377640088e-01) (194, 8.73735946948287600655e-01) (195, -1.59790917048407976608e-01) (196, -2.07417798325679497706e-01) (197, -1.01851660346642391985e-01) (198, -1.46682249501512207424e-01) (199, 1.50000000000000000000e+03) (200, 1.50000000000000000000e+03) (201, 1.50000000000000000000e+03) (202, 1.59172934779503255642e-01) (203, 1.53285094363751567270e-01) (204, -4.45784130281539417440e-02) (205, -5.06099985931229498504e-02) (206, 7.52068215799139017097e-02) (207, 5.40246579030590895476e-02) (208, 9.74917700089601019231e-02) (209, -1.28899368451462326135e-01) (210, 1.34959852549455718712e-03) (211, 2.26762772519992245046e-01) (212, -3.82856293783601364655e-02) (213, 1.27317286817728553272e-01) (214, 1.51488940852074926990e-01) (215, 3.46010080271314579559e-01) (216, -1.58094879532252069465e-01) (217, 1.50000000000000000000e+03) (218, 1.50000000000000000000e+03) (219, 1.50000000000000000000e+03) (220, 1.50000000000000000000e+03) (221, 1.24332697836125688484e-01) (222, 6.48348206465608978277e-01) (223, 1.31554304778434966172e-01) (224, -1.65135908065925846033e-01) (225, -3.93616283339027345223e-02) (226, -6.27697639701103732301e-02) (227, -3.96449617947615073899e-01) (228, -5.46223385541402609022e-02) (229, 1.09093515957817480122e-01) (230, 3.44329395231973811597e-01) (231, -1.34302263560549750565e-01) (232, -2.60848112012464078413e-02) (233, -3.17310735744571026373e-01) (234, -2.08335434773649463835e-01) (235, 4.52299100370497711432e-02) (236, 1.18203187771880191548e+00) (237, 1.50000000000000000000e+03) (238, 1.50000000000000000000e+03) (239, 1.50000000000000000000e+03) (240, 1.50000000000000000000e+03) (241, 1.50000000000000000000e+03) (242, 1.33042962659479485632e-01) (243, -4.02733704820111490519e-02) (244, -5.62577909772494361151e-02) (245, -2.03885784833046479481e-01) (246, -3.84929009331787974624e-01) (247, -5.01272749928121444385e-02) (248, 3.69878210626963410679e-01) (249, 1.02058157781961353350e-01) (250, 6.77654637231320799984e-01) (251, 1.85647769435476894806e-01) (252, 2.30735892828090385920e-02) (253, -1.47903638912788931714e-01) (254, -1.44436212515109851928e-01) (255, -6.95538640554684617356e-01) (256, 3.01150524869296853936e+00) (257, 1.50000000000000000000e+03) (258, 1.50000000000000000000e+03) (259, 1.50000000000000000000e+03) (260, 1.50000000000000000000e+03) (261, 1.50000000000000000000e+03) (262, 2.61411000813592808711e-01) (263, 3.34181677150100331364e-01) (264, -1.98186594152186090767e-01) (265, -7.10426593318443377889e-01) (266, -2.30818357481772956641e-01) (267, 2.40186861419617592173e-02) (268, -5.73340520552389903974e-02) (269, 6.01289553958272229850e-02) (270, 4.23303669300136853337e-01) (271, 6.58879825809420144322e-02) (272, -6.81376512377929732800e-02) (273, -8.25908730656041423224e-02) (274, 1.80735871344023767138e-02) (275, -1.77630592048372948355e-01) (276, 2.65511266384236610527e-01) (277, -1.68581666544244446193e-01) (278, 1.50000000000000000000e+03) (279, 1.50000000000000000000e+03) (280, 1.50000000000000000000e+03) (281, 1.50000000000000000000e+03) (282, 1.33173527107884187570e-01) (283, -1.84101658900765774440e+00) (284, -2.13073018355350085606e-01) (285, 1.35034988124646728597e-02) (286, -4.00857164115609843069e-01) (287, -2.00558434042813343856e-01) (288, -9.67937871405119693025e-02) (289, -1.13644666081863920243e-02) (290, 2.91860196897448798126e-01) (291, 3.67480265867879130059e-02) (292, -7.65151620176503372006e-02) (293, 6.12820103436197763380e-02) (294, 1.76627304210573099486e-01) (295, 1.26409611899462159118e-02) (296, 2.55092564890467055072e-01) (297, -6.73121308238960186499e-02) (298, -2.29342164591119446193e-01) (299, 1.50000000000000000000e+03) (300, 1.50000000000000000000e+03) (301, 1.50000000000000000000e+03) (302, 1.50000000000000000000e+03) (303, -6.39253941955413157450e-02) (304, -4.31238902343449415078e-01) (305, 2.79873657876801962274e-01) (306, -6.80566959506247737277e-02) (307, -1.37130290459356429800e-01) (308, -2.21046603591852408588e-01) (309, -6.79038858822445662300e-02) (310, -6.44775666817776205164e-02) (311, -1.29358388170075166990e-01) (312, 1.10223143457335373552e-01) (313, -2.94059039506710303419e-03) (314, 2.82297670510922235620e-02) (315, -8.36154582970761839356e-01) (316, 2.91681115583765437904e+00) (317, -1.91494261965320267116e-01) (318, -1.35836305216119446193e-01) (319, 1.50000000000000000000e+03) (320, 1.50000000000000000000e+03) (321, 1.50000000000000000000e+03) (322, 1.50000000000000000000e+03) (323, -9.80678656177526170135e-02) (324, -3.74273960522660820160e-02) (325, 1.26125616227644510303e-01) (326, 2.39917615160585850909e-01) (327, -1.04190067936561825412e-01) (328, -9.15140317502600580957e-02) (329, 5.07469618327357086668e-03) (330, -7.20371571906757990345e-02) (331, 9.13406679968680884629e-02) (332, 9.18605693772570341959e-02) (333, 2.29001796190054979219e-01) (334, 2.66575618299470684658e-01) (335, 1.19678338550505292126e+00) (336, -1.61249537324438807495e-01) (337, -9.67799072416282712972e-02) (338, 1.50000000000000000000e+03) (339, 1.50000000000000000000e+03) (340, 1.50000000000000000000e+03) (341, 1.50000000000000000000e+03) (342, 1.50000000000000000000e+03) (343, -7.96795257120455180377e-01) (344, 1.53794792483034542530e-01) (345, -5.82535959830420002614e-02) (346, 2.54177945891893609931e-02) (347, -1.70756413595931182126e-02) (348, 1.16699870848340964136e-01) (349, 4.33162090363149801520e-02) (350, -5.67791342611042651467e-02) (351, -2.43949271855612104254e-01) (352, 6.15023959834462979890e-02) (353, 6.27426152930449121392e-01) (354, 2.50422760329548688141e-01) (355, 7.53383370631607041101e-02) (356, 4.40550472553184913060e-01) (357, 1.94035051300548233577e+00) (358, 2.07599890391357888575e+00) (359, 1.50000000000000000000e+03) (360, 1.50000000000000000000e+03) (361, 1.50000000000000000000e+03) (362, 1.50000000000000000000e+03) (363, 1.50000000000000000000e+03) (364, 9.78713008847026527670e-02) (365, 1.22564893886458331496e-01) (366, 1.45173995705621811103e-01) (367, 6.59913365160165188428e-01) (368, 1.85773033301130319206e-01) (369, 1.06135024175672193492e-01) (370, 4.07952986261225392095e-01) (371, 1.00306524215247397369e-01) (372, -1.35053161410022048994e-01) (373, 1.53764224392117032636e+00) (374, 1.46637134053325590699e+00) (375, -1.94589410459894884831e+00) (376, 2.38082765856154426887e-01) (377, 2.71692938248030424475e-01) (378, 1.50000000000000000000e+03) (379, 1.50000000000000000000e+03) (380, 1.50000000000000000000e+03) (381, 1.50000000000000000000e+03) (382, 1.50000000000000000000e+03) (383, 1.50000000000000000000e+03) (384, 3.31308752385566396281e-01) (385, 3.83963786152789809947e-01) (386, 1.16234906109011063013e-01) (387, 7.17829988319038242439e-02) (388, 5.07817394026330637402e-01) (389, 1.22063173971661154127e+00) (390, -6.90023627660787397531e-02) (391, -4.42217365114301735884e-02) (392, -3.41090759085119499261e+00) (393, 3.37632899587455881374e+00) (394, 1.50000000000000000000e+03) (395, 1.50000000000000000000e+03) (396, 1.50000000000000000000e+03) (397, 1.50000000000000000000e+03) (398, 1.50000000000000000000e+03) (399, 1.50000000000000000000e+03) (400, 8.41399172398333006218e-02) (0, 1.50000000000000000000e+03) (1, 1.50000000000000000000e+03) (2, 1.50000000000000000000e+03) (3, 1.50000000000000000000e+03) (4, 1.50000000000000000000e+03) (5, 1.50000000000000000000e+03) (6, 1.50000000000000000000e+03) (7, 1.50000000000000000000e+03) (8, 1.50000000000000000000e+03) (9, 1.50000000000000000000e+03) (10, 1.08422886649977054385e-01) (11, -4.49134399797193439863e-01) (12, 2.01997034503035799435e-01) (13, 4.51741336136980611154e-03) (14, 1.50000000000000000000e+03) (15, 1.50000000000000000000e+03) (16, 1.50000000000000000000e+03) (17, 1.50000000000000000000e+03) (18, 1.50000000000000000000e+03) (19, 1.50000000000000000000e+03) (20, 1.50000000000000000000e+03) (21, 1.50000000000000000000e+03) (22, 1.50000000000000000000e+03) (23, 1.20088032841663902572e-01) (24, 1.33033595442753366234e-01) (25, 9.65305076735502032292e-02) (26, 4.41678123688775348121e-01) (27, -3.27837321584128274510e-02) (28, 7.20421257564702027104e-03) (29, 3.00593136819699791040e-01) (30, 3.72015883341412926036e-03) (31, 1.89460094678594176409e-01) (32, -4.13055249676849076113e-02) (33, 5.90761213910786064929e-01) (34, 9.85348055994091476251e-01) (35, 1.50000000000000000000e+03) (36, 1.50000000000000000000e+03) (37, 1.50000000000000000000e+03) (38, 1.50000000000000000000e+03) (39, 1.50000000000000000000e+03) (40, 1.50000000000000000000e+03) (41, 1.50000000000000000000e+03) (42, 7.42079088687711552197e-02) (43, 2.90130675378718450030e-01) (44, 2.83408066432798866341e-01) (45, -7.01972623331947459535e-02) (46, 1.43766026917912181915e-01) (47, -6.61583692790365940350e-02) (48, 1.97285108754957250188e-01) (49, 3.97095673662089976297e-01) (50, 5.64486165904573913843e-02) (51, -2.01295281472089505892e-02) (52, -5.44858980422888924955e-02) (53, 5.99218543999164854341e-01) (54, 3.42601023144976757351e-01) (55, 2.63152972225937920037e-01) (56, -2.16916579644735346699e-01) (57, -1.98727384050312899655e-01) (58, 1.50000000000000000000e+03) (59, 1.50000000000000000000e+03) (60, 1.50000000000000000000e+03) (61, 2.29145660459976668877e-01) (62, 1.23823388874512260727e-01) (63, 3.21158627966705967349e-01) (64, 2.26247961914059936284e-01) (65, -8.23026403411359352980e-02) (66, 1.36837131493747127253e-01) (67, 1.04164528624929603878e-02) (68, 8.39501730727398726151e-02) (69, -2.66393653778863426229e-01) (70, 1.18636530023282574242e-01) (71, 9.89163903637179653394e-02) (72, 1.71462621943687332227e-01) (73, 3.12498817647365478845e-01) (74, 4.87595719429075924456e-01) (75, 3.34802356152571867209e-01) (76, 2.23982014582762012367e-01) (77, -3.56126660713598608421e-01) (78, 1.50000000000000000000e+03) (79, 1.50000000000000000000e+03) (80, 1.50000000000000000000e+03) (81, 9.44349574148469900203e-02) (82, 6.56527486667054960279e-01) (83, 1.07266430348885632995e+00) (84, 7.64821319570097996055e-02) (85, 2.11713551131299561325e-02) (86, 1.15684831515140126856e-01) (87, -1.97866807781712866765e-01) (88, -2.96421228911566636555e-01) (89, 6.11292809913374229902e-02) (90, -3.75177008514415641360e-02) (91, -1.16070714999941551615e-01) (92, 7.47955059586249138004e-02) (93, -1.50467831005355545670e-01) (94, 1.75343076052882768101e-01) (95, 7.11051575564198290458e-01) (96, -2.42698299369363754141e-02) (97, 1.50000000000000000000e+03) (98, 1.50000000000000000000e+03) (99, 1.50000000000000000000e+03) (100, 1.50000000000000000000e+03) (101, 1.90650775492172713799e-01) (102, 6.66822603954956738548e-01) (103, -1.21280863338067229629e-01) (104, -3.01598725398171188528e-02) (105, 1.57631893920942497966e-02) (106, 6.18046654050704302730e-02) (107, 1.82406263326832407401e-01) (108, 4.76703048830018072390e-02) (109, 4.85543908142031625796e-03) (110, -7.94732192999530739907e-02) (111, -1.02751996841661474846e-01) (112, -9.90947503824962383501e-02) (113, 8.36000768361283147501e-02) (114, 1.59052470519172234331e-01) (115, 6.34447616929131985586e-01) (116, 2.46537230028563136841e+00) (117, 1.50000000000000000000e+03) (118, 1.50000000000000000000e+03) (119, 1.50000000000000000000e+03) (120, 1.50000000000000000000e+03) (121, 1.02833397150021141342e-01) (122, -2.93817137648786308457e-01) (123, -2.85667745890285484922e-01) (124, -8.02809871638631489255e-01) (125, 2.46986603233456336604e-01) (126, 2.12950355691948173265e-01) (127, -4.35138272205851245333e-02) (128, -6.63068689635601393739e-02) (129, -3.72509198976849614793e-02) (130, 2.91199330560397359746e-02) (131, -1.59548152517730162936e-02) (132, 2.43393349665782729452e-02) (133, 3.49114376593491260170e-01) (134, 1.95639246782705167327e-01) (135, 4.04965075892420867110e-01) (136, -6.42683071450321583701e-04) (137, 1.50000000000000000000e+03) (138, 1.50000000000000000000e+03) (139, 1.50000000000000000000e+03) (140, 1.50000000000000000000e+03) (141, 9.87623514830880955273e-02) (142, -8.02550067017396458191e-03) (143, 5.02445943001562422836e-01) (144, -2.47468924823894625975e-01) (145, 1.02229050231303641993e+00) (146, 3.24076023918033265248e-02) (147, 2.08190731427064165682e-02) (148, -8.53287878088862111747e-02) (149, -7.48926898727918372023e-02) (150, 6.63445316924776151701e-02) (151, -6.73485055302449758807e-02) (152, -5.84141357782773026908e-02) (153, 8.65598616992296066019e-02) (154, 2.86165961028184756554e-01) (155, 5.56073714690370271563e-02) (156, 3.68922437121884938538e-02) (157, 1.50000000000000000000e+03) (158, 1.50000000000000000000e+03) (159, 1.50000000000000000000e+03) (160, 1.50000000000000000000e+03) (161, 9.99342272281461552197e-02) (162, 1.34430650683349389718e-01) (163, -4.17189117262571740330e-01) (164, -5.17868513013349462959e-01) (165, 5.84411555524159243014e-01) (166, -4.36863318889992233163e-02) (167, -9.59883311334226441147e-02) (168, -6.59504157569301557862e-02) (169, -1.53411924941412574491e-02) (170, -5.96288673961414758540e-02) (171, 6.90759614165216834225e-02) (172, 1.54967071155132324160e-03) (173, 1.12173735243711242271e-01) (174, 2.33853755613801839175e-01) (175, 4.71463942115143197498e-01) (176, 3.11488369991796062997e-02) (177, 1.50000000000000000000e+03) (178, 1.50000000000000000000e+03) (179, 1.50000000000000000000e+03) (180, 1.50000000000000000000e+03) (181, 1.50000000000000000000e+03) (182, 2.24955791641447389040e+00) (183, -5.29269609802327734016e-01) (184, -5.48770218702573989167e-02) (185, 4.22440878151311483002e-01) (186, 6.92738409303387536742e-02) (187, -1.60057739542511745469e-04) (188, -6.37457929485577522166e-03) (189, 1.29061180091504357215e-01) (190, 4.81849130537081588033e-02) (191, 7.58076754793023388501e-02) (192, 1.19538712151930265337e-01) (193, -5.76734330349670948346e-02) (194, 1.69057182040885767282e-01) (195, 6.14155277168515145725e-01) (196, 1.81689930563180557233e-01) (197, 8.32035447448825182803e-01) (198, 7.18389189950577877752e-01) (199, 1.50000000000000000000e+03) (200, 1.50000000000000000000e+03) (201, 1.50000000000000000000e+03) (202, -9.61054426084232693572e-02) (203, 1.40936831025807202122e-01) (204, 3.07901986673047245446e-01) (205, 1.40937687446218318232e-01) (206, 4.73985174266026376699e-01) (207, 4.36420638361355792134e-02) (208, 4.96253349011423705583e-01) (209, 2.59910874832142806123e-02) (210, -8.64557910226512460472e-02) (211, -6.64867760777045763154e-02) (212, -4.44144007738969670562e-02) (213, 2.02104041555610708381e-01) (214, 2.07411344670679870239e-01) (215, 3.42713965833085665302e-01) (216, 4.75312451670255375902e-01) (217, 1.50000000000000000000e+03) (218, 1.50000000000000000000e+03) (219, 1.50000000000000000000e+03) (220, 1.50000000000000000000e+03) (221, 3.53751783333906485995e-02) (222, -1.91430179679089429445e-01) (223, -6.76608265606800429737e-01) (224, 3.67547482624383692329e-01) (225, 3.74881027321839255251e-01) (226, -1.27810050629677163236e+00) (227, -6.14131995723622425842e-02) (228, 1.28309773133176641124e+00) (229, 2.38984361455913535410e-01) (230, 7.80851821270382301377e-02) (231, -4.68687576699654828705e-02) (232, 2.79287671457376998618e-02) (233, 1.66140042326805764672e-01) (234, 2.59438597778558210916e-01) (235, 1.71692081060263318504e-01) (236, 1.05786355405897286586e-01) (237, 1.50000000000000000000e+03) (238, 1.50000000000000000000e+03) (239, 1.50000000000000000000e+03) (240, 1.50000000000000000000e+03) (241, 1.50000000000000000000e+03) (242, -8.65248483378821958700e-02) (243, 4.08293932566895667602e-01) (244, 2.94947374421584196380e-01) (245, 2.30335532019858069130e-01) (246, 1.36412310474539810734e+00) (247, 3.84134410621558397558e-01) (248, 8.81787433170394208126e-01) (249, 4.47303129959459755405e-01) (250, 1.08436421627616075281e-01) (251, 8.05111265734695241703e-02) (252, 5.40472781844761746006e-02) (253, 9.04404801201577901448e-02) (254, 2.70904461195717927158e-01) (255, 2.41740460039312599072e-01) (256, 2.77129743483756629807e-01) (257, 1.50000000000000000000e+03) (258, 1.50000000000000000000e+03) (259, 1.50000000000000000000e+03) (260, 1.50000000000000000000e+03) (261, 1.50000000000000000000e+03) (262, -3.28234972070305663916e-01) (263, -9.35115050585046680975e-02) (264, -8.40448005085632221522e-01) (265, 2.68894994599924697098e+00) (266, 1.40465722231136669329e+00) (267, 5.10587810925195673128e-01) (268, 6.02360279944701315635e-01) (269, 3.64449209864459167107e-01) (270, 2.83226644594780849196e-02) (271, 3.77854136601697976339e-02) (272, 1.62775900595555605976e-01) (273, 5.01274102391822788671e-03) (274, 2.50136132895915019869e-01) (275, -1.51398460197319645326e-02) (276, 1.27355885865490431330e-01) (277, 7.85424097589604408576e-01) (278, 1.50000000000000000000e+03) (279, 1.50000000000000000000e+03) (280, 1.50000000000000000000e+03) (281, 1.50000000000000000000e+03) (282, 3.32150705561684178591e+00) (283, 5.64156867642826020948e-01) (284, 5.59536645051220582481e-01) (285, 6.49889903551989833730e-01) (286, 7.81009093243103191817e-01) (287, 2.48691919808686406901e-01) (288, 4.90419981661967596676e-01) (289, 1.10221390148603257120e-01) (290, -1.04047855126914057244e-01) (291, 1.06457293368574262837e-01) (292, 2.73305677651265940820e-02) (293, -7.59693168501913984603e-02) (294, -1.14401813128388180063e-02) (295, 7.01506025490708839953e-01) (296, 4.47785394784136758783e-01) (297, 8.00005397907845527961e-01) (298, 7.03258573226086758368e-01) (299, 1.50000000000000000000e+03) (300, 1.50000000000000000000e+03) (301, 1.50000000000000000000e+03) (302, 1.50000000000000000000e+03) (303, 3.92369339836654618114e-01) (304, 1.02296564202368212015e+00) (305, 3.91135265883470306658e-01) (306, 4.91678020844676932910e-01) (307, 3.40150662449097751505e-01) (308, 6.34734525447804398546e-01) (309, 5.33074609846172275951e-01) (310, 2.02018885970866451940e-02) (311, 8.55833704948856938133e-02) (312, 1.80011062208731004164e-02) (313, -6.12870347430856665660e-01) (314, 8.90741539657144004716e-02) (315, 4.76683365727711971793e-01) (316, 4.74846911116115100171e-01) (317, 8.19793000034443886115e-01) (318, 7.01787627450577877752e-01) (319, 1.50000000000000000000e+03) (320, 1.50000000000000000000e+03) (321, 1.50000000000000000000e+03) (322, 1.50000000000000000000e+03) (323, 3.18727275838384394024e-01) (324, 5.28708909912005475817e-01) (325, 4.55421505390155467730e-01) (326, 4.26148482743545886642e-01) (327, 9.35015418903036021891e-02) (328, 5.98639866724501798489e-02) (329, 3.72160982221293068495e-01) (330, 2.21031568656938036399e-02) (331, 3.57381668107161001857e-02) (332, 6.73667683288201812886e-01) (333, -9.85323607573126564185e-02) (334, 4.02503817496151827804e-01) (335, -7.23534742047529100262e-02) (336, 1.14130707068328374199e+00) (337, 7.72069609872452877752e-01) (338, 1.50000000000000000000e+03) (339, 1.50000000000000000000e+03) (340, 1.50000000000000000000e+03) (341, 1.50000000000000000000e+03) (342, 1.50000000000000000000e+03) (343, -1.61691400391195283515e-01) (344, 4.35780847565103324204e-01) (345, 3.45565202204278332232e-01) (346, -7.48009092075663239996e-02) (347, -1.51175730240495466775e-03) (348, 5.64105860749081478023e-02) (349, -2.27896799383330017630e-01) (350, -1.91609082530327379246e-01) (351, -6.30894008472721590230e-02) (352, -3.44823126443793773199e-02) (353, 1.16779792399677340153e-01) (354, 6.28015380772724118863e-01) (355, 6.63648859114447153829e-01) (356, 3.61807975192533715081e-01) (357, 5.89651489838361797524e-01) (358, 9.43632478257203199945e-01) (359, 1.50000000000000000000e+03) (360, 1.50000000000000000000e+03) (361, 1.50000000000000000000e+03) (362, 1.50000000000000000000e+03) (363, 1.50000000000000000000e+03) (364, 2.45465904000233070548e+00) (365, 4.16875699136529442868e-01) (366, 5.09371018874475334215e-01) (367, -1.74120622145544884374e-01) (368, -1.73790958389857169708e-01) (369, 1.22543452112846035229e-01) (370, -1.19517468190283276952e-01) (371, 6.49866646162130523479e-02) (372, 2.78490800243387792712e-01) (373, -1.25511753083260707564e-01) (374, 4.79325331245967489746e-01) (375, 9.85188475207643299392e-01) (376, 7.28866375004997513187e-01) (377, 3.39390736457081398925e-01) (378, 1.50000000000000000000e+03) (379, 1.50000000000000000000e+03) (380, 1.50000000000000000000e+03) (381, 1.50000000000000000000e+03) (382, 1.50000000000000000000e+03) (383, 1.50000000000000000000e+03) (384, 1.70350905368080840496e-01) (385, 3.45930743822804365184e-01) (386, 1.08079486420473447339e+00) (387, 1.08724627724012745666e+00) (388, 9.15191723305957216539e-01) (389, -1.54009892491199090747e-01) (390, -2.94677854926213844688e-01) (391, -4.47863458646709441946e-02) (392, 4.30011786488762801084e-02) (393, -6.38427168931947619512e-01) (394, 1.50000000000000000000e+03) (395, 1.50000000000000000000e+03) (396, 1.50000000000000000000e+03) (397, 1.50000000000000000000e+03) (398, 1.50000000000000000000e+03) (399, 1.50000000000000000000e+03) (400, -8.51790070455653997028e-02) (0, 1.50000000000000000000e+03) (1, 1.50000000000000000000e+03) (2, 1.50000000000000000000e+03) (3, 1.50000000000000000000e+03) (4, 1.50000000000000000000e+03) (5, 1.50000000000000000000e+03) (6, 1.50000000000000000000e+03) (7, 1.50000000000000000000e+03) (8, 1.50000000000000000000e+03) (9, 1.50000000000000000000e+03) (10, 4.87152691410266180938e-01) (11, 4.37469606569406643803e-01) (12, 5.50859911074186969770e-01) (13, 7.54661447680727709431e-02) (14, 1.50000000000000000000e+03) (15, 1.50000000000000000000e+03) (16, 1.50000000000000000000e+03) (17, 1.50000000000000000000e+03) (18, 1.50000000000000000000e+03) (19, 1.50000000000000000000e+03) (20, 1.50000000000000000000e+03) (21, 1.50000000000000000000e+03) (22, 1.50000000000000000000e+03) (23, -5.44987408458218469676e-01) (24, -5.08805779754147646798e-01) (25, -7.30716491788601651969e-02) (26, -9.44400005320235713668e+00) (27, 2.01568150205666068997e-01) (28, 5.31217098444491275799e-01) (29, 9.50409330473760860514e-01) (30, 9.41835232698383206795e-01) (31, 4.00155665534228377478e-01) (32, 1.44803352254314593450e-01) (33, 4.02678284412209486209e-01) (34, -3.84680590616587148034e+00) (35, 1.50000000000000000000e+03) (36, 1.50000000000000000000e+03) (37, 1.50000000000000000000e+03) (38, 1.50000000000000000000e+03) (39, 1.50000000000000000000e+03) (40, 1.50000000000000000000e+03) (41, 1.50000000000000000000e+03) (42, -5.77482534586415185984e-01) (43, -1.05419010427882420267e+00) (44, 1.46266775014286798395e+00) (45, 1.02073070996349235529e+00) (46, 1.05245995520442381377e+00) (47, 9.16606391230908479351e-01) (48, 9.67331803217327479416e-01) (49, 5.71832225753273082347e-01) (50, 5.78088177491307697586e-01) (51, 5.70087703049858673943e-01) (52, 4.55591065222764213249e-01) (53, 2.78912071492365187808e-01) (54, 3.53253202541325861397e-01) (55, -1.84206067791564509495e-01) (56, -4.83435945569369440733e+00) (57, -2.89234491651922853706e+00) (58, 1.50000000000000000000e+03) (59, 1.50000000000000000000e+03) (60, 1.50000000000000000000e+03) (61, -5.64317254363522424754e-01) (62, -5.69779900847897424754e-01) (63, 1.97508332577902047389e-02) (64, 3.54426213999237960106e-01) (65, 8.83608992163135931186e-01) (66, 3.66053974742404641951e-01) (67, 4.41930570898450614248e-01) (68, 4.24627517105377993989e-01) (69, 2.32790912193326260393e-01) (70, 2.97480341431322514723e-01) (71, 4.77247790157212525841e-01) (72, 5.37891163996678023373e-01) (73, 5.10656931444131934050e-01) (74, 4.51312484337886399288e-01) (75, 4.54175699409798128148e-01) (76, -8.33584963687635377427e-02) (77, -6.46730757796042521335e+00) (78, 1.50000000000000000000e+03) (79, 1.50000000000000000000e+03) (80, 1.50000000000000000000e+03) (81, -5.20078970133290185984e-01) (82, 6.46180804362523897311e-01) (83, 4.05699648249956523749e-01) (84, 1.00988558706072506510e+00) (85, 5.30964543853227111114e-01) (86, 3.98143397931215670127e-01) (87, 1.71448167503925608113e-01) (88, 2.74673902513212109255e-01) (89, 4.12163225287218326631e-01) (90, 3.99539052184437692983e-01) (91, 3.76400981621359653762e-01) (92, 4.87136590053385498678e-01) (93, 5.25083330866783382085e-01) (94, 5.57419066249121186729e-01) (95, 4.25096835391358174316e-01) (96, -1.51580738684124555204e-01) (97, 1.50000000000000000000e+03) (98, 1.50000000000000000000e+03) (99, 1.50000000000000000000e+03) (100, 1.50000000000000000000e+03) (101, -5.27470318614468469676e-01) (102, 1.15360689663799684257e-01) (103, 1.34972402270862490425e+00) (104, 5.64446082722725672731e-01) (105, 5.06715724071497231051e-01) (106, 4.39160269246101464535e-01) (107, -1.67429112026591733753e-02) (108, -1.03592941654861686596e-01) (109, -6.10444384487136074147e-02) (110, 1.86844043162893644339e-02) (111, 5.93297765038609203891e-01) (112, 4.32715719181775593238e-01) (113, 6.13437219326597782398e-01) (114, 4.46155699350898937716e-01) (115, 3.09866569014594805953e-01) (116, -1.49397474097682420036e-01) (117, 1.50000000000000000000e+03) (118, 1.50000000000000000000e+03) (119, 1.50000000000000000000e+03) (120, 1.50000000000000000000e+03) (121, -6.54142690836415185984e-01) (122, 4.67985317934293487685e-01) (123, 6.31013649347996641303e-01) (124, 5.49563340015471815669e-02) (125, 1.20683366957106866235e-01) (126, -8.55714513736848675363e-02) (127, -8.52256253262216600941e-03) (128, 4.63635708823435133130e-01) (129, 1.64522396281891081227e-01) (130, 3.36805876215537591811e-01) (131, 1.04846618292951565543e+00) (132, 1.04839845183850943755e+00) (133, 1.16320130590686243721e+00) (134, 4.33267659971269258889e-01) (135, 5.48316378952612315523e-01) (136, 6.56250488759692496288e-01) (137, 1.50000000000000000000e+03) (138, 1.50000000000000000000e+03) (139, 1.50000000000000000000e+03) (140, 1.50000000000000000000e+03) (141, -6.20115591227040185984e-01) (142, -1.95180502046528647764e-01) (143, -3.95476449016509190582e-01) (144, 3.09830890955353384364e-02) (145, 5.28507457653790563290e-02) (146, 4.23345691386756012298e-02) (147, 1.54069428355135984443e-01) (148, 3.91715906298592455442e-03) (149, 1.42290008803866468989e-01) (150, 3.87839235802017512356e-01) (151, 1.06830941013321290001e+00) (152, 5.69063912822913686718e-01) (153, 5.03501892147841911829e-01) (154, 4.54635544329154706045e-01) (155, 5.57593821853871407512e-01) (156, 5.23994723349779700783e-01) (157, 1.50000000000000000000e+03) (158, 1.50000000000000000000e+03) (159, 1.50000000000000000000e+03) (160, 1.50000000000000000000e+03) (161, -5.40525747477040185984e-01) (162, -6.12065631214218308642e-01) (163, -2.60316933410513796920e-02) (164, -8.72805318029957755144e-02) (165, 6.87939654870034587170e-03) (166, 5.13000541127354270365e-01) (167, 5.14179327508149652814e-01) (168, 3.20904771551190903800e-01) (169, 2.35772774949746743989e-01) (170, 1.16010116187874490201e+00) (171, 3.06889427743250176039e-01) (172, 3.81273291903162059313e-01) (173, 4.51253073072412080879e-01) (174, 5.42223253657000858752e-01) (175, 5.88776464700555779430e-01) (176, 4.58455173313587704964e-01) (177, 1.50000000000000000000e+03) (178, 1.50000000000000000000e+03) (179, 1.50000000000000000000e+03) (180, 1.50000000000000000000e+03) (181, 1.50000000000000000000e+03) (182, -6.86431721476647882518e-01) (183, -9.94786348940238512872e-02) (184, 4.99927298434034272923e-01) (185, 2.08705175282977634099e-01) (186, 2.19420793859202156728e-01) (187, 2.15670209176588217881e-01) (188, 4.50212712694732064556e-01) (189, 3.88568980757450443964e-01) (190, 2.98786045624619134298e-01) (191, 2.64582556860081696826e-01) (192, 5.32901443563433052653e-01) (193, 4.85668905858195665282e-01) (194, 3.93085696404237738832e-01) (195, 4.69011648093644040181e-01) (196, 3.79935043609507638873e-01) (197, -6.45703119382373902368e-01) (198, -5.82368477729799050024e-01) (199, 1.50000000000000000000e+03) (200, 1.50000000000000000000e+03) (201, 1.50000000000000000000e+03) (202, 5.44914948446985292208e-01) (203, 3.59246808937812245333e-01) (204, -1.11154860844010758281e-01) (205, -4.31342847640239002160e-01) (206, -2.33569628550946717382e+00) (207, 7.04904217078794192997e-02) (208, -6.98245066165033706485e-02) (209, 1.39406899704013498287e+00) (210, 5.56341612211258884635e-01) (211, 3.83110075936670846364e-01) (212, 3.25921051692610486139e-01) (213, 4.31320664230919970095e-01) (214, 5.55801927314992227913e-01) (215, 5.12453483989823932454e-01) (216, 7.15921182127855354471e-02) (217, 1.50000000000000000000e+03) (218, 1.50000000000000000000e+03) (219, 1.50000000000000000000e+03) (220, 1.50000000000000000000e+03) (221, 3.71062934931790655568e-02) (222, 5.84330622434454549641e-01) (223, 3.48477028209400119252e+00) (224, -1.48208384823054178936e-01) (225, 6.52226591187632792623e-02) (226, -1.77839692074466398930e-01) (227, -1.52971769815713424384e-02) (228, 4.21676619777909718334e-03) (229, 1.11320571264740528217e-01) (230, 4.24571254035019662876e-01) (231, 4.02934297666903029622e-01) (232, 5.50406243195406097435e-01) (233, 5.61236420315830542016e-01) (234, 5.34646663563200230662e-01) (235, 2.92522186552065022180e-01) (236, 3.81381117117809975703e-01) (237, 1.50000000000000000000e+03) (238, 1.50000000000000000000e+03) (239, 1.50000000000000000000e+03) (240, 1.50000000000000000000e+03) (241, 1.50000000000000000000e+03) (242, 7.35269269874794351161e-01) (243, 8.02721891856845032320e-02) (244, -5.30366252030495463621e-02) (245, 2.10462399431559255003e-01) (246, -1.18643887686343846299e-01) (247, -5.53740761292910270430e-03) (248, -1.68918515939386171265e-01) (249, -9.33680076705220712840e-02) (250, 1.63710851321264727609e-01) (251, 4.84574452852906401024e-01) (252, 4.87979328572172077472e-01) (253, 4.65619392000390319719e-01) (254, 6.68645298979584218335e-02) (255, -7.99488646312985357101e-02) (256, -2.15648053422901530771e-03) (257, 1.50000000000000000000e+03) (258, 1.50000000000000000000e+03) (259, 1.50000000000000000000e+03) (260, 1.50000000000000000000e+03) (261, 1.50000000000000000000e+03) (262, 4.36776071827387812885e-01) (263, 2.03526444354399899117e-01) (264, -3.01314282996832036310e-02) (265, -2.89999474148982194777e-01) (266, -5.85554452797823268839e-02) (267, -1.28523013584338458015e-01) (268, -2.24071067514078858807e+00) (269, -6.32455193610706040142e-02) (270, 9.10026638084333039380e-02) (271, 1.48845172518350721269e-01) (272, 3.90020833502160213513e-01) (273, 3.00202648888606093980e-01) (274, 5.03244483950933019223e-01) (275, -5.39761550757237584808e-02) (276, 2.94666048605330244126e-01) (277, -6.14839173404218453101e-01) (278, 1.50000000000000000000e+03) (279, 1.50000000000000000000e+03) (280, 1.50000000000000000000e+03) (281, 1.50000000000000000000e+03) (282, -1.44431855077976872836e-01) (283, 1.44478837209328703217e+00) (284, -1.33587327903615833702e-04) (285, -1.10619350103726577644e-02) (286, 1.30470262906884765242e-01) (287, -2.03343721001809335513e-01) (288, 8.34506214833306697587e-02) (289, -1.24595304794981168173e-01) (290, 6.64949974455247561078e-02) (291, 6.13681649547713412018e-02) (292, 4.36544325761363816163e-01) (293, 5.15872156207746068723e-01) (294, 4.20545448270228883203e-01) (295, -3.80281248707568658718e-02) (296, 1.80162184158765420472e-02) (297, -5.51411442009450691870e-01) (298, -6.04481510368825691870e-01) (299, 1.50000000000000000000e+03) (300, 1.50000000000000000000e+03) (301, 1.50000000000000000000e+03) (302, 1.50000000000000000000e+03) (303, 1.26212869897176394041e-01) (304, 3.41019192556428207830e-01) (305, 1.08613746784298775827e-01) (306, 2.93416122569374951401e-02) (307, -1.10426755265377957160e-01) (308, 4.27189126455250062220e-02) (309, 1.70100488866702162505e-02) (310, 2.85175190855201321494e-01) (311, 4.85656900157086568459e-01) (312, 4.29638976791955062851e-01) (313, -9.75049254504714441039e-02) (314, -2.22225971433077151840e-01) (315, -1.41939485648482105473e-01) (316, 1.48903626052177467942e-01) (317, -5.12104801384450580848e-01) (318, -5.06672672478200691870e-01) (319, 1.50000000000000000000e+03) (320, 1.50000000000000000000e+03) (321, 1.50000000000000000000e+03) (322, 1.50000000000000000000e+03) (323, -8.74713116860046491219e-01) (324, 1.17032572390440056664e-01) (325, 1.07308921103164950361e-01) (326, 1.21833983222333283591e-02) (327, 7.13044027482732212242e-01) (328, 9.46089480915935504557e-03) (329, 5.85049623893287018550e-03) (330, 4.65171488240191888242e-01) (331, 6.05283485046387292883e-01) (332, 5.38713575390814825017e-02) (333, 1.49517332142983395277e-02) (334, -6.19784246272495585595e-03) (335, 4.65238591578798710291e-01) (336, 1.15147765446635200193e-02) (337, -5.15730291155816811255e-01) (338, 1.50000000000000000000e+03) (339, 1.50000000000000000000e+03) (340, 1.50000000000000000000e+03) (341, 1.50000000000000000000e+03) (342, 1.50000000000000000000e+03) (343, 5.65310855049247384940e-01) (344, -6.26159016592018002889e-01) (345, -3.71049156601163804270e-02) (346, -9.35033681861936055713e-02) (347, 7.22904915918164081567e-01) (348, 4.73485863529160722063e-01) (349, 6.70852755450470517040e-01) (350, 6.65195263934465930156e-01) (351, 4.54744469103717574576e-01) (352, 4.90593316646388943880e-01) (353, 4.14121925621458664146e-01) (354, 3.65244571628533187813e-01) (355, -7.32468719105238419420e-02) (356, -3.61603157335466163236e-01) (357, 1.87555661900957126864e-01) (358, 2.15803236568662071271e-01) (359, 1.50000000000000000000e+03) (360, 1.50000000000000000000e+03) (361, 1.50000000000000000000e+03) (362, 1.50000000000000000000e+03) (363, 1.50000000000000000000e+03) (364, 4.65052879588427114932e-01) (365, -3.40067614521771255376e-02) (366, -1.00817016292715569414e-01) (367, 3.42145138516022295772e-01) (368, 5.43941576770954338116e-01) (369, 5.11816427050709954472e-01) (370, 4.96962324700555624357e-01) (371, 5.11944893497180419928e-01) (372, 4.13067888902503954629e-01) (373, 5.22935773500277978343e-01) (374, 5.32321200178140108150e-01) (375, 