FANN_FLO_2.1
num_layers=3
learning_rate=0.700000
connection_rate=1.000000
network_type=0
learning_momentum=0.000000
training_algorithm=2
train_error_function=1
train_stop_function=0
cascade_output_change_fraction=0.010000
quickprop_decay=-0.000100
quickprop_mu=1.750000
rprop_increase_factor=1.200000
rprop_decrease_factor=0.500000
rprop_delta_min=0.000000
rprop_delta_max=50.000000
rprop_delta_zero=0.100000
cascade_output_stagnation_epochs=12
cascade_candidate_change_fraction=0.010000
cascade_candidate_stagnation_epochs=12
cascade_max_out_epochs=150
cascade_min_out_epochs=50
cascade_max_cand_epochs=150
cascade_min_cand_epochs=50
cascade_num_candidate_groups=2
bit_fail_limit=3.49999999999999977796e-01
cascade_candidate_limit=1.00000000000000000000e+03
cascade_weight_multiplier=4.00000000000000022204e-01
cascade_activation_functions_count=10
cascade_activation_functions=3 5 7 8 10 11 14 15 16 17 
cascade_activation_steepnesses_count=4
cascade_activation_steepnesses=2.50000000000000000000e-01 5.00000000000000000000e-01 7.50000000000000000000e-01 1.00000000000000000000e+00 
layer_sizes=401 101 5 
scale_included=0
neurons (num_inputs, activation_function, activation_steepness)=(0, 0, 0.00000000000000000000e+00) (0, 0, 0.00000000000000000000e+00) (0, 0, 0.00000000000000000000e+00) (0, 0, 0.00000000000000000000e+00) (0, 0, 0.00000000000000000000e+00) (0, 0, 0.00000000000000000000e+00) (0, 0, 0.00000000000000000000e+00) (0, 0, 0.00000000000000000000e+00) (0, 0, 0.00000000000000000000e+00) (0, 0, 0.00000000000000000000e+00) (0, 0, 0.00000000000000000000e+00) (0, 0, 0.00000000000000000000e+00) (0, 0, 0.00000000000000000000e+00) (0, 0, 0.00000000000000000000e+00) (0, 0, 0.00000000000000000000e+00) (0, 0, 0.00000000000000000000e+00) (0, 0, 0.00000000000000000000e+00) (0, 0, 0.00000000000000000000e+00) (0, 0, 0.00000000000000000000e+00) (0, 0, 0.00000000000000000000e+00) (0, 0, 0.00000000000000000000e+00) (0, 0, 0.00000000000000000000e+00) (0, 0, 0.00000000000000000000e+00) (0, 0, 0.00000000000000000000e+00) (0, 0, 0.00000000000000000000e+00) (0, 0, 0.00000000000000000000e+00) (0, 0, 0.00000000000000000000e+00) (0, 0, 0.00000000000000000000e+00) (0, 0, 0.00000000000000000000e+00) (0, 0, 0.00000000000000000000e+00) (0, 0, 0.00000000000000000000e+00) (0, 0, 0.00000000000000000000e+00) (0, 0, 0.00000000000000000000e+00) (0, 0, 0.00000000000000000000e+00) (0, 0, 0.00000000000000000000e+00) (0, 0, 0.00000000000000000000e+00) (0, 0, 0.00000000000000000000e+00) (0, 0, 0.00000000000000000000e+00) (0, 0, 0.00000000000000000000e+00) (0, 0, 0.00000000000000000000e+00) (0, 0, 0.00000000000000000000e+00) (0, 0, 0.00000000000000000000e+00) (0, 0, 0.00000000000000000000e+00) (0, 0, 0.00000000000000000000e+00) (0, 0, 0.00000000000000000000e+00) (0, 0, 0.00000000000000000000e+00) (0, 0, 0.00000000000000000000e+00) (0, 0, 0.00000000000000000000e+00) (0, 0, 0.00000000000000000000e+00) (0, 0, 0.00000000000000000000e+00) (0, 0, 0.00000000000000000000e+00) (0, 0, 0.00000000000000000000e+00) (0, 0, 0.00000000000000000000e+00) (0, 0, 0.00000000000000000000e+00) (0, 0, 0.00000000000000000000e+00) (0, 0, 0.00000000000000000000e+00) (0, 0, 0.00000000000000000000e+00) (0, 0, 0.00000000000000000000e+00) (0, 0, 0.00000000000000000000e+00) (0, 0, 0.00000000000000000000e+00) (0, 0, 0.00000000000000000000e+00) (0, 0, 0.00000000000000000000e+00) (0, 0, 0.00000000000000000000e+00) (0, 0, 0.00000000000000000000e+00) (0, 0, 0.00000000000000000000e+00) (0, 0, 0.00000000000000000000e+00) (0, 0, 0.00000000000000000000e+00) (0, 0, 0.00000000000000000000e+00) (0, 0, 0.00000000000000000000e+00) (0, 0, 0.00000000000000000000e+00) (0, 0, 0.00000000000000000000e+00) (0, 0, 0.00000000000000000000e+00) (0, 0, 0.00000000000000000000e+00) (0, 0, 0.00000000000000000000e+00) (0, 0, 0.00000000000000000000e+00) (0, 0, 0.00000000000000000000e+00) (0, 0, 0.00000000000000000000e+00) (0, 0, 0.00000000000000000000e+00) (0, 0, 0.00000000000000000000e+00) (0, 0, 0.00000000000000000000e+00) (0, 0, 0.00000000000000000000e+00) (0, 0, 0.00000000000000000000e+00) (0, 0, 0.00000000000000000000e+00) (0, 0, 0.00000000000000000000e+00) (0, 0, 0.00000000000000000000e+00) (0, 0, 0.00000000000000000000e+00) (0, 0, 0.00000000000000000000e+00) (0, 0, 0.00000000000000000000e+00) (0, 0, 0.00000000000000000000e+00) (0, 0, 0.00000000000000000000e+00) (0, 0, 0.00000000000000000000e+00) (0, 0, 0.00000000000000000000e+00) (0, 0, 0.00000000000000000000e+00) (0, 0, 0.00000000000000000000e+00) (0, 0, 0.00000000000000000000e+00) (0, 0, 0.00000000000000000000e+00) (0, 0, 0.00000000000000000000e+00) (0, 0, 0.00000000000000000000e+00) (0, 0, 0.00000000000000000000e+00) (0, 0, 0.00000000000000000000e+00) (0, 0, 0.00000000000000000000e+00) (0, 0, 0.00000000000000000000e+00) (0, 0, 0.00000000000000000000e+00) (0, 0, 0.00000000000000000000e+00) (0, 0, 0.00000000000000000000e+00) (0, 0, 0.00000000000000000000e+00) (0, 0, 0.00000000000000000000e+00) (0, 0, 0.00000000000000000000e+00) (0, 0, 0.00000000000000000000e+00) (0, 0, 0.00000000000000000000e+00) (0, 0, 0.00000000000000000000e+00) (0, 0, 0.00000000000000000000e+00) (0, 0, 0.00000000000000000000e+00) (0, 0, 0.00000000000000000000e+00) (0, 0, 0.00000000000000000000e+00) (0, 0, 0.00000000000000000000e+00) (0, 0, 0.00000000000000000000e+00) (0, 0, 0.00000000000000000000e+00) (0, 0, 0.00000000000000000000e+00) (0, 0, 0.00000000000000000000e+00) (0, 0, 0.00000000000000000000e+00) (0, 0, 0.00000000000000000000e+00) (0, 0, 0.00000000000000000000e+00) (0, 0, 0.00000000000000000000e+00) (0, 0, 0.00000000000000000000e+00) (0, 0, 0.00000000000000000000e+00) (0, 0, 0.00000000000000000000e+00) (0, 0, 0.00000000000000000000e+00) (0, 0, 0.00000000000000000000e+00) (0, 0, 0.00000000000000000000e+00) (0, 0, 0.00000000000000000000e+00) (0, 0, 0.00000000000000000000e+00) (0, 0, 0.00000000000000000000e+00) (0, 0, 0.00000000000000000000e+00) (0, 0, 0.00000000000000000000e+00) (0, 0, 0.00000000000000000000e+00) (0, 0, 0.00000000000000000000e+00) (0, 0, 0.00000000000000000000e+00) (0, 0, 0.00000000000000000000e+00) (0, 0, 0.00000000000000000000e+00) (0, 0, 0.00000000000000000000e+00) (0, 0, 0.00000000000000000000e+00) (0, 0, 0.00000000000000000000e+00) (0, 0, 0.00000000000000000000e+00) (0, 0, 0.00000000000000000000e+00) (0, 0, 0.00000000000000000000e+00) (0, 0, 0.00000000000000000000e+00) (0, 0, 0.00000000000000000000e+00) (0, 0, 0.00000000000000000000e+00) (0, 0, 0.00000000000000000000e+00) (0, 0, 0.00000000000000000000e+00) (0, 0, 0.00000000000000000000e+00) (0, 0, 0.00000000000000000000e+00) (0, 0, 0.00000000000000000000e+00) (0, 0, 0.00000000000000000000e+00) (0, 0, 0.00000000000000000000e+00) (0, 0, 0.00000000000000000000e+00) (0, 0, 0.00000000000000000000e+00) (0, 0, 0.00000000000000000000e+00) (0, 0, 0.00000000000000000000e+00) (0, 0, 0.00000000000000000000e+00) (0, 0, 0.00000000000000000000e+00) (0, 0, 0.00000000000000000000e+00) (0, 0, 0.00000000000000000000e+00) (0, 0, 0.00000000000000000000e+00) (0, 0, 0.00000000000000000000e+00) (0, 0, 0.00000000000000000000e+00) (0, 0, 0.00000000000000000000e+00) (0, 0, 0.00000000000000000000e+00) (0, 0, 0.00000000000000000000e+00) (0, 0, 0.00000000000000000000e+00) (0, 0, 0.00000000000000000000e+00) (0, 0, 0.00000000000000000000e+00) (0, 0, 0.00000000000000000000e+00) (0, 0, 0.00000000000000000000e+00) (0, 0, 0.00000000000000000000e+00) (0, 0, 0.00000000000000000000e+00) (0, 0, 0.00000000000000000000e+00) (0, 0, 0.00000000000000000000e+00) (0, 0, 0.00000000000000000000e+00) (0, 0, 0.00000000000000000000e+00) (0, 0, 0.00000000000000000000e+00) (0, 0, 0.00000000000000000000e+00) (0, 0, 0.00000000000000000000e+00) (0, 0, 0.00000000000000000000e+00) (0, 0, 0.00000000000000000000e+00) (0, 0, 0.00000000000000000000e+00) (0, 0, 0.00000000000000000000e+00) (0, 0, 0.00000000000000000000e+00) (0, 0, 0.00000000000000000000e+00) (0, 0, 0.00000000000000000000e+00) (0, 0, 0.00000000000000000000e+00) (0, 0, 0.00000000000000000000e+00) (0, 0, 0.00000000000000000000e+00) (0, 0, 0.00000000000000000000e+00) (0, 0, 0.00000000000000000000e+00) (0, 0, 0.00000000000000000000e+00) (0, 0, 0.00000000000000000000e+00) (0, 0, 0.00000000000000000000e+00) (0, 0, 0.00000000000000000000e+00) (0, 0, 0.00000000000000000000e+00) (0, 0, 0.00000000000000000000e+00) (0, 0, 0.00000000000000000000e+00) (0, 0, 0.00000000000000000000e+00) (0, 0, 0.00000000000000000000e+00) (0, 0, 0.00000000000000000000e+00) (0, 0, 0.00000000000000000000e+00) (0, 0, 0.00000000000000000000e+00) (0, 0, 0.00000000000000000000e+00) (0, 0, 0.00000000000000000000e+00) (0, 0, 0.00000000000000000000e+00) (0, 0, 0.00000000000000000000e+00) (0, 0, 0.00000000000000000000e+00) (0, 0, 0.00000000000000000000e+00) (0, 0, 0.00000000000000000000e+00) (0, 0, 0.00000000000000000000e+00) (0, 0, 0.00000000000000000000e+00) (0, 0, 0.00000000000000000000e+00) (0, 0, 0.00000000000000000000e+00) (0, 0, 0.00000000000000000000e+00) (0, 0, 0.00000000000000000000e+00) (0, 0, 0.00000000000000000000e+00) (0, 0, 0.00000000000000000000e+00) (0, 0, 0.00000000000000000000e+00) (0, 0, 0.00000000000000000000e+00) (0, 0, 0.00000000000000000000e+00) (0, 0, 0.00000000000000000000e+00) (0, 0, 0.00000000000000000000e+00) (0, 0, 0.00000000000000000000e+00) (0, 0, 0.00000000000000000000e+00) (0, 0, 0.00000000000000000000e+00) (0, 0, 0.00000000000000000000e+00) (0, 0, 0.00000000000000000000e+00) (0, 0, 0.00000000000000000000e+00) (0, 0, 0.00000000000000000000e+00) (0, 0, 0.00000000000000000000e+00) (0, 0, 0.00000000000000000000e+00) (0, 0, 0.00000000000000000000e+00) (0, 0, 0.00000000000000000000e+00) (0, 0, 0.00000000000000000000e+00) (0, 0, 0.00000000000000000000e+00) (0, 0, 0.00000000000000000000e+00) (0, 0, 0.00000000000000000000e+00) (0, 0, 0.00000000000000000000e+00) (0, 0, 0.00000000000000000000e+00) (0, 0, 0.00000000000000000000e+00) (0, 0, 0.00000000000000000000e+00) (0, 0, 0.00000000000000000000e+00) (0, 0, 0.00000000000000000000e+00) (0, 0, 0.00000000000000000000e+00) (0, 0, 0.00000000000000000000e+00) (0, 0, 0.00000000000000000000e+00) (0, 0, 0.00000000000000000000e+00) (0, 0, 0.00000000000000000000e+00) (0, 0, 0.00000000000000000000e+00) (0, 0, 0.00000000000000000000e+00) (0, 0, 0.00000000000000000000e+00) (0, 0, 0.00000000000000000000e+00) (0, 0, 0.00000000000000000000e+00) (0, 0, 0.00000000000000000000e+00) (0, 0, 0.00000000000000000000e+00) (0, 0, 0.00000000000000000000e+00) (0, 0, 0.00000000000000000000e+00) (0, 0, 0.00000000000000000000e+00) (0, 0, 0.00000000000000000000e+00) (0, 0, 0.00000000000000000000e+00) (0, 0, 0.00000000000000000000e+00) (0, 0, 0.00000000000000000000e+00) (0, 0, 0.00000000000000000000e+00) (0, 0, 0.00000000000000000000e+00) (0, 0, 0.00000000000000000000e+00) (0, 0, 0.00000000000000000000e+00) (0, 0, 0.00000000000000000000e+00) (0, 0, 0.00000000000000000000e+00) (0, 0, 0.00000000000000000000e+00) (0, 0, 0.00000000000000000000e+00) (0, 0, 0.00000000000000000000e+00) (0, 0, 0.00000000000000000000e+00) (0, 0, 0.00000000000000000000e+00) (0, 0, 0.00000000000000000000e+00) (0, 0, 0.00000000000000000000e+00) (0, 0, 0.00000000000000000000e+00) (0, 0, 0.00000000000000000000e+00) (0, 0, 0.00000000000000000000e+00) (0, 0, 0.00000000000000000000e+00) (0, 0, 0.00000000000000000000e+00) (0, 0, 0.00000000000000000000e+00) (0, 0, 0.00000000000000000000e+00) (0, 0, 0.00000000000000000000e+00) (0, 0, 0.00000000000000000000e+00) (0, 0, 0.00000000000000000000e+00) (0, 0, 0.00000000000000000000e+00) (0, 0, 0.00000000000000000000e+00) (0, 0, 0.00000000000000000000e+00) (0, 0, 0.00000000000000000000e+00) (0, 0, 0.00000000000000000000e+00) (0, 0, 0.00000000000000000000e+00) (0, 0, 0.00000000000000000000e+00) (0, 0, 0.00000000000000000000e+00) (0, 0, 0.00000000000000000000e+00) (0, 0, 0.00000000000000000000e+00) (0, 0, 0.00000000000000000000e+00) (0, 0, 0.00000000000000000000e+00) (0, 0, 0.00000000000000000000e+00) (0, 0, 0.00000000000000000000e+00) (0, 0, 0.00000000000000000000e+00) (0, 0, 0.00000000000000000000e+00) (0, 0, 0.00000000000000000000e+00) (0, 0, 0.00000000000000000000e+00) (0, 0, 0.00000000000000000000e+00) (0, 0, 0.00000000000000000000e+00) (0, 0, 0.00000000000000000000e+00) (0, 0, 0.00000000000000000000e+00) (0, 0, 0.00000000000000000000e+00) (0, 0, 0.00000000000000000000e+00) (0, 0, 0.00000000000000000000e+00) (0, 0, 0.00000000000000000000e+00) (0, 0, 0.00000000000000000000e+00) (0, 0, 0.00000000000000000000e+00) (0, 0, 0.00000000000000000000e+00) (0, 0, 0.00000000000000000000e+00) (0, 0, 0.00000000000000000000e+00) (0, 0, 0.00000000000000000000e+00) (0, 0, 0.00000000000000000000e+00) (0, 0, 0.00000000000000000000e+00) (0, 0, 0.00000000000000000000e+00) (0, 0, 0.00000000000000000000e+00) (0, 0, 0.00000000000000000000e+00) (0, 0, 0.00000000000000000000e+00) (0, 0, 0.00000000000000000000e+00) (0, 0, 0.00000000000000000000e+00) (0, 0, 0.00000000000000000000e+00) (0, 0, 0.00000000000000000000e+00) (0, 0, 0.00000000000000000000e+00) (0, 0, 0.00000000000000000000e+00) (0, 0, 0.00000000000000000000e+00) (0, 0, 0.00000000000000000000e+00) (0, 0, 0.00000000000000000000e+00) (0, 0, 0.00000000000000000000e+00) (0, 0, 0.00000000000000000000e+00) (0, 0, 0.00000000000000000000e+00) (0, 0, 0.00000000000000000000e+00) (0, 0, 0.00000000000000000000e+00) (0, 0, 0.00000000000000000000e+00) (0, 0, 0.00000000000000000000e+00) (0, 0, 0.00000000000000000000e+00) (0, 0, 0.00000000000000000000e+00) (0, 0, 0.00000000000000000000e+00) (0, 0, 0.00000000000000000000e+00) (0, 0, 0.00000000000000000000e+00) (0, 0, 0.00000000000000000000e+00) (0, 0, 0.00000000000000000000e+00) (0, 0, 0.00000000000000000000e+00) (0, 0, 0.00000000000000000000e+00) (0, 0, 0.00000000000000000000e+00) (0, 0, 0.00000000000000000000e+00) (0, 0, 0.00000000000000000000e+00) (0, 0, 0.00000000000000000000e+00) (0, 0, 0.00000000000000000000e+00) (0, 0, 0.00000000000000000000e+00) (0, 0, 0.00000000000000000000e+00) (0, 0, 0.00000000000000000000e+00) (0, 0, 0.00000000000000000000e+00) (0, 0, 0.00000000000000000000e+00) (0, 0, 0.00000000000000000000e+00) (0, 0, 0.00000000000000000000e+00) (0, 0, 0.00000000000000000000e+00) (0, 0, 0.00000000000000000000e+00) (0, 0, 0.00000000000000000000e+00) (0, 0, 0.00000000000000000000e+00) (0, 0, 0.00000000000000000000e+00) (0, 0, 0.00000000000000000000e+00) (0, 0, 0.00000000000000000000e+00) (0, 0, 0.00000000000000000000e+00) (0, 0, 0.00000000000000000000e+00) (0, 0, 0.00000000000000000000e+00) (0, 0, 0.00000000000000000000e+00) (0, 0, 0.00000000000000000000e+00) (0, 0, 0.00000000000000000000e+00) (0, 0, 0.00000000000000000000e+00) (0, 0, 0.00000000000000000000e+00) (0, 0, 0.00000000000000000000e+00) (0, 0, 0.00000000000000000000e+00) (0, 0, 0.00000000000000000000e+00) (0, 0, 0.00000000000000000000e+00) (0, 0, 0.00000000000000000000e+00) (0, 0, 0.00000000000000000000e+00) (0, 0, 0.00000000000000000000e+00) (0, 0, 0.00000000000000000000e+00) (0, 0, 0.00000000000000000000e+00) (0, 0, 0.00000000000000000000e+00) (0, 0, 0.00000000000000000000e+00) (0, 0, 0.00000000000000000000e+00) (0, 0, 0.00000000000000000000e+00) (0, 0, 0.00000000000000000000e+00) (0, 0, 0.00000000000000000000e+00) (0, 0, 0.00000000000000000000e+00) (0, 0, 0.00000000000000000000e+00) (0, 0, 0.00000000000000000000e+00) (0, 0, 0.00000000000000000000e+00) (0, 0, 0.00000000000000000000e+00) (401, 5, 5.00000000000000000000e-01) (401, 5, 5.00000000000000000000e-01) (401, 5, 5.00000000000000000000e-01) (401, 5, 5.00000000000000000000e-01) (401, 5, 5.00000000000000000000e-01) (401, 5, 5.00000000000000000000e-01) (401, 5, 5.00000000000000000000e-01) (401, 5, 5.00000000000000000000e-01) (401, 5, 5.00000000000000000000e-01) (401, 5, 5.00000000000000000000e-01) (401, 5, 5.00000000000000000000e-01) (401, 5, 5.00000000000000000000e-01) (401, 5, 5.00000000000000000000e-01) (401, 5, 5.00000000000000000000e-01) (401, 5, 5.00000000000000000000e-01) (401, 5, 5.00000000000000000000e-01) (401, 5, 5.00000000000000000000e-01) (401, 5, 5.00000000000000000000e-01) (401, 5, 5.00000000000000000000e-01) (401, 5, 5.00000000000000000000e-01) (401, 5, 5.00000000000000000000e-01) (401, 5, 5.00000000000000000000e-01) (401, 5, 5.00000000000000000000e-01) (401, 5, 5.00000000000000000000e-01) (401, 5, 5.00000000000000000000e-01) (401, 5, 5.00000000000000000000e-01) (401, 5, 5.00000000000000000000e-01) (401, 5, 5.00000000000000000000e-01) (401, 5, 5.00000000000000000000e-01) (401, 5, 5.00000000000000000000e-01) (401, 5, 5.00000000000000000000e-01) (401, 5, 5.00000000000000000000e-01) (401, 5, 5.00000000000000000000e-01) (401, 5, 5.00000000000000000000e-01) (401, 5, 5.00000000000000000000e-01) (401, 5, 5.00000000000000000000e-01) (401, 5, 5.00000000000000000000e-01) (401, 5, 5.00000000000000000000e-01) (401, 5, 5.00000000000000000000e-01) (401, 5, 5.00000000000000000000e-01) (401, 5, 5.00000000000000000000e-01) (401, 5, 5.00000000000000000000e-01) (401, 5, 5.00000000000000000000e-01) (401, 5, 5.00000000000000000000e-01) (401, 5, 5.00000000000000000000e-01) (401, 5, 5.00000000000000000000e-01) (401, 5, 5.00000000000000000000e-01) (401, 5, 5.00000000000000000000e-01) (401, 5, 5.00000000000000000000e-01) (401, 5, 5.00000000000000000000e-01) (401, 5, 5.00000000000000000000e-01) (401, 5, 5.00000000000000000000e-01) (401, 5, 5.00000000000000000000e-01) (401, 5, 5.00000000000000000000e-01) (401, 5, 5.00000000000000000000e-01) (401, 5, 5.00000000000000000000e-01) (401, 5, 5.00000000000000000000e-01) (401, 5, 5.00000000000000000000e-01) (401, 5, 5.00000000000000000000e-01) (401, 5, 5.00000000000000000000e-01) (401, 5, 5.00000000000000000000e-01) (401, 5, 5.00000000000000000000e-01) (401, 5, 5.00000000000000000000e-01) (401, 5, 5.00000000000000000000e-01) (401, 5, 5.00000000000000000000e-01) (401, 5, 5.00000000000000000000e-01) (401, 5, 5.00000000000000000000e-01) (401, 5, 5.00000000000000000000e-01) (401, 5, 5.00000000000000000000e-01) (401, 5, 5.00000000000000000000e-01) (401, 5, 5.00000000000000000000e-01) (401, 5, 5.00000000000000000000e-01) (401, 5, 5.00000000000000000000e-01) (401, 5, 5.00000000000000000000e-01) (401, 5, 5.00000000000000000000e-01) (401, 5, 5.00000000000000000000e-01) (401, 5, 5.00000000000000000000e-01) (401, 5, 5.00000000000000000000e-01) (401, 5, 5.00000000000000000000e-01) (401, 5, 5.00000000000000000000e-01) (401, 5, 5.00000000000000000000e-01) (401, 5, 5.00000000000000000000e-01) (401, 5, 5.00000000000000000000e-01) (401, 5, 5.00000000000000000000e-01) (401, 5, 5.00000000000000000000e-01) (401, 5, 5.00000000000000000000e-01) (401, 5, 5.00000000000000000000e-01) (401, 5, 5.00000000000000000000e-01) (401, 5, 5.00000000000000000000e-01) (401, 5, 5.00000000000000000000e-01) (401, 5, 5.00000000000000000000e-01) (401, 5, 5.00000000000000000000e-01) (401, 5, 5.00000000000000000000e-01) (401, 5, 5.00000000000000000000e-01) (401, 5, 5.00000000000000000000e-01) (401, 5, 5.00000000000000000000e-01) (401, 5, 5.00000000000000000000e-01) (401, 5, 5.00000000000000000000e-01) (401, 5, 5.00000000000000000000e-01) (401, 5, 5.00000000000000000000e-01) (0, 5, 0.00000000000000000000e+00) (101, 5, 5.00000000000000000000e-01) (101, 5, 5.00000000000000000000e-01) (101, 5, 5.00000000000000000000e-01) (101, 5, 5.00000000000000000000e-01) (0, 5, 0.00000000000000000000e+00) 
connections (connected_to_neuron, weight)=(0, 1.50000000000000000000e+03) (1, 1.50000000000000000000e+03) (2, 1.50000000000000000000e+03) (3, 1.50000000000000000000e+03) (4, 1.50000000000000000000e+03) (5, 1.50000000000000000000e+03) (6, 1.50000000000000000000e+03) (7, 1.50000000000000000000e+03) (8, 1.50000000000000000000e+03) (9, 1.50000000000000000000e+03) (10, -2.85675677449327869439e-01) (11, -2.91189985897753744748e-01) (12, -3.12640744957124627756e-01) (13, -1.58106054799628442664e-01) (14, 1.50000000000000000000e+03) (15, 1.50000000000000000000e+03) (16, 1.50000000000000000000e+03) (17, 1.50000000000000000000e+03) (18, 1.50000000000000000000e+03) (19, 1.50000000000000000000e+03) (20, 1.50000000000000000000e+03) (21, 1.50000000000000000000e+03) (22, 1.50000000000000000000e+03) (23, 1.94516045957777938824e-01) (24, 1.09329281359885149838e-01) (25, 1.31043594224518750169e-01) (26, 7.88927197969743310146e-01) (27, 2.83791857035037509149e-01) (28, -1.17548366390099065515e-01) (29, 4.73660457860366257421e-01) (30, 3.61566983977886780011e-01) (31, 3.46260380405676471138e-01) (32, -1.55883262731348809504e-01) (33, 9.03106433368011836393e-03) (34, 4.54036921295753459482e-01) (35, 1.50000000000000000000e+03) (36, 1.50000000000000000000e+03) (37, 1.50000000000000000000e+03) (38, 1.50000000000000000000e+03) (39, 1.50000000000000000000e+03) (40, 1.50000000000000000000e+03) (41, 1.50000000000000000000e+03) (42, 1.51461852699492416363e-01) (43, 2.18295752848549157177e-01) (44, 4.01920999649586940805e-01) (45, 3.43712070281557535711e-01) (46, 5.35073271608001443944e-01) (47, 4.45368930963465636808e-01) (48, 7.13197782992129214463e-01) (49, 1.00065964599099181953e+01) (50, 1.05682390924128594145e-01) (51, -8.85832243813382269604e-02) (52, -1.01305313178747233294e-01) (53, 2.43091842909866961975e-01) (54, 1.26362725289340727119e-01) (55, 2.06115902094210323714e-01) (56, -1.09841738634577731903e-01) (57, 5.22967468330395104936e-02) (58, 1.50000000000000000000e+03) (59, 1.50000000000000000000e+03) (60, 1.50000000000000000000e+03) (61, 1.84860287219260177594e-01) (62, 1.40298513680670700055e-01) (63, 6.55242394507764003286e-01) (64, -6.90547905241093773476e-01) (65, -3.50666070330116097509e-01) (66, 5.08996710980305855365e-01) (67, 1.94546681271040189376e-01) (68, 4.46421467847011088637e-01) (69, 5.67185170563646243180e-02) (70, 4.44141105571405278574e-02) (71, -2.19490117226667391659e-01) (72, -1.76319928543612974847e-01) (73, -1.95703546565700534088e-02) (74, 6.15057860120489519051e-02) (75, 1.48733308710311679102e-01) (76, 3.97749588657601238495e-01) (77, -9.72109881015383037184e-02) (78, 1.50000000000000000000e+03) (79, 1.50000000000000000000e+03) (80, 1.50000000000000000000e+03) (81, 2.59369443952779180074e-02) (82, 2.96952424984648910566e-01) (83, 1.32830295648131144759e+01) (84, 3.83310858851718838647e-01) (85, 2.86854648374960552459e-01) (86, 4.79340569750473677324e-01) (87, 4.12564657673973322893e-01) (88, 4.66053287658160786400e-01) (89, -1.61896764361248668429e-01) (90, -2.08953168394705346422e-01) (91, -1.24783864254334339594e-01) (92, -1.07513903992377604646e-01) (93, -6.09176636266198667791e-01) (94, 6.43528009683306811972e-01) (95, 4.14691333362657621464e-01) (96, 5.94804221244830694931e-03) (97, 1.50000000000000000000e+03) (98, 1.50000000000000000000e+03) (99, 1.50000000000000000000e+03) (100, 1.50000000000000000000e+03) (101, 9.91547163426617916837e-02) (102, 1.50000000000000000000e+03) (103, 2.63354862000208911343e-01) (104, 3.57775343851673033324e-01) (105, 3.41237335805941899292e-01) (106, 2.91280953778368156826e-01) (107, -1.83332418139316166705e-01) (108, 1.05179335521627149996e-02) (109, -1.79279011621603451276e-01) (110, -8.10353171701140434502e-02) (111, -2.27632274480805391059e-01) (112, -1.26180234058250628770e-01) (113, 1.80071159404330161102e-01) (114, 1.82312723942659571374e-01) (115, 1.01901635479835794840e+00) (116, 1.33751519998209156270e+00) (117, 1.50000000000000000000e+03) (118, 1.50000000000000000000e+03) (119, 1.50000000000000000000e+03) (120, 1.50000000000000000000e+03) (121, 3.36517896353940443310e-02) (122, -3.15673466429728488691e-01) (123, 2.67230217365250877215e-01) (124, -3.83894839550625088798e-01) (125, -7.67147418399030112113e-01) (126, 2.46819790559922869200e-01) (127, -7.06189197537710061647e-02) (128, -1.93080641522512724828e-01) (129, -1.30733380165588525257e-01) (130, -3.02007255334541258041e-01) (131, -5.19257759588313883015e-01) (132, -4.21374900452164205533e-02) (133, 2.42167505045464626079e+00) (134, 3.74278250800568978995e-01) (135, 3.46051462070591064890e-01) (136, 3.60247098764620687916e-01) (137, 1.50000000000000000000e+03) (138, 1.50000000000000000000e+03) (139, 1.50000000000000000000e+03) (140, 1.50000000000000000000e+03) (141, -9.61245983864812323337e-04) (142, 4.26472465076410511831e-01) (143, 4.76519225063173124113e-01) (144, -1.07539330848375991323e+00) (145, 2.30462512295832033793e-01) (146, -1.99188022408751497228e-01) (147, -2.62544357639638570312e-01) (148, -2.76135551336972873138e-01) (149, -2.67537740051981220990e-01) (150, -5.78099962304085002174e-01) (151, -1.77880952595193875254e-01) (152, -7.32148084180868907733e-02) (153, 3.76388887719106446372e-01) (154, 3.75158121198423732956e-01) (155, -1.40015186120515044976e+00) (156, 3.04371723588651388326e-01) (157, 1.50000000000000000000e+03) (158, 1.50000000000000000000e+03) (159, 1.50000000000000000000e+03) (160, 1.50000000000000000000e+03) (161, 6.11298139989118333171e-02) (162, 2.71848979320464423370e-01) (163, 1.76908530338579672581e-01) (164, -4.36023646200008663243e-01) (165, 2.22755703568952440063e-01) (166, -2.60210860217634842861e-01) (167, -5.83806514405782947530e-02) (168, -1.25379147432101906157e-01) (169, -4.47299707959555981063e-01) (170, -2.78361434320843315060e-01) (171, 4.85609243713927551944e-02) (172, -2.06122744967277143902e-01) (173, -1.04506262026464999404e-01) (174, 3.04713240704094168176e-01) (175, 2.48983644359084599351e-01) (176, 3.13435444291776388326e-01) (177, 1.50000000000000000000e+03) (178, 1.50000000000000000000e+03) (179, 1.50000000000000000000e+03) (180, 1.50000000000000000000e+03) (181, 1.50000000000000000000e+03) (182, 2.68261740573662588183e-01) (183, 3.50632124491252750165e-01) (184, -2.46304075390633925302e-01) (185, -4.77054785782308823916e-02) (186, -2.46053600259111632242e-01) (187, -5.31930635963406422961e-02) (188, -1.70993259093574850871e-01) (189, 2.96560143302776857421e-01) (190, -7.85929781631354074101e-01) (191, -7.95073166304583189845e-02) (192, -1.06435974924841803002e-01) (193, -2.33277940860418558922e-01) (194, 1.56016501259403205654e-02) (195, -7.96138539945279166687e-02) (196, 3.83623298898627618225e-01) (197, 5.67068613716454006379e-01) (198, -1.81055978126369893078e-01) (199, 1.50000000000000000000e+03) (200, 1.50000000000000000000e+03) (201, 1.50000000000000000000e+03) (202, -9.04073438320363242937e-01) (203, 3.10455838245290827171e-01) (204, -1.29292421639369048414e-01) (205, -5.32912561237642024015e-02) (206, 4.22569122234669858340e-01) (207, 2.36660822802620990357e-01) (208, 5.82784096394443729139e-01) (209, 4.55148843119615065245e-01) (210, -2.80444335721592805794e-03) (211, -4.58554612999211089197e-02) (212, 4.27752827690543957484e-01) (213, 1.21571460135803346980e-01) (214, 4.52130214522222462215e-01) (215, -9.61681042660983073644e-03) (216, -1.86490452640339582704e-03) (217, 1.50000000000000000000e+03) (218, 1.50000000000000000000e+03) (219, 1.50000000000000000000e+03) (220, 1.50000000000000000000e+03) (221, 4.65212922748848956012e-01) (222, -5.44998888881958798436e-01) (223, 1.03696376741205020799e+00) (224, 4.63881217891837172029e-01) (225, 9.91306838684048174937e-02) (226, -1.10579744770262622389e+00) (227, 4.63820877255453345445e-01) (228, 7.25223669486929067851e-01) (229, 4.32626097787340568868e-01) (230, -1.66549975417094014984e-01) (231, 8.27226456217514255487e-02) (232, 4.81198832545250643200e-01) (233, 5.77193320620600497373e-02) (234, 1.90739472841774310163e-01) (235, 1.13296495529529958612e-01) (236, -1.81073905991234351820e-01) (237, 1.50000000000000000000e+03) (238, 1.50000000000000000000e+03) (239, 1.50000000000000000000e+03) (240, 1.50000000000000000000e+03) (241, 1.50000000000000000000e+03) (242, 7.56094172326660513006e-02) (243, 7.26297082930163484527e-01) (244, 2.92369978778721117951e-01) (245, 1.90090841901042612028e-01) (246, 3.21111529844229692809e-01) (247, 1.16004007867732350512e+00) (248, 9.80665816442033433376e-01) (249, 3.58892863231179692907e-01) (250, -3.93276639840180908259e-01) (251, 2.31001430851734301797e-01) (252, 4.10417874387997483332e-01) (253, 8.84790860897127634521e-02) (254, 4.80959294294822314875e-01) (255, 3.52717324364196116449e-01) (256, -2.63580461171117608199e-01) (257, 1.50000000000000000000e+03) (258, 1.50000000000000000000e+03) (259, 1.50000000000000000000e+03) (260, 1.50000000000000000000e+03) (261, 1.50000000000000000000e+03) (262, -3.08624515731600490565e-01) (263, 5.79522628685942731153e-01) (264, -6.17899023955747264680e-02) (265, 8.72823464646305891002e-01) (266, 4.04586026060328896037e-01) (267, 5.50170136908154749911e-01) (268, 1.16649992507338629011e+00) (269, 6.56162754405303499938e-02) (270, -1.23445363438581909299e-01) (271, -1.09862024398778596046e-01) (272, -1.70571021053833003778e-02) (273, -5.99004338967710787262e-03) (274, 2.98427501054050359208e-01) (275, 3.10798442532012109130e-01) (276, 9.61122968569719238197e-02) (277, -2.25959543324552897259e-01) (278, 1.50000000000000000000e+03) (279, 1.50000000000000000000e+03) (280, 1.50000000000000000000e+03) (281, 1.50000000000000000000e+03) (282, 4.45029462354097127275e-01) (283, 3.33406578145902354748e-01) (284, 2.26289455595253152786e-01) (285, -9.47997984594997178398e-01) (286, 4.69368678044013443174e-01) (287, 4.08565955071475528371e-01) (288, 1.42276577911331081339e-01) (289, -9.18883885271756101210e-03) (290, -9.34110865204003243401e-02) (291, -9.38824322783326538355e-03) (292, 2.04487632120867984797e-01) (293, 4.66118199702459434786e-01) (294, 4.31208159649425049054e-01) (295, 4.49532493016496892402e-01) (296, 5.37473032663946970189e-01) (297, -1.62782047129713447475e-01) (298, -1.41462471521936777874e-01) (299, 1.50000000000000000000e+03) (300, 1.50000000000000000000e+03) (301, 1.50000000000000000000e+03) (302, 1.50000000000000000000e+03) (303, 4.57274127840372079934e-01) (304, 4.35658392879905098649e-01) (305, 3.33054094039645309788e-01) (306, 9.90751080386580662562e-01) (307, 9.56663554168223351226e-02) (308, 6.04668004002199332980e-01) (309, 4.99864715714171181649e-01) (310, 2.94696672967197426107e-01) (311, 2.34991893376906541002e-01) (312, 2.34318039137229261470e-01) (313, -2.07021192034683254590e+00) (314, 5.81279393810713695956e-01) (315, 2.82025945728048843542e-01) (316, 3.26036522403366446632e-01) (317, -2.06843327916704622371e-01) (318, -1.16248849965177897259e-01) (319, 1.50000000000000000000e+03) (320, 1.50000000000000000000e+03) (321, 1.50000000000000000000e+03) (322, 1.50000000000000000000e+03) (323, 3.38390001290970965364e-01) (324, 2.73018355189362571522e-01) (325, 2.21181466108859192676e-01) (326, 2.60976080853111025437e-01) (327, 4.12575609669711296235e-01) (328, 4.34093648194180337097e-01) (329, 4.29978673980190184700e-01) (330, 3.33817256222838087965e-01) (331, 2.78865431658194384834e-01) (332, 6.59302663061743454698e-01) (333, 4.70604362798192843442e-01) (334, 1.18120962043537294783e-01) (335, 3.18922695369023123657e-01) (336, 2.05158326985894257088e-01) (337, -1.51838448084436777874e-01) (338, 1.50000000000000000000e+03) (339, 1.50000000000000000000e+03) (340, 1.50000000000000000000e+03) (341, 1.50000000000000000000e+03) (342, 1.50000000000000000000e+03) (343, -6.46310765499359535236e-02) (344, 2.50908215554136448944e-01) (345, 3.52512971766288429887e-01) (346, 2.91896542026083893884e-01) (347, -3.02021205214778099002e-01) (348, 6.76057811649404594156e-01) (349, 5.42803278701415869989e-01) (350, 3.15925484440445270007e-01) (351, 1.27959683982035409000e-02) (352, 5.60518695897544105833e-01) (353, 3.57055142681218018463e-01) (354, 2.11833318327806580106e-01) (355, 6.36932344812407846835e-02) (356, 6.03960285827162338124e-02) (357, 3.61156562464139824220e-02) (358, -3.64978736145595006324e-02) (359, 1.50000000000000000000e+03) (360, 1.50000000000000000000e+03) (361, 1.50000000000000000000e+03) (362, 1.50000000000000000000e+03) (363, 1.50000000000000000000e+03) (364, 9.89092192155655580699e-01) (365, 6.67092345296242728026e-01) (366, 7.90898223685834400598e-01) (367, -4.45705330949684508379e-01) (368, -8.41481773952663214544e-01) (369, 3.04561546141707828461e-01) (370, 3.77192041844704284426e-01) (371, 2.15034820269334597809e-01) (372, 1.30528744174137045775e+00) (373, 4.10473431734597549170e-01) (374, -2.23461445517468959565e+00) (375, 6.80379062597959327618e-01) (376, 4.54668282259314160410e-01) (377, 1.50000000000000000000e+03) (378, 1.50000000000000000000e+03) (379, 1.50000000000000000000e+03) (380, 1.50000000000000000000e+03) (381, 1.50000000000000000000e+03) (382, 1.50000000000000000000e+03) (383, 1.50000000000000000000e+03) (384, 2.38332679422857629525e-01) (385, 1.64004063161375446267e-01) (386, 1.33388830276491676674e-01) (387, 1.96493079813482685037e-01) (388, 8.17947245559786373370e-01) (389, -1.11233057640814231304e-01) (390, 6.84132273187204931197e-01) (391, -4.18781597531305265630e-03) (392, 1.10785159959899215387e+00) (393, -3.12879654070193069515e+00) (394, 1.50000000000000000000e+03) (395, 1.50000000000000000000e+03) (396, 1.50000000000000000000e+03) (397, 1.50000000000000000000e+03) (398, 1.50000000000000000000e+03) (399, 1.50000000000000000000e+03) (400, -4.43955994719674396087e-01) (0, 1.50000000000000000000e+03) (1, 1.50000000000000000000e+03) (2, 1.50000000000000000000e+03) (3, 1.50000000000000000000e+03) (4, 1.50000000000000000000e+03) (5, 1.50000000000000000000e+03) (6, 1.50000000000000000000e+03) (7, 1.50000000000000000000e+03) (8, 1.50000000000000000000e+03) (9, 1.50000000000000000000e+03) (10, 3.54248310600936977544e-02) (11, 1.35415156756092724954e-01) (12, 4.22141541052015317748e-02) (13, 9.02703195827852522548e-02) (14, 1.50000000000000000000e+03) (15, 1.50000000000000000000e+03) (16, 1.50000000000000000000e+03) (17, 1.50000000000000000000e+03) (18, 1.50000000000000000000e+03) (19, 1.50000000000000000000e+03) (20, 1.50000000000000000000e+03) (21, 1.50000000000000000000e+03) (22, 1.50000000000000000000e+03) (23, 1.25463194024082264066e-01) (24, 5.81597227568589336677e-02) (25, 1.69473953593695325637e-01) (26, 1.01442535050717388967e-01) (27, 1.10513260369857632681e-01) (28, 9.45535038158396290431e-02) (29, 5.37321844401759420862e+01) (30, 1.26821713333026719894e+00) (31, -1.23933864640283708525e+00) (32, -8.51266057972583228830e-02) (33, -9.41470844645461713007e-01) (34, -2.68620987091047445927e-02) (35, 1.50000000000000000000e+03) (36, 1.50000000000000000000e+03) (37, 1.50000000000000000000e+03) (38, 1.50000000000000000000e+03) (39, 1.50000000000000000000e+03) (40, 1.50000000000000000000e+03) (41, 1.50000000000000000000e+03) (42, 1.37975401055332347333e-01) (43, 1.50641842599142594672e+00) (44, 1.39220658905237770764e-01) (45, 1.22733303287074740906e-01) (46, 9.61010302144717915018e-02) (47, 1.42915488158689846232e-01) (48, 1.29092130346659783591e-01) (49, 2.38267809255729226536e-02) (50, 6.33961220918698338533e-03) (51, -9.27138978696012000524e-03) (52, 1.18275360330931077202e-02) (53, -1.03115739364849884341e-01) (54, -1.90513542624324461183e-01) (55, -1.44288833166811621828e-02) (56, -2.26386535046428321039e+01) (57, -5.02901365904185809086e+02) (58, 1.50000000000000000000e+03) (59, 1.50000000000000000000e+03) (60, 1.50000000000000000000e+03) (61, 1.87615331227742286602e-02) (62, 9.55498579854928004051e-02) (63, -5.51833272919781316762e-03) (64, 9.60408559120494720318e-02) (65, 8.05487175524475657040e-02) (66, 2.06095022750604657535e-02) (67, 3.27768294346100150238e-02) (68, 5.37615660174318096831e-02) (69, -6.40156024140563773006e-02) (70, -1.05825807320294798530e-01) (71, 3.40870153864068076155e-03) (72, -8.91997098205375010815e-02) (73, -4.95075590403219190083e-02) (74, -4.94970989343086892331e-02) (75, 1.60135101396438911392e-01) (76, 6.24612560547523232302e-01) (77, -8.47151180591887964511e+00) (78, 1.50000000000000000000e+03) (79, 1.50000000000000000000e+03) (80, 1.50000000000000000000e+03) (81, 5.62615308876000530525e-02) (82, 6.03435432718835484955e-01) (83, 2.83293766644565903068e-02) (84, -5.13610334699723183882e-02) (85, 6.50994101157004040337e-02) (86, -9.84926046309150704516e-01) (87, -1.80251536833226436163e-02) (88, -4.56498949993876107500e-02) (89, 5.14098651622709526543e-02) (90, -3.33301011819880661086e-03) (91, -1.59091670096161819092e-01) (92, 7.79553031542857231828e-03) (93, 1.03366709297566292114e-01) (94, -1.01362407788636699202e-01) (95, -8.41450487321905721272e-02) (96, -1.95501593066506329510e-02) (97, 1.50000000000000000000e+03) (98, 1.50000000000000000000e+03) (99, 1.50000000000000000000e+03) (100, 1.50000000000000000000e+03) (101, 5.54009366745911793761e-02) (102, 1.50000000000000000000e+03) (103, -3.59233968206752241059e-01) (104, -4.22046841184926135870e-01) (105, 1.61415806189972449447e-02) (106, 7.83764339532514037190e-02) (107, -9.50591912486426493523e-02) (108, 8.32516076154548173571e-02) (109, 9.55901214710318247736e-02) (110, -1.01827361820388859193e-01) (111, 4.69108204102588952078e-02) (112, -1.09100782203836371709e-01) (113, -3.53601583419208623238e-02) (114, -3.82001633241018656584e-02) (115, 9.78973809005717794662e-03) (116, 1.25877469684978066100e-02) (117, 1.50000000000000000000e+03) (118, 1.50000000000000000000e+03) (119, 1.50000000000000000000e+03) (120, 1.50000000000000000000e+03) (121, 3.35625547881089267288e-02) (122, 7.61515099730140920808e-02) (123, 3.15044514650276663570e-01) (124, 1.38714010960817701879e-01) (125, -7.37164303062980835746e-02) (126, -3.32566421538190853946e-02) (127, -1.99373534406788108231e-02) (128, -2.68330345115051910332e-02) (129, 1.06293149615016638276e-01) (130, 1.48791044753557866187e-01) (131, 1.87241706918056027842e-01) (132, -2.09828375002456832613e-03) (133, -5.87219062068446324976e-03) (134, -2.25922236032741169387e-01) (135, -1.01751991527092411349e-01) (136, 1.70842208963000175004e-01) (137, 1.50000000000000000000e+03) (138, 1.50000000000000000000e+03) (139, 1.50000000000000000000e+03) (140, 1.50000000000000000000e+03) (141, 7.42180783266984112068e-02) (142, -9.03394367138953963137e-02) (143, 7.48490050381126342804e-02) (144, -2.70150558332814781648e-02) (145, -4.37966177173012977120e-02) (146, 8.61456414361588540540e-02) (147, 3.20509175558378045512e-01) (148, -7.11402811955106489927e-02) (149, 1.57278778782354494714e-01) (150, 4.22602182562677383681e-02) (151, 5.04652665375982176221e-02) (152, 4.52899447225369768122e-03) (153, -6.31121641717787978942e-02) (154, 7.28275540667986831522e-01) (155, -3.52512535495529272245e-02) (156, -2.59553507695409364786e-02) (157, 1.50000000000000000000e+03) (158, 1.50000000000000000000e+03) (159, 1.50000000000000000000e+03) (160, 1.50000000000000000000e+03) (161, 1.48912898075100108564e-01) (162, 1.83251233509399841237e-02) (163, -1.81016057224200922759e-02) (164, 5.59225179822059603740e-02) (165, 1.38489665769108954985e-01) (166, -3.51578770945604884846e-02) (167, -7.72414719445624481375e-02) (168, -2.02741732470502443453e-02) (169, 5.40078286426660114650e-02) (170, 9.58613270554120044942e-02) (171, 8.94040532173451529818e-02) (172, -7.15146553742952856281e-02) (173, -3.13348652890047263408e-02) (174, 3.64961518753662223294e-03) (175, -1.06191178484901199708e-01) (176, -3.73139918575498621967e-02) (177, 1.50000000000000000000e+03) (178, 1.50000000000000000000e+03) (179, 1.50000000000000000000e+03) (180, 1.50000000000000000000e+03) (181, 1.50000000000000000000e+03) (182, 7.66970905677460540462e-02) (183, 9.28896020934925764623e-02) (184, 6.22407983669411302152e-02) (185, 7.32250025576369062419e-02) (186, 7.63402540909899427618e-03) (187, 3.19230655702559193432e-02) (188, -8.76533099043017988050e-02) (189, 8.82872846968566632464e-03) (190, 7.33657002436298583126e-02) (191, -3.29577500696508901568e-02) (192, 5.71548383592870995473e-02) (193, 7.41976092536607706451e-02) (194, -1.39530078971668580756e-01) (195, -8.11554027029143774941e-03) (196, 1.33870226224367977474e-01) (197, 1.26769444431786504346e-01) (198, -2.02905845741970687623e-02) (199, 1.50000000000000000000e+03) (200, 1.50000000000000000000e+03) (201, 1.50000000000000000000e+03) (202, 3.39234087671890713334e-02) (203, 3.26049876298889096393e-01) (204, 1.20823178107535331161e-01) (205, 8.60609942243589498556e-02) (206, -5.49432005597387598805e-02) (207, -3.73212219178161927480e-02) (208, 2.02842694590223528509e-03) (209, -4.54093620327628288980e-02) (210, -2.69391060936592825759e-02) (211, 7.02663389443262814682e-02) (212, 4.85741271282627909422e-02) (213, 8.69994850190261848066e-02) (214, 1.40330566888005534021e-02) (215, -2.89333848254728354110e-01) (216, -1.52541216323263589816e-01) (217, 1.50000000000000000000e+03) (218, 1.50000000000000000000e+03) (219, 1.50000000000000000000e+03) (220, 1.50000000000000000000e+03) (221, -2.19964454009509924326e-01) (222, -1.48917784824545373912e-01) (223, 2.11634993496282924896e-01) (224, -1.83354266057080689256e-02) (225, 1.37089344655469347334e-01) (226, -5.99598560408836009361e-02) (227, -1.03229202673211992169e-02) (228, -7.00589863225572484495e-02) (229, -8.66954819534063031439e-02) (230, 5.21873607758060673034e-02) (231, 7.54143238451795705490e-02) (232, 9.51568714582957931019e-05) (233, 2.82743697635114525635e-02) (234, -1.06396931753927510844e-02) (235, -1.32458523709475833874e-01) (236, -1.17289599516180106931e-01) (237, 1.50000000000000000000e+03) (238, 1.50000000000000000000e+03) (239, 1.50000000000000000000e+03) (240, 1.50000000000000000000e+03) (241, 1.50000000000000000000e+03) (242, 1.97897373582879010367e-01) (243, 4.53341651265129139126e-02) (244, 6.85652180173282471687e-02) (245, 3.16158867069071744527e-02) (246, 2.61546533401155023579e-01) (247, -4.01265675309163821760e-02) (248, -8.91896220120505789364e-02) (249, -1.50534605686329248792e-02) (250, 3.08236070352739421896e-01) (251, 4.71035726567168092083e-02) (252, 1.98876363576660228696e-03) (253, -1.30939044363569290219e-01) (254, 6.19238209394291569398e-02) (255, -9.40302290062059731302e-02) (256, 7.03618135636970096908e-03) (257, 1.50000000000000000000e+03) (258, 1.50000000000000000000e+03) (259, 1.50000000000000000000e+03) (260, 1.50000000000000000000e+03) (261, 1.50000000000000000000e+03) (262, 3.38537283893908969024e-01) (263, 1.44381961435607830690e-01) (264, 1.01402247517818192013e-01) (265, 6.93889551353207290063e-02) (266, 8.24650042416218281849e-02) (267, 1.73187142259342945205e-02) (268, -6.00343165338961468058e-02) (269, 7.28336357189874814000e-03) (270, 1.34056813438255151283e-01) (271, 3.12391218660143764330e-02) (272, -2.84967293421572211154e-02) (273, -6.08629743969215167287e-02) (274, -7.30084583481497000762e-03) (275, -5.72285584087972448719e-02) (276, 7.12178094939603517632e-02) (277, 5.82494574685351595988e-02) (278, 1.50000000000000000000e+03) (279, 1.50000000000000000000e+03) (280, 1.50000000000000000000e+03) (281, 1.50000000000000000000e+03) (282, 1.08606446389649009820e-02) (283, 3.36636622318816025601e-01) (284, 6.31377444184726188681e-01) (285, 3.31341389172699285481e-01) (286, 1.50075649101905211902e-01) (287, -4.62542187147147523807e-02) (288, 3.65052009676404207172e-02) (289, -7.75681126042929297570e-02) (290, 3.08660365115733040242e-02) (291, 1.09091115735289623245e-01) (292, -6.05301113789250833097e-02) (293, 7.36155466373854816542e-02) (294, 1.16576170656021282923e+00) (295, -1.31884535522566233995e-02) (296, 3.01084080047061219965e-01) (297, -3.95593841473801388631e-02) (298, 1.72460365195529381765e-02) (299, 1.50000000000000000000e+03) (300, 1.50000000000000000000e+03) (301, 1.50000000000000000000e+03) (302, 1.50000000000000000000e+03) (303, 2.65219863109762366005e-01) (304, 1.21628495532045605154e-01) (305, 1.96700892601515929525e-02) (306, 3.52952378229731189574e-01) (307, 7.98458774905029117219e-02) (308, -1.82931884739254632666e-02) (309, 6.47649937292030936087e-02) (310, -4.06277406622322020957e-02) (311, -3.81972748515270535408e-02) (312, -5.43437218468589763876e-02) (313, 9.88911751424563084667e-02) (314, -6.58275892806438056581e-02) (315, -1.43643520681802656230e-02) (316, 5.01948988940264295699e-01) (317, -1.79590445856793075319e-02) (318, 7.39110696215884016569e-02) (319, 1.50000000000000000000e+03) (320, 1.50000000000000000000e+03) (321, 1.50000000000000000000e+03) (322, 1.50000000000000000000e+03) (323, 8.78493923800937714930e-01) (324, 4.12369596691953416157e-02) (325, 2.91057249618200397645e-02) (326, 7.31666098030221145887e-02) (327, 6.91215524645157897154e-02) (328, 4.48518231081439650021e-02) (329, -1.04103597067565344786e-02) (330, -1.47478238248301904423e-02) (331, -2.42179784836194789133e-02) (332, 1.03631161197865029333e-01) (333, -1.54614478460775917057e-01) (334, 1.13693863938520239865e-01) (335, 5.09653291915759115716e-03) (336, 1.96006038894779195669e-02) (337, 3.21752416987674122462e-02) (338, 1.50000000000000000000e+03) (339, 1.50000000000000000000e+03) (340, 1.50000000000000000000e+03) (341, 1.50000000000000000000e+03) (342, 1.50000000000000000000e+03) (343, -3.20017897563459108312e-01) (344, 3.31774062192140631322e-02) (345, 8.23003695459143674862e-02) (346, -4.08990767512469211020e-01) (347, 3.62404153312421289934e-02) (348, -9.95449438845058820480e-02) (349, -9.74584523349672320058e-03) (350, -5.23772126314063918295e-02) (351, 7.82843203073999849284e-02) (352, 4.79236056910251062568e-02) (353, -7.15776146218094211360e-02) (354, 5.55729165132662017434e-01) (355, 1.28716536383830126855e-01) (356, 3.85128377518860309792e-01) (357, 3.79452732487264965400e-01) (358, 3.64535738809648846015e-01) (359, 1.50000000000000000000e+03) (360, 1.50000000000000000000e+03) (361, 1.50000000000000000000e+03) (362, 1.50000000000000000000e+03) (363, 1.50000000000000000000e+03) (364, -5.74952328793809017138e-02) (365, 7.00773844387533872968e-02) (366, -4.91738349143801406482e-02) (367, 2.77997524494309165843e-02) (368, -4.67894371250353657832e-01) (369, -5.38977517705812453341e-02) (370, -9.94948501271549767822e-02) (371, -1.14616821791108630668e-01) (372, -1.69923914842376802548e-02) (373, -9.42558553275557944873e-03) (374, 4.24137779854277877090e-02) (375, 4.52843636341828448266e-01) (376, 5.05217827825970910993e-01) (377, 1.50000000000000000000e+03) (378, 1.50000000000000000000e+03) (379, 1.50000000000000000000e+03) (380, 1.50000000000000000000e+03) (381, 1.50000000000000000000e+03) (382, 1.50000000000000000000e+03) (383, 1.50000000000000000000e+03) (384, 1.45627128079008315298e-02) (385, -2.00808329389024591005e-02) (386, -1.09438730285097117478e-02) (387, -1.65774209306169401090e-02) (388, 1.35465903427118683489e+00) (389, 7.24373068622632537705e-02) (390, 3.44801168223404119750e-01) (391, -8.50868694357528182470e-03) (392, -1.33869724993391980838e+00) (393, 6.67378159038506391099e-01) (394, 1.50000000000000000000e+03) (395, 1.50000000000000000000e+03) (396, 1.50000000000000000000e+03) (397, 1.50000000000000000000e+03) (398, 1.50000000000000000000e+03) (399, 1.50000000000000000000e+03) (400, 6.81524344442644702813e-02) (0, 1.50000000000000000000e+03) (1, 1.50000000000000000000e+03) (2, 1.50000000000000000000e+03) (3, 1.50000000000000000000e+03) (4, 1.50000000000000000000e+03) (5, 1.50000000000000000000e+03) (6, 1.50000000000000000000e+03) (7, 1.50000000000000000000e+03) (8, 1.50000000000000000000e+03) (9, 1.50000000000000000000e+03) (10, 1.25597367157584582920e+00) (11, -3.05354913526617588460e-01) (12, -2.72770895068205121436e-01) (13, -3.55562077695901701535e-01) (14, 1.50000000000000000000e+03) (15, 1.50000000000000000000e+03) (16, 1.50000000000000000000e+03) (17, 1.50000000000000000000e+03) (18, 1.50000000000000000000e+03) (19, 1.50000000000000000000e+03) (20, 1.50000000000000000000e+03) (21, 1.50000000000000000000e+03) (22, 1.50000000000000000000e+03) (23, 5.11973521679047971489e-01) (24, 5.07786503999833382927e-01) (25, -6.16478715618534733878e-01) (26, 4.15571207745151494084e-01) (27, -1.82106121619520916477e-01) (28, -4.09063917769027396432e-01) (29, -4.41665689971163677452e-01) (30, -3.58817256161609754450e-01) (31, -1.39572934005176479966e-01) (32, -3.23835865034850733934e-01) (33, -3.88368349658768707844e-01) (34, 3.90922064224437981750e+00) (35, 1.50000000000000000000e+03) (36, 1.50000000000000000000e+03) (37, 1.50000000000000000000e+03) (38, 1.50000000000000000000e+03) (39, 1.50000000000000000000e+03) (40, 1.50000000000000000000e+03) (41, 1.50000000000000000000e+03) (42, 5.32890266745690954764e-01) (43, 6.45961510195620203234e-01) (44, -3.37179954619556354611e-01) (45, -2.16923379288934947695e+00) (46, -2.89126893745763891008e-01) (47, -4.31133833116323972323e-01) (48, 2.77091757580967879004e-01) (49, -4.27185108578133909685e-01) (50, -5.45924296105012533259e-03) (51, -2.51838962333372606839e-01) (52, -1.19161152319656363230e-01) (53, 7.51546735947396848943e-01) (54, 7.41523120718259876050e-02) (55, 2.60813881041450201792e-01) (56, 1.79379290844092675883e+00) (57, 1.76546515238284529303e+00) (58, 1.50000000000000000000e+03) (59, 1.50000000000000000000e+03) (60, 1.50000000000000000000e+03) (61, 5.05424446433190510675e-01) (62, 3.83122204809789035362e-01) (63, 3.46000763173269998418e-01) (64, 2.21067730633025899545e-01) (65, -4.28123295576850471100e-01) (66, -7.17623326161672014933e-01) (67, -3.15834689532441148518e-01) (68, -4.76449037066491054571e-01) (69, 4.65759984158185924574e-01) (70, 1.50276913371503922923e-01) (71, 2.31068112373348122368e-01) (72, 2.32613487563290977089e-01) (73, 1.97613642286289553640e-01) (74, -3.43897095449022943692e-02) (75, -2.03322983343359076081e-01) (76, 1.05133788612456546829e+00) (77, 2.41222917477004816789e+00) (78, 1.50000000000000000000e+03) (79, 1.50000000000000000000e+03) (80, 1.50000000000000000000e+03) (81, 4.42448376684789035362e-01) (82, -7.60728558972366797342e-01) (83, 1.93128320392100438774e+00) (84, 4.72554415484337936304e-02) (85, -3.26141383249684446710e-01) (86, -8.32386377287975709471e-01) (87, 1.76273525767811523046e-01) (88, 1.40919345273043061795e-01) (89, 3.92115239465051390599e-01) (90, 2.65542871219943965588e-01) (91, -2.31458245821335562020e-01) (92, 1.25543350961176997105e-01) (93, -2.84877108038325999040e-01) (94, -1.15448418975708580470e-02) (95, 2.15232566429549382336e-01) (96, 6.75357761960848762550e-02) (97, 1.50000000000000000000e+03) (98, 1.50000000000000000000e+03) (99, 1.50000000000000000000e+03) (100, 1.50000000000000000000e+03) (101, 5.24229384034280321281e-01) (102, 1.50000000000000000000e+03) (103, -5.09897758170621107077e-01) (104, 3.34826928863447281781e-01) (105, -4.40340644052532315111e-01) (106, -1.00095439265433183706e-01) (107, -2.47246312522805183898e-01) (108, -1.72975063751916485755e-01) (109, 3.77567317216813469472e-01) (110, -1.70850313924286151268e-01) (111, -3.31670291250183990606e-01) (112, -5.18601216068629522482e-01) (113, -1.98904205855311350115e-01) (114, -2.34434863867432563556e-01) (115, -9.34978335650210462537e-02) (116, 1.74911448123552415446e+00) (117, 1.50000000000000000000e+03) (118, 1.50000000000000000000e+03) (119, 1.50000000000000000000e+03) (120, 1.50000000000000000000e+03) (121, 4.19151253073815677208e-01) (122, -9.47084385718603538606e-01) (123, -6.68922268288286825388e-01) (124, -5.46435464246281879519e-02) (125, -3.61668296671014632970e-01) (126, 9.25624520091198610405e-02) (127, -1.21948623076615844663e-01) (128, -6.32549307736694044202e-01) (129, -4.85317779282392836038e-01) (130, -3.78309564188706759502e-01) (131, -5.18234709212242128373e-01) (132, -3.58440897187958684711e-01) (133, -6.66912979664641247801e-01) (134, -4.00958310057929756542e-01) (135, -9.22692670746604215459e-01) (136, -5.78109060102391589253e-02) (137, 1.50000000000000000000e+03) (138, 1.50000000000000000000e+03) (139, 1.50000000000000000000e+03) (140, 1.50000000000000000000e+03) (141, 4.40806529491547915978e-01) (142, -4.24516055664617752985e-01) (143, 3.17974727554616254377e-01) (144, -7.03851378611902389615e-01) (145, -8.36827825257042690055e-02) (146, -1.88916269401861736110e-01) (147, -5.79175551776339614385e-01) (148, -3.15068110953536817398e-01) (149, -2.63287657231696461957e-02) (150, -4.63087228535548511843e-01) (151, -3.14762887164882543267e-01) (152, -5.26322581463956828962e-01) (153, -6.74757903003938674935e-01) (154, -4.21946629099985370814e-01) (155, -9.99234407641060973226e-01) (156, -1.98775916424213910938e-01) (157, 1.50000000000000000000e+03) (158, 1.50000000000000000000e+03) (159, 1.50000000000000000000e+03) (160, 1.50000000000000000000e+03) (161, 5.14799452393655321281e-01) (162, 1.30044892763641256606e-01) (163, 2.09990064421405775441e-01) (164, -2.03553423404326944146e-01) (165, -5.51486794021837090085e-02) (166, -4.49571165823070828527e-01) (167, -5.63984093346840409389e-01) (168, 1.34838028886742483659e-01) (169, -1.44123892314628876399e+00) (170, -3.35954494093306577085e-01) (171, 1.00258332724501506017e-01) (172, -2.77111640584227547635e-01) (173, -4.43010620898726836803e-01) (174, -6.06834428603323372542e-01) (175, -3.66552370600282895197e-01) (176, -3.58657500770507731147e-01) (177, 1.50000000000000000000e+03) (178, 1.50000000000000000000e+03) (179, 1.50000000000000000000e+03) (180, 1.50000000000000000000e+03) (181, 1.50000000000000000000e+03) (182, 1.50536630644650420985e-01) (183, 5.02319047675906737993e-01) (184, -1.31352880905397595424e-01) (185, -5.55462411054698443347e-02) (186, -7.61866735700828523470e-02) (187, -5.51628221081947311966e-01) (188, -3.79117804348421960636e-02) (189, -2.35762145058015570864e-01) (190, -4.06979573107476566562e-01) (191, -3.72818247688690596053e-01) (192, -2.92798377513523888638e-01) (193, -2.67926222680339894133e-02) (194, 3.95266818358398705491e-02) (195, -2.11517085363558454691e-01) (196, -3.78713878231089873250e-01) (197, 7.66539089226138559141e-01) (198, 2.65652848199727009693e-01) (199, 1.50000000000000000000e+03) (200, 1.50000000000000000000e+03) (201, 1.50000000000000000000e+03) (202, -5.18619121548902217711e-01) (203, -2.53319556816933966203e-01) (204, -1.70376774248841733606e-01) (205, -7.15170384426016103596e-01) (206, 1.24804930304111882933e-01) (207, 2.21696541875601643712e-01) (208, 7.85023569341086857598e-01) (209, -2.80039587345452478662e-01) (210, -4.48522860178885762750e-01) (211, -2.36513027834257455462e-01) (212, -2.81189747538281131778e-01) (213, 1.46162441684488081384e-01) (214, 5.05177320222370163094e-01) (215, -1.16630290663892882685e-01) (216, -4.79049940176679178716e-01) (217, 1.50000000000000000000e+03) (218, 1.50000000000000000000e+03) (219, 1.50000000000000000000e+03) (220, 1.50000000000000000000e+03) (221, 4.62057799050147721687e+00) (222, -4.95848875254604026797e-01) (223, -4.61554748810995230102e-01) (224, -4.01024867401765683361e-01) (225, -1.53195928113403767590e-01) (226, 1.93112253620733420600e-01) (227, 5.47299115535520575015e-01) (228, 4.92703005284081285708e-01) (229, 2.87597929744587976764e-01) (230, 2.53377492684076166540e-01) (231, 4.21697956664409678851e-02) (232, -1.18509940147449435721e-01) (233, 1.35245235622436177358e-01) (234, -2.52549966408584847244e-01) (235, 2.65855192404419848895e-01) (236, -2.25325114413793076151e-01) (237, 1.50000000000000000000e+03) (238, 1.50000000000000000000e+03) (239, 1.50000000000000000000e+03) (240, 1.50000000000000000000e+03) (241, 1.50000000000000000000e+03) (242, -1.95512064759508247258e-01) (243, -1.11759970809055479007e-02) (244, 1.27598816418647009741e-01) (245, -1.10920331625913570761e+00) (246, -1.70401555354159295330e-01) (247, 5.10248690862453169181e-01) (248, 6.34304871264373959505e-01) (249, 6.38684249061263420444e-01) (250, -5.31518748390856443642e-01) (251, 1.26895571825234892982e-01) (252, 1.05439232336121097022e-01) (253, 4.17305173789925487604e-01) (254, -7.78901701259151479917e-02) (255, 2.20627997127584407622e+00) (256, -1.19053726745335111681e-01) (257, 1.50000000000000000000e+03) (258, 1.50000000000000000000e+03) (259, 1.50000000000000000000e+03) (260, 1.50000000000000000000e+03) (261, 1.50000000000000000000e+03) (262, -6.09986307628723606333e-02) (263, -7.14788081892033577702e-01) (264, -1.71221100141068262313e-02) (265, 1.67795639476430918924e-01) (266, -7.40484636872473095393e-02) (267, 5.42942810704689748924e-01) (268, 6.33572733125007947486e-01) (269, 4.82657641453867025660e-01) (270, 3.57335596820024470333e-01) (271, -2.87341590424235113210e-02) (272, -2.83521859148518406979e-01) (273, 1.11201293517562818658e-01) (274, -5.43904370226714894976e-01) (275, 2.74864463642121636955e-01) (276, -7.07051466131924655212e-02) (277, 1.46237564996601898670e-01) (278, 1.50000000000000000000e+03) (279, 1.50000000000000000000e+03) (280, 1.50000000000000000000e+03) (281, 1.50000000000000000000e+03) (282, 1.90448744215948317926e-01) (283, 1.21338206889081659523e-01) (284, -2.27155479191401354910e+00) (285, -2.52540273834912162854e-02) (286, -1.79697314261309942784e-02) (287, 1.57544334584588080483e-01) (288, 6.79491416315643803614e-01) (289, 6.41505236602324946382e-01) (290, -4.98891998395138494549e-02) (291, -9.10261139759274362504e-01) (292, -5.43123335738869950085e-01) (293, 9.64169781475718717934e-02) (294, 2.08573264688452886251e-01) (295, -2.54031380762831715536e-01) (296, -1.20088741128331275010e-01) (297, 1.25497823373200312336e-01) (298, 2.79965592340352065204e-01) (299, 1.50000000000000000000e+03) (300, 1.50000000000000000000e+03) (301, 1.50000000000000000000e+03) (302, 1.50000000000000000000e+03) (303, 2.29841662649877875868e-01) (304, 1.10164339946975761708e-01) (305, 1.09971669959594217647e-01) (306, 4.37551953215671585173e-01) (307, 1.15171380811724149984e-01) (308, 5.58600666543527246688e-01) (309, 5.79050945259858840242e-02) (310, -3.83726740990129044917e-01) (311, -5.87562317229455184642e-03) (312, -4.08943439874727254768e-01) (313, 8.33167313845010609752e-02) (314, -3.34064712213559600329e-01) (315, -1.66824970119192644846e-01) (316, -1.76187924695128894648e+00) (317, 1.31491472736718018055e-01) (318, 2.59787378624798837023e-01) (319, 1.50000000000000000000e+03) (320, 1.50000000000000000000e+03) (321, 1.50000000000000000000e+03) (322, 1.50000000000000000000e+03) (323, 9.52265312253900098050e-01) (324, 1.45281911750068687406e-01) (325, 1.09854916560111676160e-01) (326, -4.53821819014998240061e-01) (327, -3.85600756928964616410e-01) (328, 1.16873344277593806118e-02) (329, -3.17337989044742252442e-01) (330, -2.33114952128140068277e-01) (331, -5.79474625895320061275e-01) (332, -4.62289565865734053407e-01) (333, -5.08243984786682367893e-02) (334, -1.83428467288495933296e-01) (335, 4.58967346500521622410e-01) (336, 2.75131628151478457855e-01) (337, 1.75180440560700312336e-01) (338, 1.50000000000000000000e+03) (339, 1.50000000000000000000e+03) (340, 1.50000000000000000000e+03) (341, 1.50000000000000000000e+03) (342, 1.50000000000000000000e+03) (343, -7.06287070566624541890e-01) (344, 3.60876959481798709195e-01) (345, -8.64163025504025537893e-03) (346, -3.83778865492386211944e-01) (347, -5.90885117413301519385e-01) (348, -4.18824896941422719632e-01) (349, -7.26419193154642650612e-01) (350, -3.17186051335903107518e-01) (351, -3.11968560472164035957e-01) (352, -1.47053811433308090351e-01) (353, -1.40342590765289570998e-02) (354, 1.39474845868751251565e-01) (355, 1.26009140201241959245e-01) (356, 4.66407169350339101399e-02) (357, 1.51776927562283403539e+00) (358, 1.52693065108584291600e+00) (359, 1.50000000000000000000e+03) (360, 1.50000000000000000000e+03) (361, 1.50000000000000000000e+03) (362, 1.50000000000000000000e+03) (363, 1.50000000000000000000e+03) (364, 6.28146124608300066711e-03) (365, 1.07351965528608733758e-01) (366, 3.88267426084659250662e-01) (367, -4.02942022954939416124e-01) (368, -6.64876661932616963568e-01) (369, -3.63657661766094209010e-01) (370, -7.21813101044323363054e-02) (371, -4.64076418758729403180e-01) (372, -5.85802968318804295755e-01) (373, -3.25780332346034373625e-01) (374, -8.40531657589407149578e-02) (375, 3.31664029341462995859e+00) (376, 9.32696942067358869544e-01) (377, 1.50000000000000000000e+03) (378, 1.50000000000000000000e+03) (379, 1.50000000000000000000e+03) (380, 1.50000000000000000000e+03) (381, 1.50000000000000000000e+03) (382, 1.50000000000000000000e+03) (383, 1.50000000000000000000e+03) (384, 3.86207043922339343656e-01) (385, 3.91974866187964232633e-01) (386, 3.61396252906714343656e-01) (387, 3.74531015551482104886e-01) (388, 3.70477173003132098650e-01) (389, -4.71123938217695659159e-01) (390, -5.09605781856870554414e-01) (391, -4.19574500937814898194e-01) (392, -7.42153610878501845960e-01) (393, -3.34049786940581849848e+00) (394, 1.50000000000000000000e+03) (395, 1.50000000000000000000e+03) (396, 1.50000000000000000000e+03) (397, 1.50000000000000000000e+03) (398, 1.50000000000000000000e+03) (399, 1.50000000000000000000e+03) (400, -3.82925344145805701679e-01) (0, 1.50000000000000000000e+03) (1, 1.50000000000000000000e+03) (2, 1.50000000000000000000e+03) (3, 1.50000000000000000000e+03) (4, 1.50000000000000000000e+03) (5, 1.50000000000000000000e+03) (6, 1.50000000000000000000e+03) (7, 1.50000000000000000000e+03) (8, 1.50000000000000000000e+03) (9, 1.50000000000000000000e+03) (10, 5.53025892375736627393e-01) (11, 7.60315837670046956731e-01) (12, 5.36728973867247272089e-01) (13, 5.71119368943239447134e-01) (14, 1.50000000000000000000e+03) (15, 1.50000000000000000000e+03) (16, 1.50000000000000000000e+03) (17, 1.50000000000000000000e+03) (18, 1.50000000000000000000e+03) (19, 1.50000000000000000000e+03) (20, 1.50000000000000000000e+03) (21, 1.50000000000000000000e+03) (22, 1.50000000000000000000e+03) (23, 4.02480998869289396946e-01) (24, 3.97207567329753874485e-01) (25, 4.46121499186015013638e-01) (26, 2.52744929224572534299e-01) (27, 5.73324138118390891350e-01) (28, 6.23125021231983877712e-01) (29, 6.51116473603924106328e-01) (30, 4.03230948164759017693e-01) (31, 4.97631268367389190121e-01) (32, 3.36206810364525598978e-01) (33, 4.93314065031351223212e-01) (34, -1.75104171312618350775e-01) (35, 1.50000000000000000000e+03) (36, 1.50000000000000000000e+03) (37, 1.50000000000000000000e+03) (38, 1.50000000000000000000e+03) (39, 1.50000000000000000000e+03) (40, 1.50000000000000000000e+03) (41, 1.50000000000000000000e+03) (42, 4.75979538495887755101e-01) (43, 4.40687376171724098928e-01) (44, 4.88727791581944626120e-01) (45, 5.66732393506048093279e-01) (46, 5.54277218605013000108e-01) (47, 4.41049668004194872495e-01) (48, 4.70184191216135916047e-01) (49, 4.91647111779315693081e-01) (50, 4.45686793617374843457e-01) (51, 4.06843066725100954706e-01) (52, 4.70727615469202609333e-01) (53, 4.03134345773886293429e-01) (54, 4.38425267908902904779e-01) (55, 2.84830807411486475189e-01) (56, 4.74876004421078357076e-01) (57, 2.82313678938032830423e-01) (58, 1.50000000000000000000e+03) (59, 1.50000000000000000000e+03) (60, 1.50000000000000000000e+03) (61, 3.64315720136512755101e-01) (62, 3.40078657354463576024e-01) (63, 1.85489184886730107404e-01) (64, 3.98498665700721288463e-01) (65, 4.49598862381630659524e-01) (66, 5.02548766709244087991e-01) (67, 3.54570541532559124764e-01) (68, 4.78317809063367460620e-01) (69, 2.45712003316993610191e-01) (70, 5.24483897662506581838e-01) (71, 3.59560086204761375495e-01) (72, 3.57286569789424468535e-01) (73, 4.23313475156792795584e-01) (74, 4.37019964414200212666e-01) (75, 4.25499425775426098895e-01) (76, 5.13840836625350627642e-01) (77, 4.88132611214813882938e-01) (78, 1.50000000000000000000e+03) (79, 1.50000000000000000000e+03) (80, 1.50000000000000000000e+03) (81, 3.71346967156280516331e-01) (82, 5.14505336084659425921e-01) (83, 4.81461414413902499820e-01) (84, 4.03755301495396345945e-01) (85, 4.09072071928551161957e-01) (86, 3.50692712514246995870e-01) (87, 5.01699700969279183127e-01) (88, 4.57960171021487227883e-01) (89, 5.59187560793964699712e-01) (90, 4.37042310744737760864e-01) (91, 4.10346401708185315460e-01) (92, 3.38810329004447297052e-01) (93, 5.61804676442346551113e-01) (94, 4.11421119192040940504e-01) (95, 3.08770107031811957832e-01) (96, 4.50635255271784995745e-01) (97, 1.50000000000000000000e+03) (98, 1.50000000000000000000e+03) (99, 1.50000000000000000000e+03) (100, 1.50000000000000000000e+03) (101, 4.19876025851119993870e-01) (102, 1.50000000000000000000e+03) (103, 5.35702453877661022297e-01) (104, 3.73488085552230564268e-01) (105, 4.26738213054550397096e-01) (106, 4.67856682857469563519e-01) (107, 4.04413019419729957704e-01) (108, 4.22746363243441225510e-01) (109, 3.97708722078711385262e-01) (110, 4.52624681870754885793e-01) (111, 3.88111645901754953591e-01) (112, 4.89226954059444607559e-01) (113, 5.56331966081959783388e-01) (114, 4.05417008750077079160e-01) (115, 3.71398587515802791614e-01) (116, 3.75646573757712320951e-01) (117, 1.50000000000000000000e+03) (118, 1.50000000000000000000e+03) (119, 1.50000000000000000000e+03) (120, 1.50000000000000000000e+03) (121, 4.63839651878227232640e-01) (122, 6.72374714728641298400e-01) (123, 4.69244711778556811144e-01) (124, 5.47199646250861593266e-01) (125, 4.56784777217195958610e-01) (126, 4.89099647980654361756e-01) (127, 4.76650505385604994490e-01) (128, 4.71184046876112649915e-01) (129, -5.81730138508574426415e-02) (130, 4.65283927862144897070e-01) (131, 4.83774993391652419206e-01) (132, 5.40325910466088799033e-01) (133, 3.94794151255596414973e-01) (134, 4.53619771928601367428e-01) (135, 4.21285573812676061856e-01) (136, 4.07945523161910572618e-01) (137, 1.50000000000000000000e+03) (138, 1.50000000000000000000e+03) (139, 1.50000000000000000000e+03) (140, 1.50000000000000000000e+03) (141, 4.72427295382369993870e-01) (142, 5.44107511037867142001e-01) (143, -2.38595931709435042645e-02) (144, 1.02155112546196760737e-01) (145, 5.08414602789981517894e-01) (146, 4.52920613535511606962e-01) (147, 3.92895252072558043288e-01) (148, 4.72857447102054961885e-01) (149, 3.65966419730506697938e-01) (150, 3.90940115446532399091e-01) (151, 4.48440048224698517565e-01) (152, 5.14259807704836258146e-01) (153, 5.02673275116407358709e-01) (154, 5.25941664144560117045e-01) (155, 4.67218713334915047852e-01) (156, 3.17268736536688911176e-01) (157, 1.50000000000000000000e+03) (158, 1.50000000000000000000e+03) (159, 1.50000000000000000000e+03) (160, 1.50000000000000000000e+03) (161, 3.31216351921905516331e-01) (162, 4.57063537590905566432e-01) (163, -4.30278463775778455269e-02) (164, -9.63118645512301835288e-02) (165, 4.68027589956243383895e-01) (166, 3.95144088433035556296e-01) (167, 3.78084022265956554154e-01) (168, 3.38936226088105752030e-01) (169, 4.43270150167922427631e-01) (170, 4.41660114752820742723e-01) (171, 3.66853968289453435947e-01) (172, 5.29906741457202845602e-01) (173, 4.25099335367240926953e-01) (174, 5.41733650499456875771e-01) (175, 4.44717812047978555690e-01) (176, 3.34968939299769508100e-01) (177, 1.50000000000000000000e+03) (178, 1.50000000000000000000e+03) (179, 1.50000000000000000000e+03) (180, 1.50000000000000000000e+03) (181, 1.50000000000000000000e+03) (182, -3.96719943321041240702e-02) (183, 2.69456953780352094496e-02) (184, 4.41426866555608199416e-01) (185, 3.75616266791515718282e-01) (186, 4.89478691982334568333e-01) (187, 5.17511843526387904646e-01) (188, 4.60756065730024644278e-01) (189, 4.34358973416004656709e-01) (190, 5.23813029833796184320e-01) (191, 5.28098762838558388744e-01) (192, 4.43567984855547325918e-01) (193, 5.28756101531590361198e-01) (194, 3.87937535036876501859e-01) (195, 7.79644376740749600607e-02) (196, 4.70739984395117883054e-01) (197, -2.27820213684636813101e-01) (198, 8.34044299419989143551e-01) (199, 1.50000000000000000000e+03) (200, 1.50000000000000000000e+03) (201, 1.50000000000000000000e+03) (202, 5.73052238070084096755e-01) (203, 4.86072680610937835066e-01) (204, 5.46436938673652394804e-01) (205, 5.17364409229869814943e-01) (206, 2.91566146869515263607e-01) (207, 2.18217840858914380320e-01) (208, 1.84872768789987984572e-01) (209, 3.80904472886188061320e-01) (210, 5.41716151571204562742e-01) (211, 4.71749196136047321826e-01) (212, 4.64080169747562720772e-01) (213, 3.65053611840147396173e-01) (214, 4.05731232928907115109e-01) (215, 3.36587563022353541964e-01) (216, 2.95978481844341834162e-01) (217, 1.50000000000000000000e+03) (218, 1.50000000000000000000e+03) (219, 1.50000000000000000000e+03) (220, 1.50000000000000000000e+03) (221, 2.97443753016817469259e-01) (222, 1.24924295851782507505e+00) (223, 3.89941258601508633497e-01) (224, -1.28796355788513949836e-01) (225, 3.55851631563818548987e-02) (226, -3.63151577372824094225e-02) (227, 4.24121738179775498168e-01) (228, -3.37977854043482461854e-01) (229, 5.21322397919595892368e-01) (230, 5.49189574081458520283e-01) (231, 4.13557585878630729059e-01) (232, 5.24037933534357014409e-01) (233, 5.29983327472293930249e-01) (234, 5.06853988877449257444e-01) (235, 3.56618943510445041145e-01) (236, 4.54859170417821978560e-01) (237, 1.50000000000000000000e+03) (238, 1.50000000000000000000e+03) (239, 1.50000000000000000000e+03) (240, 1.50000000000000000000e+03) (241, 1.50000000000000000000e+03) (242, 5.60068850369735082850e-01) (243, 1.98574474212150804686e-02) (244, -9.36543239253883053053e-02) (245, 9.61987120433896863991e-02) (246, -7.19922867875521094172e-02) (247, -1.20209179705383275433e-02) (248, 1.74508502961673271636e-02) (249, 4.06503034143080699270e-01) (250, 4.62377544326158351762e-01) (251, 5.00596473080953785484e-01) (252, 3.88958224982031253170e-01) (253, 3.14764270635580378777e-01) (254, 4.37745285977725995252e-01) (255, 4.40864441351311975303e-01) (256, 4.36129290329142715876e-01) (257, 1.50000000000000000000e+03) (258, 1.50000000000000000000e+03) (259, 1.50000000000000000000e+03) (260, 1.50000000000000000000e+03) (261, 1.50000000000000000000e+03) (262, 5.62446388233010186042e-01) (263, 5.31705553388137408533e-01) (264, 4.48348342734275571303e-03) (265, -1.82476844237079299793e-02) (266, 5.93562964248849495030e-02) (267, -4.37341466009688595307e-02) (268, 3.20172822488896779980e-01) (269, 4.07280803729550555659e-01) (270, 4.90283699931135907857e-01) (271, 5.43570378746991988983e-01) (272, 3.32942757190974381043e-01) (273, 2.10075315724456812561e-01) (274, 5.48431622216332570474e-01) (275, 4.24762224736857985086e-01) (276, 3.98840470781400446842e-01) (277, 8.97044784721006904782e-01) (278, 1.50000000000000000000e+03) (279, 1.50000000000000000000e+03) (280, 1.50000000000000000000e+03) (281, 1.50000000000000000000e+03) (282, 2.90155124629132982195e-02) (283, 8.76338774382765146875e-03) (284, 7.94785729237822147208e-03) (285, -2.85820111228966174111e-02) (286, -9.62661655625501738731e-02) (287, 2.19884222363907172459e-01) (288, 1.53184480205318551693e-01) (289, 2.91971477746991669999e-01) (290, 3.60875863963428855641e-01) (291, 3.21802109765315758061e-01) (292, 3.89795991997643753724e-01) (293, 5.32700451997801360804e-01) (294, 3.78773636858173889941e-01) (295, 5.59539980792286728573e-01) (296, -4.02267219234155370966e-01) (297, 8.02647813554873024167e-01) (298, 8.64378772076239143551e-01) (299, 1.50000000000000000000e+03) (300, 1.50000000000000000000e+03) (301, 1.50000000000000000000e+03) (302, 1.50000000000000000000e+03) (303, 1.02645363473130440957e-01) (304, 4.66149790088730586746e-01) (305, 6.48766889631182674947e-02) (306, 3.77090740830774762138e-01) (307, 5.28595384820012115235e-01) (308, 5.02624946773591263494e-01) (309, 3.77912524349383383004e-01) (310, 4.03769599170838822122e-01) (311, 4.79989663526090348800e-01) (312, 5.52721588954602327526e-01) (313, 5.35796944697707666627e-01) (314, 4.50375122407006001080e-01) (315, 5.71979417219028785091e-01) (316, 4.37489108666702930517e-01) (317, 8.65214950736631904782e-01) (318, 8.04369009431471382321e-01) (319, 1.50000000000000000000e+03) (320, 1.50000000000000000000e+03) (321, 1.50000000000000000000e+03) (322, 1.50000000000000000000e+03) (323, 8.72535008073491574754e-02) (324, 1.54892002024507331043e-02) (325, 3.68715695665986387120e-01) (326, 3.80721455324430468892e-01) (327, 4.95316539487346996218e-01) (328, 5.12905757875445678096e-01) (329, 5.01636458896029702181e-01) (330, 5.58383609955451443163e-01) (331, 4.53939091684307127750e-01) (332, 5.68642311524608312645e-01) (333, 3.83783642897466470423e-01) (334, 4.57350394885069400086e-01) (335, 3.99530442810752228766e-01) (336, 4.97696840930817452353e-01) (337, 8.95140490826239143551e-01) (338, 1.50000000000000000000e+03) (339, 1.50000000000000000000e+03) (340, 1.50000000000000000000e+03) (341, 1.50000000000000000000e+03) (342, 1.50000000000000000000e+03) (343, 5.20188597087959836429e-01) (344, 1.06654102606674652115e-02) (345, 5.22110993171809534275e-01) (346, -5.54026256935293726080e-01) (347, 4.33772526733491203821e-01) (348, 4.58863528351741767342e-01) (349, 4.80618932837843237937e-01) (350, 5.55953531107214571350e-01) (351, 4.97631153510245727301e-01) (352, 4.96922437023004703871e-01) (353, 4.91494319011992086832e-01) (354, 4.69334447447045610691e-01) (355, 5.97807020769355323964e-01) (356, 2.35390645140516642508e-02) (357, 1.23998151523254440676e-01) (358, 2.24480332237861623934e-01) (359, 1.50000000000000000000e+03) (360, 1.50000000000000000000e+03) (361, 1.50000000000000000000e+03) (362, 1.50000000000000000000e+03) (363, 1.50000000000000000000e+03) (364, 4.95091642806622878048e-01) (365, 2.39990887717571044213e-01) (366, 4.45873029431147538393e-01) (367, 4.06854946670928918628e-01) (368, 2.99963227188120747091e-02) (369, 1.36466656142678360863e-01) (370, 3.98910618089600765845e-01) (371, 3.84118786598261430232e-01) (372, 3.92973908411149597253e-01) (373, 4.02503733578257527626e-01) (374, 3.13210207424953535060e-01) (375, -2.30857936375730238288e-01) (376, 5.31807565742564505862e-02) (377, 1.50000000000000000000e+03) (378, 1.50000000000000000000e+03) (379, 1.50000000000000000000e+03) (380, 1.50000000000000000000e+03) (381, 1.50000000000000000000e+03) (382, 1.50000000000000000000e+03) (383, 1.50000000000000000000e+03) (384, 5.72439601231973238527e-01) (385, 5.33779931773107230164e-01) (386, 6.50961329747598238527e-01) (387, 5.69918850023906298219e-01) (388, 4.94468929184562477896e-01) (389, 5.91488422802002866696e-01) (390, 6.53873128111680856911e-01) (391, 6.01533482182923240345e-01) (392, 3.26809574258527746338e-01) (393, 2.02193376148172809792e+00) (394, 1.50000000000000000000e+03) (395, 1.50000000000000000000e+03) (396, 1.50000000000000000000e+03) (397, 1.50000000000000000000e+03) (398, 1.50000000000000000000e+03) (399, 1.50000000000000000000e+03) (400, 5.24280008334695901695e-01) (0, 1.50000000000000000000e+03) (1, 1.50000000000000000000e+03) (2, 1.50000000000000000000e+03) (3, 1.50000000000000000000e+03) (4, 1.50000000000000000000e+03) (5, 1.50000000000000000000e+03) (6, 1.50000000000000000000e+03) (7, 1.50000000000000000000e+03) (8, 1.50000000000000000000e+03) (9, 1.50000000000000000000e+03) (10, -1.42273493435456088729e-01) (11, -2.02004362723355951337e-01) (12, -1.63058527350742471507e-01) (13, -7.41235633034328100788e-02) (14, 1.50000000000000000000e+03) (15, 1.50000000000000000000e+03) (16, 1.50000000000000000000e+03) (17, 1.50000000000000000000e+03) (18, 1.50000000000000000000e+03) (19, 1.50000000000000000000e+03) (20, 1.50000000000000000000e+03) (21, 1.50000000000000000000e+03) (22, 1.50000000000000000000e+03) (23, 2.00753087096257637478e-01) (24, 2.70620031200690724926e-01) (25, 4.34517814547741687559e-01) (26, -1.38947461078783845306e-02) (27, -2.61666403347804825408e-02) (28, -8.71128745513544133772e-02) (29, 1.66070633129903388880e-01) (30, 3.38213948249421803016e-01) (31, 4.11061425342949815498e-01) (32, 3.11894923148689995340e-01) (33, 4.02267692755509720381e-01) (34, 6.55827355292545099985e-01) (35, 1.50000000000000000000e+03) (36, 1.50000000000000000000e+03) (37, 1.50000000000000000000e+03) (38, 1.50000000000000000000e+03) (39, 1.50000000000000000000e+03) (40, 1.50000000000000000000e+03) (41, 1.50000000000000000000e+03) (42, 2.26857824169440697171e-01) (43, 5.85056740389969687222e-01) (44, 3.89572637842465208102e-01) (45, 2.42827939326073494186e-01) (46, 4.52847853784227927232e-01) (47, 2.58245860395519832853e-01) (48, 2.61736274686478032070e-01) (49, 4.53155119166012365639e-01) (50, 4.42715896951021203876e-01) (51, 3.33238970209554175028e-01) (52, 4.41103623094690200368e-01) (53, 3.72434464739683723788e-01) (54, 5.61930000429839537901e-01) (55, 4.00823131711761537765e-01) (56, 7.22022513101300167371e-01) (57, 6.21353290106322453390e-01) (58, 1.50000000000000000000e+03) (59, 1.50000000000000000000e+03) (60, 1.50000000000000000000e+03) (61, 1.78249424241824577786e-01) (62, 1.62795325659556761044e-01) (63, 5.30124054428743662903e-01) (64, 2.63609680023778880642e-01) (65, 3.69476719290577348964e-01) (66, 4.39358797622514118952e-01) (67, 4.12479349430869446369e-01) (68, 4.82437620109909481858e-01) (69, 5.15496769262263954126e-01) (70, 5.66336826592591546792e-01) (71, 3.11793576656448634399e-01) (72, 3.76064325205939742336e-01) (73, 5.55404719075004105200e-01) (74, 4.69546255812719415257e-01) (75, 4.44384493507675448765e-01) (76, 4.83106519376117871101e-01) (77, 5.69730230963076844652e-01) (78, 1.50000000000000000000e+03) (79, 1.50000000000000000000e+03) (80, 1.50000000000000000000e+03) (81, 1.73506995581431816555e-01) (82, 2.82066642098407205363e-01) (83, 4.40479084194877745784e-01) (84, 2.58759551751289618160e-01) (85, 3.01255030623017117097e-01) (86, 5.74789629810468105653e-01) (87, 4.74465226336811041197e-01) (88, 3.46076106838136554611e-01) (89, 3.25618038504315976400e-01) (90, 4.76029794463758482159e-01) (91, 4.12869507035399818662e-01) (92, 4.72413329826098959963e-01) (93, 3.21661020288682875101e-01) (94, 4.89178468520994225166e-01) (95, 5.55727273106398911295e-01) (96, 4.72702142672180802840e-01) (97, 1.50000000000000000000e+03) (98, 1.50000000000000000000e+03) (99, 1.50000000000000000000e+03) (100, 1.50000000000000000000e+03) (101, 2.92989415966315724926e-01) (102, 1.50000000000000000000e+03) (103, 4.56564624594046619688e-01) (104, 4.97966273981528484427e-01) (105, 4.34066363322745951692e-01) (106, 4.07776121695572368875e-01) (107, 3.88347424042672362265e-01) (108, 3.56706904761973031537e-01) (109, 3.58098185482114028666e-01) (110, 3.69989233770929293321e-01) (111, 5.07935628174434827820e-01) (112, 4.73854696906288286318e-01) (113, 3.35818015097391564527e-01) (114, 4.00158111313231812378e-01) (115, 6.98448350423587993596e-01) (116, 5.08632642549634916840e-01) (117, 1.50000000000000000000e+03) (118, 1.50000000000000000000e+03) (119, 1.50000000000000000000e+03) (120, 1.50000000000000000000e+03) (121, 1.60512609325690697171e-01) (122, 3.03329330691481380278e-01) (123, 5.21553888211606198055e-01) (124, 3.55192180839155768890e-01) (125, 4.44240989701519040089e-01) (126, 4.62193921110590821844e-01) (127, 3.82061019179307070903e-01) (128, 3.54923799279570073573e-01) (129, 3.43790818740148274024e-01) (130, 4.08678256861947752920e-01) (131, 4.74367180494823070802e-01) (132, 3.18994135335364470407e-01) (133, 3.82825860514053262218e-01) (134, 5.41202099591341023732e-01) (135, 3.89243141738728370971e-01) (136, -1.58599607223605776340e-01) (137, 1.50000000000000000000e+03) (138, 1.50000000000000000000e+03) (139, 1.50000000000000000000e+03) (140, 1.50000000000000000000e+03) (141, 2.57711095653815724926e-01) (142, 3.92320997640874302714e-01) (143, 3.95206899541422518318e-01) (144, 3.90631285451498833083e-01) (145, 3.90692624852996717166e-01) (146, 3.39660098832062218310e-01) (147, 3.66243036368596230901e-01) (148, 3.18513419272363540458e-01) (149, 4.27885927567362434054e-01) (150, 4.62982344233689724344e-01) (151, 3.79521939584549661273e-01) (152, 3.11655177813336958792e-01) (153, 2.76950121333919607736e-01) (154, -1.82533981325131051954e-02) (155, 3.01274291885304690286e-01) (156, 4.14752556273200734260e-01) (157, 1.50000000000000000000e+03) (158, 1.50000000000000000000e+03) (159, 1.50000000000000000000e+03) (160, 1.50000000000000000000e+03) (161, 3.16036296926780202465e-01) (162, 4.62646917849489969221e-01) (163, 6.29683610403551363710e-01) (164, 3.20756291820246786095e-01) (165, 3.75998541531973429208e-01) (166, 3.14468899657909584100e-01) (167, 3.29126242695935933291e-01) (168, 4.70432093449849431099e-01) (169, 3.93204705377602103944e-01) (170, 3.83511098045261678013e-01) (171, 4.20430032452051072323e-01) (172, 4.32600428657067437310e-01) (173, 3.75160478231386151915e-01) (174, 2.79718578964961273048e-01) (175, 4.72135833043853092583e-01) (176, 5.09399770089844161625e-01) (177, 1.50000000000000000000e+03) (178, 1.50000000000000000000e+03) (179, 1.50000000000000000000e+03) (180, 1.50000000000000000000e+03) (181, 1.50000000000000000000e+03) (182, 2.80176203635666309921e-01) (183, 4.45405543997693109670e-01) (184, 4.19710953445566026243e-01) (185, 3.78223476693484328415e-01) (186, 5.58991753111046207891e-01) (187, 3.52301356363165618646e-01) (188, 3.05690339097689889325e-01) (189, 4.43374486482888185979e-01) (190, 4.87221305041878716136e-01) (191, 4.26969016513704779925e-01) (192, 3.09398072901207243923e-01) (193, 4.20137017963021774936e-01) (194, 3.19185593269499467972e-01) (195, 5.79796429263624624184e-01) (196, 2.78710674111440681600e-01) (197, 4.85809346383068552111e-01) (198, 2.01179877835597320512e-01) (199, 1.50000000000000000000e+03) (200, 1.50000000000000000000e+03) (201, 1.50000000000000000000e+03) (202, 4.37664008640514023973e-01) (203, 2.87863576567033152553e-01) (204, 3.45719128320198132442e-01) (205, 3.15864664623711655089e-01) (206, 4.58519499733044344492e-01) (207, 4.51606465951822355631e-01) (208, 3.44191011976158700580e-01) (209, 4.67590877172391283789e-01) (210, 3.89852993736495234689e-01) (211, 4.17446230758600989041e-01) (212, 3.92997201673932095023e-01) (213, 4.30172254817974497598e-01) (214, 4.07471084501061564520e-01) (215, 5.23638975145604645967e-01) (216, 4.48453958105127392653e-01) (217, 1.50000000000000000000e+03) (218, 1.50000000000000000000e+03) (219, 1.50000000000000000000e+03) (220, 1.50000000000000000000e+03) (221, 2.12307043557598634775e-01) (222, 3.97117151323731987222e-01) (223, 3.61933465233106377301e-01) (224, 4.26214965239725240842e-01) (225, 3.85489301672659046005e-01) (226, 3.32538342746207138401e-01) (227, 3.65770348169999315324e-01) (228, 3.00609677758202131770e-01) (229, 4.21963554357337011780e-01) (230, 3.21909593116307013450e-01) (231, 4.58404142540393522154e-01) (232, 2.94131360397918428795e-01) (233, 4.14274929666948787954e-01) (234, 3.51761452287556120044e-01) (235, 5.82871930488746636811e-01) (236, 4.52621359824149194218e-01) (237, 1.50000000000000000000e+03) (238, 1.50000000000000000000e+03) (239, 1.50000000000000000000e+03) (240, 1.50000000000000000000e+03) (241, 1.50000000000000000000e+03) (242, 3.71392247745657155811e-01) (243, 3.90644390912358419055e-01) (244, 3.00374074529315804316e-01) (245, 4.10649220120605007445e-01) (246, 4.21171923660902947084e-01) (247, 3.41667387175969006208e-01) (248, 4.58367565780050501001e-01) (249, 2.81568397498756117781e-01) (250, 4.27938630778792128417e-01) (251, 3.09876050029646576967e-01) (252, 3.93614694891915917196e-01) (253, 3.94471253856101267132e-01) (254, 3.79436965048569496695e-01) (255, 3.25349856470312337464e-01) (256, 4.83377972669963740238e-01) (257, 1.50000000000000000000e+03) (258, 1.50000000000000000000e+03) (259, 1.50000000000000000000e+03) (260, 1.50000000000000000000e+03) (261, 1.50000000000000000000e+03) (262, 1.96874995887828502239e-01) (263, 4.06139093586282362569e-01) (264, 4.07519718120032736763e-01) (265, 3.63727233959877715996e-01) (266, 3.85173242319772679565e-01) (267, 2.75569374911608044876e-01) (268, 4.23949760180385437636e-01) (269, 2.63311702890686116785e-01) (270, 3.87745698352555290267e-01) (271, 4.17458806525902559326e-01) (272, 3.36204577880414468005e-01) (273, 5.71766886704333954228e-01) (274, 2.99298810635068412989e-01) (275, 3.89413973024918480537e-01) (276, 3.66252235725360031360e-01) (277, 3.49861525911177917436e-01) (278, 1.50000000000000000000e+03) (279, 1.50000000000000000000e+03) (280, 1.50000000000000000000e+03) (281, 1.50000000000000000000e+03) (282, 3.57894075031039593515e-01) (283, 3.42244574596241468711e-01) (284, 2.45575679405677066436e-01) (285, 4.33907816641831700633e-01) (286, 3.95149205243094547857e-01) (287, 4.42342686977717336472e-01) (288, 3.00470935597229982239e-01) (289, 2.72694480921797099970e-01) (290, 4.24697353893505991085e-01) (291, 5.80670649225921375880e-01) (292, 3.13576700667926200339e-01) (293, 3.85216608378516345290e-01) (294, 3.32689211409184781854e-01) (295, 3.63540883040504081425e-01) (296, 4.04683773252080047911e-01) (297, 3.05598818677748962358e-01) (298, 3.60139840263213439897e-01) (299, 1.50000000000000000000e+03) (300, 1.50000000000000000000e+03) (301, 1.50000000000000000000e+03) (302, 1.50000000000000000000e+03) (303, 2.91448723813016841167e-01) (304, 3.45976744579357786691e-01) (305, 2.50941681598002785947e-01) (306, 3.75785747745865095215e-01) (307, 3.82716826457949355067e-01) (308, 4.15821533347060401375e-01) (309, 2.89357882555653034284e-01) (310, 3.33578576743508881108e-01) (311, 3.27068419835435997278e-01) (312, 4.51704214610700205412e-01) (313, 3.72771336620292770281e-01) (314, 2.81624046002458827687e-01) (315, 4.04296090356462078930e-01) (316, 3.67947990053282214529e-01) (317, 2.22877875882472320512e-01) (318, 3.38447951692427917436e-01) (319, 1.50000000000000000000e+03) (320, 1.50000000000000000000e+03) (321, 1.50000000000000000000e+03) (322, 1.50000000000000000000e+03) (323, 4.22112228325328076028e-01) (324, 2.58109858298551098077e-01) (325, 4.68273223465013488376e-01) (326, 4.19931383291218984777e-01) (327, 3.99936043946961361506e-01) (328, 3.19716986337868269707e-01) (329, 3.42409887809221324950e-01) (330, 4.48230011192506050399e-01) (331, 3.86131273656269979888e-01) (332, 2.88230140709614168770e-01) (333, 3.01872532253614878073e-01) (334, 2.80985719949554901831e-01) (335, 3.66425550432443847271e-01) (336, 4.44789718806988976230e-01) (337, 2.91109078544463439897e-01) (338, 1.50000000000000000000e+03) (339, 1.50000000000000000000e+03) (340, 1.50000000000000000000e+03) (341, 1.50000000000000000000e+03) (342, 1.50000000000000000000e+03) (343, 7.11667088972640193845e-01) (344, 3.16442346695268772461e-01) (345, 2.81364474863728564191e-01) (346, 3.54018625964167221731e-01) (347, 4.68243197041821268556e-01) (348, 3.50834147932488515931e-01) (349, 3.93767973268424498201e-01) (350, 3.32558484290717604193e-01) (351, 3.79541152223879629801e-01) (352, 3.11274201438961839461e-01) (353, 3.51159878378584033864e-01) (354, 4.97523746113559595106e-01) (355, 4.15977705713403866916e-01) (356, 3.35363913965192328437e-01) (357, 3.22758661398470092507e-01) (358, 4.38780398854791753305e-01) (359, 1.50000000000000000000e+03) (360, 1.50000000000000000000e+03) (361, 1.50000000000000000000e+03) (362, 1.50000000000000000000e+03) (363, 1.50000000000000000000e+03) (364, -2.83590265905194552354e-02) (365, 3.48770399404410513799e-01) (366, 5.85152945846654892748e-01) (367, 2.73702787583133377858e-01) (368, 4.47538662054035696336e-01) (369, 5.13932928342680006573e-01) (370, 4.24160935768189306661e-01) (371, 4.72741124100143628173e-01) (372, 3.29917555520011784864e-01) (373, 4.36621431568506579435e-01) (374, 6.32757343642487590785e-01) (375, 4.49452973350577100753e-01) (376, 2.01402251177362351386e-01) (377, 1.50000000000000000000e+03) (378, 1.50000000000000000000e+03) (379, 1.50000000000000000000e+03) (380, 1.50000000000000000000e+03) (381, 1.50000000000000000000e+03) (382, 1.50000000000000000000e+03) (383, 1.50000000000000000000e+03) (384, 1.35307907255770548671e-01) (385, 1.67272030504824337216e-01) (386, 1.53642877133967153958e-01) (387, -3.08908232129795276566e-02) (388, -7.70078234769188407771e-02) (389, -1.52780459830138909405e-01) (390, -1.47257901974541638435e-01) (391, -1.61382162540210122303e-01) (392, 5.94822409652090766663e-01) (393, -1.09770652927920076003e+00) (394, 1.50000000000000000000e+03) (395, 1.50000000000000000000e+03) (396, 1.50000000000000000000e+03) (397, 1.50000000000000000000e+03) (398, 1.50000000000000000000e+03) (399, 1.50000000000000000000e+03) (400, 2.80732299138989560561e-01) (0, 1.50000000000000000000e+03) (1, 1.50000000000000000000e+03) (2, 1.50000000000000000000e+03) (3, 1.50000000000000000000e+03) (4, 1.50000000000000000000e+03) (5, 1.50000000000000000000e+03) (6, 1.50000000000000000000e+03) (7, 1.50000000000000000000e+03) (8, 1.50000000000000000000e+03) (9, 1.50000000000000000000e+03) (10, 3.40441135409997486239e-01) (11, 2.87164570656340933930e-01) (12, 3.26625494194954901772e-01) (13, 2.69243418383229127233e-01) (14, 1.50000000000000000000e+03) (15, 1.50000000000000000000e+03) (16, 1.50000000000000000000e+03) (17, 1.50000000000000000000e+03) (18, 1.50000000000000000000e+03) (19, 1.50000000000000000000e+03) (20, 1.50000000000000000000e+03) (21, 1.50000000000000000000e+03) (22, 1.50000000000000000000e+03) (23, -1.45030753618762275892e-01) (24, -1.27354973858878423032e-01) (25, 3.08440961212444242356e-01) (26, 6.39406905999337915603e-01) (27, 3.84458938370817127073e-01) (28, 2.73241617238668632606e-01) (29, 1.23209982454142163988e-01) (30, 3.07542952319754203661e-01) (31, 2.67232797517340414650e-01) (32, 2.89270492420549751866e-01) (33, 3.67971009792207093270e-01) (34, 3.14112221272722258458e-01) (35, 1.50000000000000000000e+03) (36, 1.50000000000000000000e+03) (37, 1.50000000000000000000e+03) (38, 1.50000000000000000000e+03) (39, 1.50000000000000000000e+03) (40, 1.50000000000000000000e+03) (41, 1.50000000000000000000e+03) (42, -1.04320304400012400792e-01) (43, 4.62074065524226307300e-01) (44, 4.52793447238097335195e-01) (45, 2.54481532082239836345e-01) (46, 2.89519054526398755822e-01) (47, 3.02322902674621585284e-01) (48, 3.83129364082561929550e-01) (49, 4.10363261561863201798e-01) (50, 3.51187720342691300779e-01) (51, 4.68743905874581368032e-01) (52, 4.57992336813124678585e-01) (53, 4.74550869449195555916e-01) (54, 3.74962113598823643112e-01) (55, 5.80178767898126390712e-01) (56, 7.32715869496067928601e-01) (57, 5.22085710491206111961e-01) (58, 1.50000000000000000000e+03) (59, 1.50000000000000000000e+03) (60, 1.50000000000000000000e+03) (61, -4.16555050077890426374e-02) (62, -1.78996818071887331403e-01) (63, 4.90094462514283346621e-01) (64, 3.14965563029481865343e-01) (65, 3.26966106621554397638e-01) (66, 3.89417303708301187903e-01) (67, 5.15437235866846199528e-01) (68, 3.14483724864631442042e-01) (69, 4.11617359684469052983e-01) (70, 4.90739116976130984593e-01) (71, 3.50603605742892343589e-01) (72, 4.44069693319457503566e-01) (73, 4.30062422193508264723e-01) (74, 3.97788990962543775876e-01) (75, 3.92408007868770891680e-01) (76, 6.02643278486631017721e-01) (77, 5.92219032986152194020e-01) (78, 1.50000000000000000000e+03) (79, 1.50000000000000000000e+03) (80, 1.50000000000000000000e+03) (81, -1.69731678372905092633e-01) (82, 1.71125076998122099825e-01) (83, 3.71003110747126552127e-01) (84, 3.25104202224744065486e-01) (85, 3.63301330907672803683e-01) (86, 5.98618047753559423541e-01) (87, 4.63545825048778448174e-01) (88, 4.57084894321113488491e-01) (89, 4.55668071577676303541e-01) (90, 3.86059009894495042126e-01) (91, 4.16604422204134572372e-01) (92, 6.50410158978205865665e-01) (93, 2.91566829834182028591e-01) (94, 4.04986996807123633690e-01) (95, 5.98658672608727848719e-01) (96, 4.55880822005703678634e-01) (97, 1.50000000000000000000e+03) (98, 1.50000000000000000000e+03) (99, 1.50000000000000000000e+03) (100, 1.50000000000000000000e+03) (101, -5.55287990036462814070e-02) (102, 1.50000000000000000000e+03) (103, 3.09164042089725588092e-01) (104, 6.46682993500453662250e-01) (105, 3.03938976977830788151e-01) (106, 4.74482909341935155112e-01) (107, 4.35315510930016691393e-01) (108, 3.34928106469148334501e-01) (109, 3.38708904772676122619e-01) (110, 4.68615975881356061628e-01) (111, 4.24287450386894027243e-01) (112, 3.36175564253031855522e-01) (113, 4.34710637907183117257e-01) (114, 5.51121771154862827302e-01) (115, 6.70936763951220815905e-01) (116, 4.20617923201016152834e-01) (117, 1.50000000000000000000e+03) (118, 1.50000000000000000000e+03) (119, 1.50000000000000000000e+03) (120, 1.50000000000000000000e+03) (121, -9.10390558901285201765e-02) (122, 2.95675581083803373783e-01) (123, 3.60616957489424572181e-01) (124, 4.40147910580953871662e-01) (125, 4.24868244926074056789e-01) (126, 4.73404058511622594096e-01) (127, 3.12038138194163039429e-01) (128, 4.63173181791705690369e-01) (129, 3.44176939208701904160e-01) (130, 4.45122755298257177792e-01) (131, 3.64650812683633029909e-01) (132, 2.73733231545838950893e-01) (133, 3.93591782821716473784e-01) (134, 4.39723221602178526712e-01) (135, 5.37863198113786578070e-01) (136, 3.16261298933317225313e-01) (137, 1.50000000000000000000e+03) (138, 1.50000000000000000000e+03) (139, 1.50000000000000000000e+03) (140, 1.50000000000000000000e+03) (141, -2.13063898745034611959e-02) (142, 4.29145952105411787603e-01) (143, -3.30122733081938263267e-02) (144, -8.90939032700357597117e-02) (145, 4.01079125654461521311e-01) (146, 4.08024757224264678079e-01) (147, 4.18374863684422060306e-01) (148, 3.77288034967435403910e-01) (149, 3.53989943007272545028e-01) (150, 2.69802650871759530649e-01) (151, 3.49940636058097165328e-01) (152, 3.25834147139218321954e-01) (153, 3.79734429989070421119e-01) (154, 3.18092410369127776004e-01) (155, 3.02730038141084012437e-01) (156, 4.20276237913825734260e-01) (157, 1.50000000000000000000e+03) (158, 1.50000000000000000000e+03) (159, 1.50000000000000000000e+03) (160, 1.50000000000000000000e+03) (161, -1.06371084159896281407e-01) (162, 3.28931087309279224229e-01) (163, 3.28336445906080514430e-05) (164, 1.49746442752219481587e-02) (165, 4.05620532504233910487e-01) (166, 3.72607599564959868221e-01) (167, 3.77110572308312297363e-01) (168, 4.61724936900370530601e-01) (169, 4.06989835527936438808e-01) (170, 3.81721426229264249042e-01) (171, 4.26504920228656270176e-01) (172, 3.39248623371945556837e-01) (173, 3.82614067133505597607e-01) (174, 3.70908703790770621911e-01) (175, 4.65169573186567264500e-01) (176, 5.71893675514915877933e-01) (177, 1.50000000000000000000e+03) (178, 1.50000000000000000000e+03) (179, 1.50000000000000000000e+03) (180, 1.50000000000000000000e+03) (181, 1.50000000000000000000e+03) (182, -1.20772045919952220050e-01) (183, -1.01507620528291847561e-01) (184, 4.15743325091314397390e-01) (185, 4.44606748151439301608e-01) (186, 4.02116679778227681386e-01) (187, 3.13521847529378616670e-01) (188, 4.92542029751482313138e-01) (189, 3.02804419613629305363e-01) (190, 4.38059527748330068686e-01) (191, 3.19466864624142865559e-01) (192, 3.49115929316266615512e-01) (193, 4.30403881690207323896e-01) (194, 3.85563007846191518890e-01) (195, 3.67335284194104216837e-01) (196, 4.42566992687411009388e-01) (197, -1.07307249239201984992e-01) (198, -1.55767462281130419921e-01) (199, 1.50000000000000000000e+03) (200, 1.50000000000000000000e+03) (201, 1.50000000000000000000e+03) (202, 3.96446394017104797314e-01) (203, 4.10761378956734479750e-01) (204, 2.64408951063937636139e-01) (205, 4.41594481201904809353e-01) (206, 3.35847652277208141847e-01) (207, 3.28095828424181334970e-01) (208, 3.56091772796217176378e-01) (209, 4.17237663072400510877e-01) (210, 3.15707674039057306636e-01) (211, 3.93962783042533903899e-01) (212, 2.88858587646881326272e-01) (213, 3.97609000406168422437e-01) (214, 2.99616612680345062447e-01) (215, 5.67115271600032722077e-01) (216, 4.76206640671770153883e-01) (217, 1.50000000000000000000e+03) (218, 1.50000000000000000000e+03) (219, 1.50000000000000000000e+03) (220, 1.50000000000000000000e+03) (221, 5.77956238990262383126e-01) (222, 3.59268266209485265250e-01) (223, 4.35181754758615257916e-01) (224, 2.94440062788538681193e-01) (225, 3.32944402153281693302e-01) (226, 3.87253873121249037048e-01) (227, 3.12272993425426026448e-01) (228, 3.08843418023973581565e-01) (229, 2.65072503373311341157e-01) (230, 3.28382851855407498221e-01) (231, 3.45741215642200172553e-01) (232, 4.56938120312030515713e-01) (233, 3.31975547722382025029e-01) (234, 3.68110612085109756286e-01) (235, 4.89056270225157629916e-01) (236, 4.84036860417727921035e-01) (237, 1.50000000000000000000e+03) (238, 1.50000000000000000000e+03) (239, 1.50000000000000000000e+03) (240, 1.50000000000000000000e+03) (241, 1.50000000000000000000e+03) (242, 2.63069644922771517237e-01) (243, -7.18144803835643191769e-02) (244, 3.54905387946137185207e-01) (245, -1.62524643556784365028e-01) (246, 5.43971274221845529223e-03) (247, -2.49711648153409550288e-02) (248, -1.34613356134748785031e-01) (249, 3.90337344115328555016e-01) (250, 4.60911163012676206030e-01) (251, 3.87597576534748022858e-01) (252, 3.31544674450411025468e-01) (253, 3.75705978861192002594e-01) (254, 3.31153876186798590275e-01) (255, 3.56349953829010968054e-01) (256, 4.41829612624601297810e-01) (257, 1.50000000000000000000e+03) (258, 1.50000000000000000000e+03) (259, 1.50000000000000000000e+03) (260, 1.50000000000000000000e+03) (261, 1.50000000000000000000e+03) (262, 1.39161408936940733660e-01) (263, 3.09740166314916243184e-01) (264, -1.77682334024785504312e-01) (265, 1.33611659960372330946e-02) (266, -1.55441280040637883064e-02) (267, 5.33428004270905271184e-03) (268, 3.37579218344648490646e-01) (269, 4.29117416538217943955e-01) (270, 3.26627839721491453062e-01) (271, 3.40548296174012388171e-01) (272, 3.88608926785754704714e-01) (273, 4.99330369022760733877e-01) (274, 4.39211059699603389994e-01) (275, 3.76849479072221604792e-01) (276, 3.20994663640694732898e-01) (277, -1.15719019152151249286e-02) (278, 1.50000000000000000000e+03) (279, 1.50000000000000000000e+03) (280, 1.50000000000000000000e+03) (281, 1.50000000000000000000e+03) (282, -6.60978283381724457390e-02) (283, 3.23132239290963685363e-01) (284, 3.21611160066075041364e-01) (285, 7.62490918542752839360e-03) (286, 3.76603054670294756789e-01) (287, 3.69722027685919718554e-01) (288, 4.23805694032642288338e-01) (289, 3.40798117054682991878e-01) (290, 4.30064801068149316077e-01) (291, 5.39848060210672220371e-01) (292, 3.80333565205827284217e-01) (293, 3.76197932806819457241e-01) (294, 4.53395212754837129143e-01) (295, 4.20528094827249177001e-01) (296, -4.45682031628478192431e-02) (297, -1.88702034828804598998e-01) (298, -1.55834603188179598998e-01) (299, 1.50000000000000000000e+03) (300, 1.50000000000000000000e+03) (301, 1.50000000000000000000e+03) (302, 1.50000000000000000000e+03) (303, -1.19007757847728753986e-01) (304, 3.23319263976092008406e-01) (305, 4.36565681357550583463e-01) (306, 2.53039478520413696483e-01) (307, 2.71017470856679376645e-01) (308, 4.72899563755022123157e-01) (309, 3.74213285199718415086e-01) (310, 4.51591507417663851065e-01) (311, 3.77530268450778250244e-01) (312, 3.07342180766573269679e-01) (313, 4.21380406437415144794e-01) (314, 4.61035884781175020475e-01) (315, 3.26496984932694245263e-01) (316, 1.32009918500374689998e-01) (317, -4.05758051849828549340e-02) (318, -5.99239497162328618729e-02) (319, 1.50000000000000000000e+03) (320, 1.50000000000000000000e+03) (321, 1.50000000000000000000e+03) (322, 1.50000000000000000000e+03) (323, -5.06410296280147206871e-02) (324, -7.31378843270578810065e-02) (325, 4.48995904808096868432e-01) (326, 3.01600770261676587314e-01) (327, 3.31315608633504621316e-01) (328, 4.29271298391280531348e-01) (329, 4.30104855701298305348e-01) (330, 3.47514060343430131184e-01) (331, 3.49800205267431441047e-01) (332, 3.61588433848608281629e-01) (333, 3.92754766122969223296e-01) (334, 2.92285548711346876427e-01) (335, 4.55472667757194193960e-01) (336, 3.69632849901739224396e-01) (337, -2.33761100746618447066e-02) (338, 1.50000000000000000000e+03) (339, 1.50000000000000000000e+03) (340, 1.50000000000000000000e+03) (341, 1.50000000000000000000e+03) (342, 1.50000000000000000000e+03) (343, 8.47614246367089041456e-01) (344, -1.83638027592536862143e-01) (345, 3.65212614921318845518e-01) (346, 5.19887772549631699270e-01) (347, 4.02575132628469278817e-01) (348, 4.17678814893887417892e-01) (349, 4.13222595206243881183e-01) (350, 4.53596569587661369027e-01) (351, 4.12633029319348532127e-01) (352, 3.71276443251836230086e-01) (353, 4.38120651617304901482e-01) (354, 3.26546455301299665130e-01) (355, -2.91917076872932446108e-01) (356, 7.54986626390643233986e-02) (357, -3.53383251739640760758e-02) (358, 9.50449800776342335062e-02) (359, 1.50000000000000000000e+03) (360, 1.50000000000000000000e+03) (361, 1.50000000000000000000e+03) (362, 1.50000000000000000000e+03) (363, 1.50000000000000000000e+03) (364, 4.80849202740188830241e-01) (365, 5.09956007565364188849e-01) (366, 4.23414529170139775083e-01) (367, 3.62987596012168678428e-01) (368, 3.77575307178160402000e-01) (369, 3.52566824033952286310e-01) (370, 4.47251069059189043653e-01) (371, 2.84268116664271985883e-01) (372, 4.51422548079857155479e-01) (373, 4.98384421048090164863e-01) (374, 3.51349832379877380362e-01) (375, 3.83488914861857058125e-02) (376, -2.48334451681778117793e-01) (377, 