FANN_FLO_2.1
num_layers=3
learning_rate=0.700000
connection_rate=1.000000
network_type=0
learning_momentum=0.000000
training_algorithm=2
train_error_function=1
train_stop_function=0
cascade_output_change_fraction=0.010000
quickprop_decay=-0.000100
quickprop_mu=1.750000
rprop_increase_factor=1.200000
rprop_decrease_factor=0.500000
rprop_delta_min=0.000000
rprop_delta_max=50.000000
rprop_delta_zero=0.100000
cascade_output_stagnation_epochs=12
cascade_candidate_change_fraction=0.010000
cascade_candidate_stagnation_epochs=12
cascade_max_out_epochs=150
cascade_min_out_epochs=50
cascade_max_cand_epochs=150
cascade_min_cand_epochs=50
cascade_num_candidate_groups=2
bit_fail_limit=3.49999999999999977796e-01
cascade_candidate_limit=1.00000000000000000000e+03
cascade_weight_multiplier=4.00000000000000022204e-01
cascade_activation_functions_count=10
cascade_activation_functions=3 5 7 8 10 11 14 15 16 17 
cascade_activation_steepnesses_count=4
cascade_activation_steepnesses=2.50000000000000000000e-01 5.00000000000000000000e-01 7.50000000000000000000e-01 1.00000000000000000000e+00 
layer_sizes=401 101 5 
scale_included=0
neurons (num_inputs, activation_function, activation_steepness)=(0, 0, 0.00000000000000000000e+00) (0, 0, 0.00000000000000000000e+00) (0, 0, 0.00000000000000000000e+00) (0, 0, 0.00000000000000000000e+00) (0, 0, 0.00000000000000000000e+00) (0, 0, 0.00000000000000000000e+00) (0, 0, 0.00000000000000000000e+00) (0, 0, 0.00000000000000000000e+00) (0, 0, 0.00000000000000000000e+00) (0, 0, 0.00000000000000000000e+00) (0, 0, 0.00000000000000000000e+00) (0, 0, 0.00000000000000000000e+00) (0, 0, 0.00000000000000000000e+00) (0, 0, 0.00000000000000000000e+00) (0, 0, 0.00000000000000000000e+00) (0, 0, 0.00000000000000000000e+00) (0, 0, 0.00000000000000000000e+00) (0, 0, 0.00000000000000000000e+00) (0, 0, 0.00000000000000000000e+00) (0, 0, 0.00000000000000000000e+00) (0, 0, 0.00000000000000000000e+00) (0, 0, 0.00000000000000000000e+00) (0, 0, 0.00000000000000000000e+00) (0, 0, 0.00000000000000000000e+00) (0, 0, 0.00000000000000000000e+00) (0, 0, 0.00000000000000000000e+00) (0, 0, 0.00000000000000000000e+00) (0, 0, 0.00000000000000000000e+00) (0, 0, 0.00000000000000000000e+00) (0, 0, 0.00000000000000000000e+00) (0, 0, 0.00000000000000000000e+00) (0, 0, 0.00000000000000000000e+00) (0, 0, 0.00000000000000000000e+00) (0, 0, 0.00000000000000000000e+00) (0, 0, 0.00000000000000000000e+00) (0, 0, 0.00000000000000000000e+00) (0, 0, 0.00000000000000000000e+00) (0, 0, 0.00000000000000000000e+00) (0, 0, 0.00000000000000000000e+00) (0, 0, 0.00000000000000000000e+00) (0, 0, 0.00000000000000000000e+00) (0, 0, 0.00000000000000000000e+00) (0, 0, 0.00000000000000000000e+00) (0, 0, 0.00000000000000000000e+00) (0, 0, 0.00000000000000000000e+00) (0, 0, 0.00000000000000000000e+00) (0, 0, 0.00000000000000000000e+00) (0, 0, 0.00000000000000000000e+00) (0, 0, 0.00000000000000000000e+00) (0, 0, 0.00000000000000000000e+00) (0, 0, 0.00000000000000000000e+00) (0, 0, 0.00000000000000000000e+00) (0, 0, 0.00000000000000000000e+00) (0, 0, 0.00000000000000000000e+00) (0, 0, 0.00000000000000000000e+00) (0, 0, 0.00000000000000000000e+00) (0, 0, 0.00000000000000000000e+00) (0, 0, 0.00000000000000000000e+00) (0, 0, 0.00000000000000000000e+00) (0, 0, 0.00000000000000000000e+00) (0, 0, 0.00000000000000000000e+00) (0, 0, 0.00000000000000000000e+00) (0, 0, 0.00000000000000000000e+00) (0, 0, 0.00000000000000000000e+00) (0, 0, 0.00000000000000000000e+00) (0, 0, 0.00000000000000000000e+00) (0, 0, 0.00000000000000000000e+00) (0, 0, 0.00000000000000000000e+00) (0, 0, 0.00000000000000000000e+00) (0, 0, 0.00000000000000000000e+00) (0, 0, 0.00000000000000000000e+00) (0, 0, 0.00000000000000000000e+00) (0, 0, 0.00000000000000000000e+00) (0, 0, 0.00000000000000000000e+00) (0, 0, 0.00000000000000000000e+00) (0, 0, 0.00000000000000000000e+00) (0, 0, 0.00000000000000000000e+00) (0, 0, 0.00000000000000000000e+00) (0, 0, 0.00000000000000000000e+00) (0, 0, 0.00000000000000000000e+00) (0, 0, 0.00000000000000000000e+00) (0, 0, 0.00000000000000000000e+00) (0, 0, 0.00000000000000000000e+00) (0, 0, 0.00000000000000000000e+00) (0, 0, 0.00000000000000000000e+00) (0, 0, 0.00000000000000000000e+00) (0, 0, 0.00000000000000000000e+00) (0, 0, 0.00000000000000000000e+00) (0, 0, 0.00000000000000000000e+00) (0, 0, 0.00000000000000000000e+00) (0, 0, 0.00000000000000000000e+00) (0, 0, 0.00000000000000000000e+00) (0, 0, 0.00000000000000000000e+00) (0, 0, 0.00000000000000000000e+00) (0, 0, 0.00000000000000000000e+00) (0, 0, 0.00000000000000000000e+00) (0, 0, 0.00000000000000000000e+00) (0, 0, 0.00000000000000000000e+00) (0, 0, 0.00000000000000000000e+00) (0, 0, 0.00000000000000000000e+00) (0, 0, 0.00000000000000000000e+00) (0, 0, 0.00000000000000000000e+00) (0, 0, 0.00000000000000000000e+00) (0, 0, 0.00000000000000000000e+00) (0, 0, 0.00000000000000000000e+00) (0, 0, 0.00000000000000000000e+00) (0, 0, 0.00000000000000000000e+00) (0, 0, 0.00000000000000000000e+00) (0, 0, 0.00000000000000000000e+00) (0, 0, 0.00000000000000000000e+00) (0, 0, 0.00000000000000000000e+00) (0, 0, 0.00000000000000000000e+00) (0, 0, 0.00000000000000000000e+00) (0, 0, 0.00000000000000000000e+00) (0, 0, 0.00000000000000000000e+00) (0, 0, 0.00000000000000000000e+00) (0, 0, 0.00000000000000000000e+00) (0, 0, 0.00000000000000000000e+00) (0, 0, 0.00000000000000000000e+00) (0, 0, 0.00000000000000000000e+00) (0, 0, 0.00000000000000000000e+00) (0, 0, 0.00000000000000000000e+00) (0, 0, 0.00000000000000000000e+00) (0, 0, 0.00000000000000000000e+00) (0, 0, 0.00000000000000000000e+00) (0, 0, 0.00000000000000000000e+00) (0, 0, 0.00000000000000000000e+00) (0, 0, 0.00000000000000000000e+00) (0, 0, 0.00000000000000000000e+00) (0, 0, 0.00000000000000000000e+00) (0, 0, 0.00000000000000000000e+00) (0, 0, 0.00000000000000000000e+00) (0, 0, 0.00000000000000000000e+00) (0, 0, 0.00000000000000000000e+00) (0, 0, 0.00000000000000000000e+00) (0, 0, 0.00000000000000000000e+00) (0, 0, 0.00000000000000000000e+00) (0, 0, 0.00000000000000000000e+00) (0, 0, 0.00000000000000000000e+00) (0, 0, 0.00000000000000000000e+00) (0, 0, 0.00000000000000000000e+00) (0, 0, 0.00000000000000000000e+00) (0, 0, 0.00000000000000000000e+00) (0, 0, 0.00000000000000000000e+00) (0, 0, 0.00000000000000000000e+00) (0, 0, 0.00000000000000000000e+00) (0, 0, 0.00000000000000000000e+00) (0, 0, 0.00000000000000000000e+00) (0, 0, 0.00000000000000000000e+00) (0, 0, 0.00000000000000000000e+00) (0, 0, 0.00000000000000000000e+00) (0, 0, 0.00000000000000000000e+00) (0, 0, 0.00000000000000000000e+00) (0, 0, 0.00000000000000000000e+00) (0, 0, 0.00000000000000000000e+00) (0, 0, 0.00000000000000000000e+00) (0, 0, 0.00000000000000000000e+00) (0, 0, 0.00000000000000000000e+00) (0, 0, 0.00000000000000000000e+00) (0, 0, 0.00000000000000000000e+00) (0, 0, 0.00000000000000000000e+00) (0, 0, 0.00000000000000000000e+00) (0, 0, 0.00000000000000000000e+00) (0, 0, 0.00000000000000000000e+00) (0, 0, 0.00000000000000000000e+00) (0, 0, 0.00000000000000000000e+00) (0, 0, 0.00000000000000000000e+00) (0, 0, 0.00000000000000000000e+00) (0, 0, 0.00000000000000000000e+00) (0, 0, 0.00000000000000000000e+00) (0, 0, 0.00000000000000000000e+00) (0, 0, 0.00000000000000000000e+00) (0, 0, 0.00000000000000000000e+00) (0, 0, 0.00000000000000000000e+00) (0, 0, 0.00000000000000000000e+00) (0, 0, 0.00000000000000000000e+00) (0, 0, 0.00000000000000000000e+00) (0, 0, 0.00000000000000000000e+00) (0, 0, 0.00000000000000000000e+00) (0, 0, 0.00000000000000000000e+00) (0, 0, 0.00000000000000000000e+00) (0, 0, 0.00000000000000000000e+00) (0, 0, 0.00000000000000000000e+00) (0, 0, 0.00000000000000000000e+00) (0, 0, 0.00000000000000000000e+00) (0, 0, 0.00000000000000000000e+00) (0, 0, 0.00000000000000000000e+00) (0, 0, 0.00000000000000000000e+00) (0, 0, 0.00000000000000000000e+00) (0, 0, 0.00000000000000000000e+00) (0, 0, 0.00000000000000000000e+00) (0, 0, 0.00000000000000000000e+00) (0, 0, 0.00000000000000000000e+00) (0, 0, 0.00000000000000000000e+00) (0, 0, 0.00000000000000000000e+00) (0, 0, 0.00000000000000000000e+00) (0, 0, 0.00000000000000000000e+00) (0, 0, 0.00000000000000000000e+00) (0, 0, 0.00000000000000000000e+00) (0, 0, 0.00000000000000000000e+00) (0, 0, 0.00000000000000000000e+00) (0, 0, 0.00000000000000000000e+00) (0, 0, 0.00000000000000000000e+00) (0, 0, 0.00000000000000000000e+00) (0, 0, 0.00000000000000000000e+00) (0, 0, 0.00000000000000000000e+00) (0, 0, 0.00000000000000000000e+00) (0, 0, 0.00000000000000000000e+00) (0, 0, 0.00000000000000000000e+00) (0, 0, 0.00000000000000000000e+00) (0, 0, 0.00000000000000000000e+00) (0, 0, 0.00000000000000000000e+00) (0, 0, 0.00000000000000000000e+00) (0, 0, 0.00000000000000000000e+00) (0, 0, 0.00000000000000000000e+00) (0, 0, 0.00000000000000000000e+00) (0, 0, 0.00000000000000000000e+00) (0, 0, 0.00000000000000000000e+00) (0, 0, 0.00000000000000000000e+00) (0, 0, 0.00000000000000000000e+00) (0, 0, 0.00000000000000000000e+00) (0, 0, 0.00000000000000000000e+00) (0, 0, 0.00000000000000000000e+00) (0, 0, 0.00000000000000000000e+00) (0, 0, 0.00000000000000000000e+00) (0, 0, 0.00000000000000000000e+00) (0, 0, 0.00000000000000000000e+00) (0, 0, 0.00000000000000000000e+00) (0, 0, 0.00000000000000000000e+00) (0, 0, 0.00000000000000000000e+00) (0, 0, 0.00000000000000000000e+00) (0, 0, 0.00000000000000000000e+00) (0, 0, 0.00000000000000000000e+00) (0, 0, 0.00000000000000000000e+00) (0, 0, 0.00000000000000000000e+00) (0, 0, 0.00000000000000000000e+00) (0, 0, 0.00000000000000000000e+00) (0, 0, 0.00000000000000000000e+00) (0, 0, 0.00000000000000000000e+00) (0, 0, 0.00000000000000000000e+00) (0, 0, 0.00000000000000000000e+00) (0, 0, 0.00000000000000000000e+00) (0, 0, 0.00000000000000000000e+00) (0, 0, 0.00000000000000000000e+00) (0, 0, 0.00000000000000000000e+00) (0, 0, 0.00000000000000000000e+00) (0, 0, 0.00000000000000000000e+00) (0, 0, 0.00000000000000000000e+00) (0, 0, 0.00000000000000000000e+00) (0, 0, 0.00000000000000000000e+00) (0, 0, 0.00000000000000000000e+00) (0, 0, 0.00000000000000000000e+00) (0, 0, 0.00000000000000000000e+00) (0, 0, 0.00000000000000000000e+00) (0, 0, 0.00000000000000000000e+00) (0, 0, 0.00000000000000000000e+00) (0, 0, 0.00000000000000000000e+00) (0, 0, 0.00000000000000000000e+00) (0, 0, 0.00000000000000000000e+00) (0, 0, 0.00000000000000000000e+00) (0, 0, 0.00000000000000000000e+00) (0, 0, 0.00000000000000000000e+00) (0, 0, 0.00000000000000000000e+00) (0, 0, 0.00000000000000000000e+00) (0, 0, 0.00000000000000000000e+00) (0, 0, 0.00000000000000000000e+00) (0, 0, 0.00000000000000000000e+00) (0, 0, 0.00000000000000000000e+00) (0, 0, 0.00000000000000000000e+00) (0, 0, 0.00000000000000000000e+00) (0, 0, 0.00000000000000000000e+00) (0, 0, 0.00000000000000000000e+00) (0, 0, 0.00000000000000000000e+00) (0, 0, 0.00000000000000000000e+00) (0, 0, 0.00000000000000000000e+00) (0, 0, 0.00000000000000000000e+00) (0, 0, 0.00000000000000000000e+00) (0, 0, 0.00000000000000000000e+00) (0, 0, 0.00000000000000000000e+00) (0, 0, 0.00000000000000000000e+00) (0, 0, 0.00000000000000000000e+00) (0, 0, 0.00000000000000000000e+00) (0, 0, 0.00000000000000000000e+00) (0, 0, 0.00000000000000000000e+00) (0, 0, 0.00000000000000000000e+00) (0, 0, 0.00000000000000000000e+00) (0, 0, 0.00000000000000000000e+00) (0, 0, 0.00000000000000000000e+00) (0, 0, 0.00000000000000000000e+00) (0, 0, 0.00000000000000000000e+00) (0, 0, 0.00000000000000000000e+00) (0, 0, 0.00000000000000000000e+00) (0, 0, 0.00000000000000000000e+00) (0, 0, 0.00000000000000000000e+00) (0, 0, 0.00000000000000000000e+00) (0, 0, 0.00000000000000000000e+00) (0, 0, 0.00000000000000000000e+00) (0, 0, 0.00000000000000000000e+00) (0, 0, 0.00000000000000000000e+00) (0, 0, 0.00000000000000000000e+00) (0, 0, 0.00000000000000000000e+00) (0, 0, 0.00000000000000000000e+00) (0, 0, 0.00000000000000000000e+00) (0, 0, 0.00000000000000000000e+00) (0, 0, 0.00000000000000000000e+00) (0, 0, 0.00000000000000000000e+00) (0, 0, 0.00000000000000000000e+00) (0, 0, 0.00000000000000000000e+00) (0, 0, 0.00000000000000000000e+00) (0, 0, 0.00000000000000000000e+00) (0, 0, 0.00000000000000000000e+00) (0, 0, 0.00000000000000000000e+00) (0, 0, 0.00000000000000000000e+00) (0, 0, 0.00000000000000000000e+00) (0, 0, 0.00000000000000000000e+00) (0, 0, 0.00000000000000000000e+00) (0, 0, 0.00000000000000000000e+00) (0, 0, 0.00000000000000000000e+00) (0, 0, 0.00000000000000000000e+00) (0, 0, 0.00000000000000000000e+00) (0, 0, 0.00000000000000000000e+00) (0, 0, 0.00000000000000000000e+00) (0, 0, 0.00000000000000000000e+00) (0, 0, 0.00000000000000000000e+00) (0, 0, 0.00000000000000000000e+00) (0, 0, 0.00000000000000000000e+00) (0, 0, 0.00000000000000000000e+00) (0, 0, 0.00000000000000000000e+00) (0, 0, 0.00000000000000000000e+00) (0, 0, 0.00000000000000000000e+00) (0, 0, 0.00000000000000000000e+00) (0, 0, 0.00000000000000000000e+00) (0, 0, 0.00000000000000000000e+00) (0, 0, 0.00000000000000000000e+00) (0, 0, 0.00000000000000000000e+00) (0, 0, 0.00000000000000000000e+00) (0, 0, 0.00000000000000000000e+00) (0, 0, 0.00000000000000000000e+00) (0, 0, 0.00000000000000000000e+00) (0, 0, 0.00000000000000000000e+00) (0, 0, 0.00000000000000000000e+00) (0, 0, 0.00000000000000000000e+00) (0, 0, 0.00000000000000000000e+00) (0, 0, 0.00000000000000000000e+00) (0, 0, 0.00000000000000000000e+00) (0, 0, 0.00000000000000000000e+00) (0, 0, 0.00000000000000000000e+00) (0, 0, 0.00000000000000000000e+00) (0, 0, 0.00000000000000000000e+00) (0, 0, 0.00000000000000000000e+00) (0, 0, 0.00000000000000000000e+00) (0, 0, 0.00000000000000000000e+00) (0, 0, 0.00000000000000000000e+00) (0, 0, 0.00000000000000000000e+00) (0, 0, 0.00000000000000000000e+00) (0, 0, 0.00000000000000000000e+00) (0, 0, 0.00000000000000000000e+00) (0, 0, 0.00000000000000000000e+00) (0, 0, 0.00000000000000000000e+00) (0, 0, 0.00000000000000000000e+00) (0, 0, 0.00000000000000000000e+00) (0, 0, 0.00000000000000000000e+00) (0, 0, 0.00000000000000000000e+00) (0, 0, 0.00000000000000000000e+00) (0, 0, 0.00000000000000000000e+00) (0, 0, 0.00000000000000000000e+00) (0, 0, 0.00000000000000000000e+00) (0, 0, 0.00000000000000000000e+00) (0, 0, 0.00000000000000000000e+00) (0, 0, 0.00000000000000000000e+00) (0, 0, 0.00000000000000000000e+00) (0, 0, 0.00000000000000000000e+00) (0, 0, 0.00000000000000000000e+00) (0, 0, 0.00000000000000000000e+00) (0, 0, 0.00000000000000000000e+00) (0, 0, 0.00000000000000000000e+00) (0, 0, 0.00000000000000000000e+00) (0, 0, 0.00000000000000000000e+00) (0, 0, 0.00000000000000000000e+00) (0, 0, 0.00000000000000000000e+00) (0, 0, 0.00000000000000000000e+00) (0, 0, 0.00000000000000000000e+00) (0, 0, 0.00000000000000000000e+00) (0, 0, 0.00000000000000000000e+00) (0, 0, 0.00000000000000000000e+00) (0, 0, 0.00000000000000000000e+00) (0, 0, 0.00000000000000000000e+00) (0, 0, 0.00000000000000000000e+00) (0, 0, 0.00000000000000000000e+00) (0, 0, 0.00000000000000000000e+00) (0, 0, 0.00000000000000000000e+00) (0, 0, 0.00000000000000000000e+00) (0, 0, 0.00000000000000000000e+00) (0, 0, 0.00000000000000000000e+00) (0, 0, 0.00000000000000000000e+00) (0, 0, 0.00000000000000000000e+00) (0, 0, 0.00000000000000000000e+00) (0, 0, 0.00000000000000000000e+00) (0, 0, 0.00000000000000000000e+00) (0, 0, 0.00000000000000000000e+00) (0, 0, 0.00000000000000000000e+00) (401, 5, 5.00000000000000000000e-01) (401, 5, 5.00000000000000000000e-01) (401, 5, 5.00000000000000000000e-01) (401, 5, 5.00000000000000000000e-01) (401, 5, 5.00000000000000000000e-01) (401, 5, 5.00000000000000000000e-01) (401, 5, 5.00000000000000000000e-01) (401, 5, 5.00000000000000000000e-01) (401, 5, 5.00000000000000000000e-01) (401, 5, 5.00000000000000000000e-01) (401, 5, 5.00000000000000000000e-01) (401, 5, 5.00000000000000000000e-01) (401, 5, 5.00000000000000000000e-01) (401, 5, 5.00000000000000000000e-01) (401, 5, 5.00000000000000000000e-01) (401, 5, 5.00000000000000000000e-01) (401, 5, 5.00000000000000000000e-01) (401, 5, 5.00000000000000000000e-01) (401, 5, 5.00000000000000000000e-01) (401, 5, 5.00000000000000000000e-01) (401, 5, 5.00000000000000000000e-01) (401, 5, 5.00000000000000000000e-01) (401, 5, 5.00000000000000000000e-01) (401, 5, 5.00000000000000000000e-01) (401, 5, 5.00000000000000000000e-01) (401, 5, 5.00000000000000000000e-01) (401, 5, 5.00000000000000000000e-01) (401, 5, 5.00000000000000000000e-01) (401, 5, 5.00000000000000000000e-01) (401, 5, 5.00000000000000000000e-01) (401, 5, 5.00000000000000000000e-01) (401, 5, 5.00000000000000000000e-01) (401, 5, 5.00000000000000000000e-01) (401, 5, 5.00000000000000000000e-01) (401, 5, 5.00000000000000000000e-01) (401, 5, 5.00000000000000000000e-01) (401, 5, 5.00000000000000000000e-01) (401, 5, 5.00000000000000000000e-01) (401, 5, 5.00000000000000000000e-01) (401, 5, 5.00000000000000000000e-01) (401, 5, 5.00000000000000000000e-01) (401, 5, 5.00000000000000000000e-01) (401, 5, 5.00000000000000000000e-01) (401, 5, 5.00000000000000000000e-01) (401, 5, 5.00000000000000000000e-01) (401, 5, 5.00000000000000000000e-01) (401, 5, 5.00000000000000000000e-01) (401, 5, 5.00000000000000000000e-01) (401, 5, 5.00000000000000000000e-01) (401, 5, 5.00000000000000000000e-01) (401, 5, 5.00000000000000000000e-01) (401, 5, 5.00000000000000000000e-01) (401, 5, 5.00000000000000000000e-01) (401, 5, 5.00000000000000000000e-01) (401, 5, 5.00000000000000000000e-01) (401, 5, 5.00000000000000000000e-01) (401, 5, 5.00000000000000000000e-01) (401, 5, 5.00000000000000000000e-01) (401, 5, 5.00000000000000000000e-01) (401, 5, 5.00000000000000000000e-01) (401, 5, 5.00000000000000000000e-01) (401, 5, 5.00000000000000000000e-01) (401, 5, 5.00000000000000000000e-01) (401, 5, 5.00000000000000000000e-01) (401, 5, 5.00000000000000000000e-01) (401, 5, 5.00000000000000000000e-01) (401, 5, 5.00000000000000000000e-01) (401, 5, 5.00000000000000000000e-01) (401, 5, 5.00000000000000000000e-01) (401, 5, 5.00000000000000000000e-01) (401, 5, 5.00000000000000000000e-01) (401, 5, 5.00000000000000000000e-01) (401, 5, 5.00000000000000000000e-01) (401, 5, 5.00000000000000000000e-01) (401, 5, 5.00000000000000000000e-01) (401, 5, 5.00000000000000000000e-01) (401, 5, 5.00000000000000000000e-01) (401, 5, 5.00000000000000000000e-01) (401, 5, 5.00000000000000000000e-01) (401, 5, 5.00000000000000000000e-01) (401, 5, 5.00000000000000000000e-01) (401, 5, 5.00000000000000000000e-01) (401, 5, 5.00000000000000000000e-01) (401, 5, 5.00000000000000000000e-01) (401, 5, 5.00000000000000000000e-01) (401, 5, 5.00000000000000000000e-01) (401, 5, 5.00000000000000000000e-01) (401, 5, 5.00000000000000000000e-01) (401, 5, 5.00000000000000000000e-01) (401, 5, 5.00000000000000000000e-01) (401, 5, 5.00000000000000000000e-01) (401, 5, 5.00000000000000000000e-01) (401, 5, 5.00000000000000000000e-01) (401, 5, 5.00000000000000000000e-01) (401, 5, 5.00000000000000000000e-01) (401, 5, 5.00000000000000000000e-01) (401, 5, 5.00000000000000000000e-01) (401, 5, 5.00000000000000000000e-01) (401, 5, 5.00000000000000000000e-01) (401, 5, 5.00000000000000000000e-01) (0, 5, 0.00000000000000000000e+00) (101, 5, 5.00000000000000000000e-01) (101, 5, 5.00000000000000000000e-01) (101, 5, 5.00000000000000000000e-01) (101, 5, 5.00000000000000000000e-01) (0, 5, 0.00000000000000000000e+00) 
connections (connected_to_neuron, weight)=(0, 1.50000000000000000000e+03) (1, 1.50000000000000000000e+03) (2, 1.50000000000000000000e+03) (3, 1.50000000000000000000e+03) (4, 1.50000000000000000000e+03) (5, 1.50000000000000000000e+03) (6, 1.50000000000000000000e+03) (7, 1.50000000000000000000e+03) (8, 1.50000000000000000000e+03) (9, 1.50000000000000000000e+03) (10, 2.05224763815434557701e-01) (11, 1.90695605393562200858e-01) (12, 1.96153695539564798533e-01) (13, 8.50282009135196192862e-02) (14, 1.50000000000000000000e+03) (15, 1.50000000000000000000e+03) (16, 1.50000000000000000000e+03) (17, 1.50000000000000000000e+03) (18, 1.50000000000000000000e+03) (19, 1.50000000000000000000e+03) (20, 1.50000000000000000000e+03) (21, 1.50000000000000000000e+03) (22, 1.50000000000000000000e+03) (23, 3.40619551712626755791e-01) (24, 3.96375163221711457329e-01) (25, -3.32703625011039949566e-01) (26, 9.04925822615985975261e-01) (27, 8.94845378830678939153e-01) (28, 9.76738787548611375744e-02) (29, 4.64423201240901695197e-01) (30, 4.71499427553034200500e-01) (31, 1.92050735508148551212e-01) (32, 3.41273636812267910923e-01) (33, 2.05438777374509107254e-01) (34, 3.88583668857294894927e-01) (35, 1.50000000000000000000e+03) (36, 1.50000000000000000000e+03) (37, 1.50000000000000000000e+03) (38, 1.50000000000000000000e+03) (39, 1.50000000000000000000e+03) (40, 1.50000000000000000000e+03) (41, 1.50000000000000000000e+03) (42, 4.30090988749617764153e-01) (43, 7.90276527686059271360e-01) (44, 1.04428387145603887576e-01) (45, 1.33315111592902879600e-01) (46, 1.23505600330113249341e-01) (47, 9.93494856250280444776e-02) (48, 1.62808387422033351566e-01) (49, 2.21620534369497579341e-01) (50, 7.99727131646672390053e-02) (51, 1.80192728628673110025e-01) (52, -3.16585985318635215746e-02) (53, -1.16806207014725528526e-02) (54, 1.34232522584156604983e-01) (55, 4.85047515932103719127e-03) (56, 7.68311839031147192358e-02) (57, 1.78651134895252243495e-02) (58, 1.50000000000000000000e+03) (59, 1.50000000000000000000e+03) (60, 1.50000000000000000000e+03) (61, 4.45685471171492764153e-01) (62, 5.23328291947001478235e-01) (63, 1.32383819433791294351e-01) (64, 1.29826695371863004569e-01) (65, 1.30577509774122024755e-01) (66, 1.75362955060415388886e-02) (67, 3.75039630359987122277e-02) (68, 1.06395066030884888342e-01) (69, 9.93782219655764825772e-02) (70, 1.08266200767978784669e-01) (71, 5.48399563093263722746e-02) (72, 6.50537098280620368351e-02) (73, 5.33451934063565030852e-02) (74, 6.41233843031457362294e-02) (75, 3.52934633045141540886e-02) (76, -2.00486390235837919072e-01) (77, -2.02787043041336462190e-01) (78, 1.50000000000000000000e+03) (79, 1.50000000000000000000e+03) (80, 1.50000000000000000000e+03) (81, 4.79517253810519517021e-01) (82, -1.44457769136518615616e-01) (83, 1.03736994281874606028e-01) (84, 2.33744477329612287964e-01) (85, 2.28082925535552288876e-01) (86, 3.22183458809504261189e-02) (87, 2.18517477028664260097e-02) (88, 9.31631651475762351255e-02) (89, -3.31562790160217168989e-01) (90, 1.09409991424287575401e-01) (91, 1.47920249787107688233e-01) (92, 1.69620037698588466135e-01) (93, 4.33638398956383702698e-02) (94, -4.20424155559817103178e-01) (95, 1.04592430941420944102e+00) (96, 1.67185261957106090502e-01) (97, 1.50000000000000000000e+03) (98, 1.50000000000000000000e+03) (99, 1.50000000000000000000e+03) (100, 1.50000000000000000000e+03) (101, 4.16248212331885525384e-01) (102, 8.25110179456196135561e-01) (103, 1.25587426038345051360e-01) (104, 2.07068421662952306672e-01) (105, 2.75796710296260794149e-01) (106, -8.23992939179225419855e-02) (107, -2.83235336938137682861e-01) (108, -2.51658278919819566877e-01) (109, 7.25870089418706315731e-02) (110, 3.39777150422479606862e-02) (111, 2.75848885114244254946e-02) (112, 7.32055408652678707426e-02) (113, 2.24638129676659414891e-01) (114, 3.52091841640092495513e-01) (115, 2.65255313754473476262e-01) (116, 4.35337777190046182341e+01) (117, 1.50000000000000000000e+03) (118, 1.50000000000000000000e+03) (119, 1.50000000000000000000e+03) (120, 1.50000000000000000000e+03) (121, 4.52454264039153286614e-01) (122, -1.70925063985777692110e+00) (123, 1.81281430664345100112e-01) (124, -2.14700959888135867182e-01) (125, -1.93058888002822726104e-01) (126, -1.47122318891085707149e-01) (127, -3.88203636918448613535e-01) (128, -4.43024129894231510907e-01) (129, -3.17931108255531613693e-01) (130, -2.70407327677381417730e-02) (131, 3.66722027690811122613e-02) (132, 1.43758805234318803867e-01) (133, 2.49852287175263587660e-01) (134, 1.23961188923888210311e+00) (135, 7.44827046937522552206e-01) (136, 1.54800926574577180084e+00) (137, 1.50000000000000000000e+03) (138, 1.50000000000000000000e+03) (139, 1.50000000000000000000e+03) (140, 1.50000000000000000000e+03) (141, 3.63733562404269517021e-01) (142, 1.53389278575709220309e-01) (143, 1.18447314363076296184e-02) (144, -3.10758317725930266473e-01) (145, -2.23355098229282317268e-01) (146, -2.69254737514669384435e-01) (147, -3.14925841526205785303e-01) (148, -2.98572292679945117122e-01) (149, -1.67189393644898903757e-01) (150, 1.13673556577110604349e-01) (151, 1.10115179446762051496e-01) (152, 1.40096846037552097419e-01) (153, 4.03488824567507897711e-01) (154, -9.16094173696348934577e-01) (155, -1.12244217388878020358e-01) (156, 6.37267319388976405392e-01) (157, 1.50000000000000000000e+03) (158, 1.50000000000000000000e+03) (159, 1.50000000000000000000e+03) (160, 1.50000000000000000000e+03) (161, 3.59424481863135636406e-01) (162, 6.98167620240667252673e-02) (163, -3.14176607852154510248e-01) (164, -3.81106403297454821022e-01) (165, -3.24408839587375985580e-01) (166, -3.55246626360256223531e-01) (167, -3.27931313710514649173e-01) (168, -1.74562573655296371378e-01) (169, -1.87846844421771019817e-01) (170, 9.59925351109408020456e-02) (171, 1.78899867254814548545e-01) (172, -2.15950724435565732939e-02) (173, 2.96473936175173202745e-01) (174, 2.55142057944914457668e-01) (175, 6.78356933232903552833e-02) (176, 6.01085683234324763546e-01) (177, 1.50000000000000000000e+03) (178, 1.50000000000000000000e+03) (179, 1.50000000000000000000e+03) (180, 1.50000000000000000000e+03) (181, 1.50000000000000000000e+03) (182, 9.09714866168565838844e-02) (183, -2.65191486925895836269e-01) (184, -1.75703648503878290255e-01) (185, -1.03694424892140951711e-01) (186, -2.98118990418330842562e-01) (187, 8.78681389396228501587e-02) (188, 4.27682619653277917848e-02) (189, 8.39747087804585540249e-02) (190, 1.47000956304140617537e-01) (191, 6.84007653075889843208e-02) (192, 3.37432335868403238122e-02) (193, 9.24523013494331497020e-02) (194, 1.28836931137944338266e-01) (195, -1.69718432558082471528e-01) (196, -2.08444695530767998282e-01) (197, -3.44296222433435472610e+00) (198, 3.57136723520380616748e-01) (199, 1.50000000000000000000e+03) (200, 1.50000000000000000000e+03) (201, 1.50000000000000000000e+03) (202, -2.35632724466587922807e-01) (203, -1.27222874193712476298e-01) (204, -7.64937449963301457911e-02) (205, -1.94106774662034908818e-01) (206, 1.68171343379325044509e-01) (207, -1.98671055430778759066e-01) (208, 1.20373085196030668587e-01) (209, 1.65797811100669868073e-03) (210, -6.65663314692721119065e-03) (211, 5.14671231122088915222e-02) (212, 1.09531842441846286040e-01) (213, 6.49403304182342988593e-02) (214, 7.69078137704931868307e-03) (215, -1.70883301725050340547e-01) (216, -3.29135899417295818559e-01) (217, 1.50000000000000000000e+03) (218, 1.50000000000000000000e+03) (219, 1.50000000000000000000e+03) (220, 1.50000000000000000000e+03) (221, 5.26594983827241347463e-01) (222, -1.22736318810354863573e-01) (223, -1.67428285594147685522e-01) (224, -2.67623447372937972588e-01) (225, -2.73541978691322240635e-01) (226, -1.76523167166591055111e-01) (227, 1.19452014474215328921e-01) (228, -1.68047245244233103834e-02) (229, 5.15139857448489099645e-02) (230, 1.29358404284599437517e-01) (231, -2.40795419170571955991e-01) (232, 1.33146827937287548504e-01) (233, -1.79424452759161828785e-01) (234, -2.07388251139967089154e-01) (235, 9.98842582218429225760e-02) (236, -5.57688530076711708183e-01) (237, 1.50000000000000000000e+03) (238, 1.50000000000000000000e+03) (239, 1.50000000000000000000e+03) (240, 1.50000000000000000000e+03) (241, 1.50000000000000000000e+03) (242, -8.57711289332443727051e-02) (243, -8.50546585234813051768e-02) (244, -2.60336768923263517372e-01) (245, -3.65660599362987226435e-01) (246, -1.81152237164639573486e-01) (247, -2.65707744366292075711e-01) (248, -3.48359504607991421476e-01) (249, -2.26350889959767154203e-01) (250, -3.58196604252601524809e-01) (251, -7.25096311862814812965e-02) (252, -1.82548685450096809246e-01) (253, -1.28367326258173444558e-04) (254, 2.14118127888362180800e-01) (255, 1.01273415326704571693e-01) (256, -2.26565888987232122442e-02) (257, 1.50000000000000000000e+03) (258, 1.50000000000000000000e+03) (259, 1.50000000000000000000e+03) (260, 1.50000000000000000000e+03) (261, 1.50000000000000000000e+03) (262, -6.18076491168480235405e-03) (263, -3.37015334542228817138e-01) (264, -2.32042340237288979843e-01) (265, 6.55878621732060296257e-02) (266, -2.85745697688249089552e-01) (267, -2.26367590877842722596e-01) (268, 5.46193116979533585531e-02) (269, -2.44387408380888765391e-01) (270, -1.76690735461318193522e-01) (271, -2.39221168854612337151e-01) (272, -2.08612936939899296096e-01) (273, 4.22589422890577506853e-02) (274, 9.94739813196268557460e-02) (275, 5.94636901322337374509e-02) (276, -1.97630967241694543990e-01) (277, 2.80049321176630616748e-01) (278, 1.50000000000000000000e+03) (279, 1.50000000000000000000e+03) (280, 1.50000000000000000000e+03) (281, 1.50000000000000000000e+03) (282, -2.45842466537881110256e-01) (283, -1.48446230743023488419e-01) (284, -2.49498242894293231764e-01) (285, -2.16262465705900547297e-01) (286, -1.17674696984813753620e-01) (287, -2.41803178302699983693e-01) (288, 5.66723522416035796478e-02) (289, -2.29657201066982119553e-01) (290, -7.00694445449176889218e-02) (291, -1.76760771071748090666e-01) (292, 8.97682687956938424323e-02) (293, 1.51987695302073749608e-03) (294, 2.63196027420638745120e-01) (295, -2.98663905935200608283e-03) (296, 6.42636480558430256416e-01) (297, 3.44447520496470094287e-01) (298, 3.15358162792545915210e-01) (299, 1.50000000000000000000e+03) (300, 1.50000000000000000000e+03) (301, 1.50000000000000000000e+03) (302, 1.50000000000000000000e+03) (303, -2.77661063774331196008e-01) (304, 1.06191229747166174247e-01) (305, -2.53307297797574718784e-03) (306, 4.07863399213739888371e-02) (307, 2.79744813847222328906e-01) (308, 1.59572759470185482344e-01) (309, 5.43082335332064902733e-02) (310, 1.38773404100042269116e-01) (311, 1.50613990416261205735e-03) (312, 2.38217235787666452296e-02) (313, 2.04857923589898405226e-02) (314, 1.65234027882627143580e-01) (315, 1.83193975901600025757e-01) (316, 4.74709498441288901827e-01) (317, 3.92378424229246736132e-01) (318, 2.87751962365728974902e-01) (319, 1.50000000000000000000e+03) (320, 1.50000000000000000000e+03) (321, 1.50000000000000000000e+03) (322, 1.50000000000000000000e+03) (323, 4.26132355007426577576e-01) (324, 5.65660985726831357090e-03) (325, 2.38224893303769696962e-01) (326, 2.26457623087743559198e-01) (327, 3.57110257523797047785e-01) (328, 1.20507036773576173272e-01) (329, 2.32147865451686169491e-01) (330, 6.06043301283036225935e-02) (331, 8.96912443611646015285e-02) (332, 1.18048361811234348018e-01) (333, 1.33771566735529021108e-02) (334, 2.68846673978419659079e-01) (335, 1.03115833723443753311e-01) (336, -5.74517641541925569437e-02) (337, 4.54347421350104030413e-01) (338, 1.50000000000000000000e+03) (339, 1.50000000000000000000e+03) (340, 1.50000000000000000000e+03) (341, 1.50000000000000000000e+03) (342, 1.50000000000000000000e+03) (343, -3.07122123878438124667e-01) (344, 2.86219016024818806443e-01) (345, -2.10169512976169821361e-02) (346, 3.01180501152145729815e-01) (347, 1.88632032458278309228e-01) (348, 3.43134650690509912518e-01) (349, 3.00576722175363630907e-01) (350, 3.67418399161488912208e-02) (351, 7.62760792417853383807e-02) (352, 3.17148194914242675946e-01) (353, 1.74745336073087537132e-01) (354, 3.30145816565045657764e-01) (355, 3.66317581843247475071e-01) (356, 2.37990159687273949984e+00) (357, 1.26913061854360442737e+00) (358, 1.16190447036012045601e+00) (359, 1.50000000000000000000e+03) (360, 1.50000000000000000000e+03) (361, 1.50000000000000000000e+03) (362, 1.50000000000000000000e+03) (363, 1.50000000000000000000e+03) (364, 6.62863950426309966879e-01) (365, 6.27822647990676996343e-01) (366, 1.43893087303516825637e-01) (367, 1.31405455283099908970e-01) (368, 1.87390990064221607536e-01) (369, 2.32075947960904499512e-01) (370, 4.21212917078166215745e-01) (371, -4.26249385712083317390e-02) (372, 5.81404001324141023188e-02) (373, 1.50232816345030550931e-01) (374, -2.20076302264303691469e-01) (375, 1.52250079929735782081e+00) (376, 1.19942916719218817256e+00) (377, 4.84207146338322125256e-01) (378, 1.50000000000000000000e+03) (379, 1.50000000000000000000e+03) (380, 1.50000000000000000000e+03) (381, 1.50000000000000000000e+03) (382, 1.50000000000000000000e+03) (383, 1.50000000000000000000e+03) (384, 8.92585079596011965464e-01) (385, 9.35096065924136854441e-01) (386, 2.44022094380829246418e+00) (387, 2.32227659893009574787e+00) (388, 3.32092084292998013240e+00) (389, -2.33215835670923882228e-01) (390, 1.09319472686626659175e-01) (391, 3.81775608096466601005e-01) (392, 4.51483975250279667701e-01) (393, -7.39704585142551551691e-01) (394, 1.50000000000000000000e+03) (395, 1.50000000000000000000e+03) (396, 1.50000000000000000000e+03) (397, 1.50000000000000000000e+03) (398, 1.50000000000000000000e+03) (399, 1.50000000000000000000e+03) (400, 1.16148597531476160949e-01) (0, 1.50000000000000000000e+03) (1, 1.50000000000000000000e+03) (2, 1.50000000000000000000e+03) (3, 1.50000000000000000000e+03) (4, 1.50000000000000000000e+03) (5, 1.50000000000000000000e+03) (6, 1.50000000000000000000e+03) (7, 1.50000000000000000000e+03) (8, 1.50000000000000000000e+03) (9, 1.50000000000000000000e+03) (10, 4.33411810051643475727e-01) (11, 2.51182259252678063977e-01) (12, 3.15469041591501242472e-01) (13, 7.44810632401283090331e-01) (14, 1.50000000000000000000e+03) (15, 1.50000000000000000000e+03) (16, 1.50000000000000000000e+03) (17, 1.50000000000000000000e+03) (18, 1.50000000000000000000e+03) (19, 1.50000000000000000000e+03) (20, 1.50000000000000000000e+03) (21, 1.50000000000000000000e+03) (22, 1.50000000000000000000e+03) (23, -1.12796650537262968528e-01) (24, 2.76147301411522640147e-02) (25, 3.14190427486119416844e-01) (26, 9.23315494914736634158e-01) (27, 4.10081871503006512025e-01) (28, 4.31388425598869473809e-01) (29, 4.35750502558389152252e-01) (30, 3.11208339385521337572e-01) (31, 2.88442153429913528129e-01) (32, 3.35523339079409010921e-01) (33, 3.58371910938801496727e-01) (34, 3.03941996912211642723e+00) (35, 1.50000000000000000000e+03) (36, 1.50000000000000000000e+03) (37, 1.50000000000000000000e+03) (38, 1.50000000000000000000e+03) (39, 1.50000000000000000000e+03) (40, 1.50000000000000000000e+03) (41, 1.50000000000000000000e+03) (42, -4.31555409813033016841e-02) (43, 8.92131286902556053242e-01) (44, 3.42524251068485219296e-01) (45, 1.89395755830884304771e-01) (46, 3.64660807332111147616e-01) (47, 2.91961315284985423180e-01) (48, 3.87533827337664948942e-01) (49, 2.08534066192908124071e-01) (50, 2.57480424974161958840e-01) (51, 2.32642410916290204304e-01) (52, 4.89280000825797700692e-01) (53, 3.74161087276480730512e-01) (54, 2.79532428320460824001e-01) (55, 1.18790427978079726756e+00) (56, 1.36272374065315160507e+00) (57, 1.39700540462708056033e+00) (58, 1.50000000000000000000e+03) (59, 1.50000000000000000000e+03) (60, 1.50000000000000000000e+03) (61, -1.39194359340678419645e-01) (62, -1.43942890026580061491e-01) (63, 1.72319161255033503899e+00) (64, 4.27278587109775676023e-01) (65, 3.31369414042288257249e-01) (66, 2.96530742024804561119e-01) (67, 4.51320314116034071450e-01) (68, 3.33030803115422491256e-01) (69, 4.07731008350742718527e-01) (70, 2.65193930735795668774e-01) (71, 3.65678706298936562202e-01) (72, 5.00150333853964568220e-01) (73, 3.13674198223758304849e-01) (74, 1.74935354349602972812e-01) (75, 2.97948728156197217842e-01) (76, 7.98979839269284175529e-01) (77, 8.47416546508162560336e-01) (78, 1.50000000000000000000e+03) (79, 1.50000000000000000000e+03) (80, 1.50000000000000000000e+03) (81, -3.51930902243719227404e-03) (82, -3.97476314957660836757e-01) (83, 3.19731147906056223373e-01) (84, 4.28539700574427195878e-01) (85, 3.22238382400957090734e-01) (86, 3.24191288403601896029e-01) (87, 4.20341694221483597182e-01) (88, 4.13575470687490676092e-01) (89, 2.65848879590158626574e-01) (90, 3.24827925690418017890e-01) (91, 3.95771396487280935350e-01) (92, 4.63759365345767060607e-01) (93, 2.78373609964086055069e-01) (94, 2.56285909160651581562e-01) (95, 2.84472787827373785330e-01) (96, 6.31759683680648165272e-01) (97, 1.50000000000000000000e+03) (98, 1.50000000000000000000e+03) (99, 1.50000000000000000000e+03) (100, 1.50000000000000000000e+03) (101, -7.64807362938032947453e-02) (102, 6.01410647435168921326e-01) (103, 4.51187639306328047706e-01) (104, 2.24065713730127669123e+00) (105, 3.64293679656813973455e-01) (106, 3.05576434899761439912e-01) (107, 2.68320156809290055744e-01) (108, 3.99970379683467769372e-01) (109, 3.92827851544583994681e-01) (110, 4.46890256313479061756e-01) (111, 3.39277883721245399062e-01) (112, 3.67737658386781463005e-01) (113, 2.76044744870286573590e-01) (114, 3.62021777092525753883e-01) (115, 4.33427421953354929940e-01) (116, 6.69095769796673622842e-01) (117, 1.50000000000000000000e+03) (118, 1.50000000000000000000e+03) (119, 1.50000000000000000000e+03) (120, 1.50000000000000000000e+03) (121, -8.86511404895887616950e-02) (122, 1.94694841373980992438e-01) (123, 3.49061242613737943152e-01) (124, 2.93379786970647593591e-01) (125, 3.01192031469994070392e-01) (126, 2.67473098742166959241e-01) (127, 3.38759937346135797664e-01) (128, 3.89384104611699588538e-01) (129, 3.92077972521649109616e-01) (130, 4.24285098264579274563e-01) (131, 4.36665398735388232687e-01) (132, 3.01546728422977361461e-01) (133, 2.49728605446224466435e-01) (134, 4.24623513836734800542e-01) (135, 3.05995231847862536601e-01) (136, 3.62106157225877300920e-01) (137, 1.50000000000000000000e+03) (138, 1.50000000000000000000e+03) (139, 1.50000000000000000000e+03) (140, 1.50000000000000000000e+03) (141, -6.77038778448210559757e-02) (142, 4.44388593891461902707e-01) (143, 3.51396003645683796535e-01) (144, 3.54880117895408353501e-01) (145, 2.88334356948683534494e-01) (146, 2.76608718181635959699e-01) (147, 3.59145555043136222029e-01) (148, 3.87737060518212106608e-01) (149, 3.64156924300848505727e-01) (150, 2.68336297476158447406e-01) (151, 2.69386079624999053017e-01) (152, 4.60484906278662953216e-01) (153, 4.12538857978761774881e-01) (154, 4.07467040785410572479e-01) (155, 3.21322698818601093507e-01) (156, 2.75050555916747485607e-01) (157, 1.50000000000000000000e+03) (158, 1.50000000000000000000e+03) (159, 1.50000000000000000000e+03) (160, 1.50000000000000000000e+03) (161, -7.59985570693121753605e-02) (162, 3.16991162401379700242e-01) (163, 2.98921769626438960099e-01) (164, 2.59793141052085785336e-01) (165, 2.85735340637203349967e-01) (166, 3.94703076324403434594e-01) (167, 2.49725304162923211759e-01) (168, 4.47269846488148936636e-01) (169, 4.16530208188558459526e-01) (170, 2.39193726794750982645e-01) (171, 4.18978739107980835410e-01) (172, 3.93066250765961355818e-01) (173, 3.72874965403666713826e-01) (174, 4.37752033123981254548e-01) (175, 2.46959711903189632620e-01) (176, 3.79896757753810321301e-01) (177, 1.50000000000000000000e+03) (178, 1.50000000000000000000e+03) (179, 1.50000000000000000000e+03) (180, 1.50000000000000000000e+03) (181, 1.50000000000000000000e+03) (182, 3.55763540454089033371e-01) (183, 4.30465944975077563495e-01) (184, 3.98644469022225833577e-01) (185, 4.30540703946290514992e-01) (186, 4.45071062454290622412e-01) (187, 4.57344060138981600705e-01) (188, 4.60981789566268340685e-01) (189, 4.26547202618184795320e-01) (190, 2.25694803669608229368e-01) (191, 2.63869423271017422561e-01) (192, 4.58211054840326093007e-01) (193, 3.21525931074751136762e-01) (194, 4.25768424308133774936e-01) (195, 3.18083362863405605392e-01) (196, 5.32007213522191935162e-01) (197, -1.17108578166883403604e+00) (198, 7.20847774242546535106e-01) (199, 1.50000000000000000000e+03) (200, 1.50000000000000000000e+03) (201, 1.50000000000000000000e+03) (202, 2.82604623029447998839e-01) (203, 2.88918839368730917538e-01) (204, 2.79179641307750359136e-01) (205, 3.62115795660590378269e-01) (206, 3.03459980574257548458e-01) (207, 3.27814290386253315290e-01) (208, 4.11568264382024262549e-01) (209, 3.11639553202377628249e-01) (210, 3.52269611010603833634e-01) (211, 3.43653819188984077648e-01) (212, 2.93619081427896888581e-01) (213, 3.94592099917395688902e-01) (214, 4.98687931409212525935e-01) (215, 4.35528486573690809536e-01) (216, 6.06149322924651734468e-01) (217, 1.50000000000000000000e+03) (218, 1.50000000000000000000e+03) (219, 1.50000000000000000000e+03) (220, 1.50000000000000000000e+03) (221, 4.50402164388578329923e-01) (222, 2.56817624004679612160e-01) (223, 3.26652234326286428079e-01) (224, 3.73865943404589562427e-01) (225, 4.19428091333860775247e-01) (226, 2.38029555237401907464e-01) (227, 3.61283142146751390378e-01) (228, 2.84798002340172162761e-01) (229, 3.53917720147741976522e-01) (230, 4.05922279807175101496e-01) (231, 4.00097755750611516756e-01) (232, 2.83381463409205613946e-01) (233, 3.75477213458502823151e-01) (234, 4.48721464153563731614e-01) (235, 2.80700132751646846963e-01) (236, 5.70165714822887137458e-01) (237, 1.50000000000000000000e+03) (238, 1.50000000000000000000e+03) (239, 1.50000000000000000000e+03) (240, 1.50000000000000000000e+03) (241, 1.50000000000000000000e+03) (242, 3.24139448628418314069e-01) (243, 2.19425315945088461600e-01) (244, 3.89197395513729005323e-01) (245, 2.86235784717737973271e-01) (246, 1.00608101942998162670e+00) (247, 2.33362086577022842526e-01) (248, 3.39978140922647442679e-01) (249, 1.78448017928728053239e-01) (250, 2.61741924648750456939e-01) (251, 3.68184661681644487263e-01) (252, 4.55083592902423283988e-01) (253, 4.14090174207657424343e-01) (254, 4.29302046383084390246e-01) (255, 2.25823731631885793458e-01) (256, 2.87570100318131793848e-01) (257, 1.50000000000000000000e+03) (258, 1.50000000000000000000e+03) (259, 1.50000000000000000000e+03) (260, 1.50000000000000000000e+03) (261, 1.50000000000000000000e+03) (262, 3.47647209604120432935e-01) (263, 1.24936375240054964308e-01) (264, 3.77495705341521436971e-01) (265, 2.93330709916271026305e-01) (266, -1.26369764665706652007e-01) (267, 4.84237846824228726494e-02) (268, 4.08903306400619004357e-01) (269, 2.49344991985949893110e-01) (270, 3.88659197913795106949e-01) (271, 4.73673357126108585113e-01) (272, 4.30846299906557428372e-01) (273, 3.32870563343385439392e-01) (274, 4.10791602697244628839e-01) (275, 3.70323821895441329666e-01) (276, 2.28403443974539488437e-01) (277, 7.14463505839493251415e-01) (278, 1.50000000000000000000e+03) (279, 1.50000000000000000000e+03) (280, 1.50000000000000000000e+03) (281, 1.50000000000000000000e+03) (282, 5.74341148513150656640e-01) (283, 4.62816019377110587918e-01) (284, 1.80945969690470831459e-01) (285, 2.19672753702061268610e-01) (286, 2.07862980246182993405e-01) (287, 2.56086694222106725505e-01) (288, 3.74853652363752287702e-01) (289, 3.37773713362209737632e-01) (290, 4.52137973633818079922e-01) (291, 4.46899731507508946038e-01) (292, 2.94624327999035262593e-01) (293, 2.45274536902583301101e-01) (294, 2.84607643796525422442e-01) (295, 2.44726457387400481158e-01) (296, 2.71442938629617991353e-01) (297, 7.71793831085350490184e-01) (298, 7.10380244945671535106e-01) (299, 1.50000000000000000000e+03) (300, 1.50000000000000000000e+03) (301, 1.50000000000000000000e+03) (302, 1.50000000000000000000e+03) (303, 1.76360452107572590608e-01) (304, 3.69955406770483219425e-01) (305, 3.93288940730475544694e-01) (306, 2.30574064856891081110e-01) (307, 2.49304269229446068268e-01) (308, 3.34572175548207118023e-01) (309, 4.05939591559299317591e-01) (310, 2.42098865616935693401e-01) (311, 3.12426629095511276812e-01) (312, 3.34805053105485916909e-01) (313, 2.50767413712326137087e-01) (314, 4.51198140161206517895e-01) (315, 8.47170970086101732255e-02) (316, 3.15798195790791436099e-01) (317, 7.38230589722778773876e-01) (318, 6.40299681519653551831e-01) (319, 1.50000000000000000000e+03) (320, 1.50000000000000000000e+03) (321, 1.50000000000000000000e+03) (322, 1.50000000000000000000e+03) (323, 3.19839310206195437392e-01) (324, 2.60427701487611906739e-01) (325, 4.19684817203989812828e-01) (326, 3.19527986424895105166e-01) (327, 4.28775104506807946958e-01) (328, 3.79707653865979988250e-01) (329, 3.56114541358633795998e-01) (330, 4.10744568128002585095e-01) (331, 3.67243013195077572242e-01) (332, 3.41369775311496981285e-01) (333, 2.92386918381820681834e-01) (334, 3.75321709595100305723e-01) (335, 2.88657949047064155135e-01) (336, 5.03565054947291645959e-01) (337, 6.62467654740002021008e-01) (338, 1.50000000000000000000e+03) (339, 1.50000000000000000000e+03) (340, 1.50000000000000000000e+03) (341, 1.50000000000000000000e+03) (342, 1.50000000000000000000e+03) (343, 3.09866034968267034522e-01) (344, 2.76146394993743049540e-01) (345, 2.68198998667802501750e-01) (346, 5.66403574720383162777e-01) (347, 4.43428346523124961021e-01) (348, 3.95069750868343783079e-01) (349, 3.39121463808844780807e-01) (350, 3.21393151227985285345e-01) (351, 2.97651135095179653067e-01) (352, 3.04785413445421593526e-01) (353, 3.72992932431562951301e-01) (354, 2.46603444183453923699e-01) (355, 4.32397787047735404631e-01) (356, 1.93362892095244903734e-01) (357, 5.31110264367861129031e-01) (358, 4.02565065806269106741e-01) (359, 1.50000000000000000000e+03) (360, 1.50000000000000000000e+03) (361, 1.50000000000000000000e+03) (362, 1.50000000000000000000e+03) (363, 1.50000000000000000000e+03) (364, 4.63873671981678115106e-01) (365, 4.96920507721443971416e-01) (366, 4.57570705509440622816e-01) (367, 3.94838939678626710261e-01) (368, 4.01368929992884482250e-01) (369, 3.02734143171012604068e-01) (370, 5.24938329316154361770e-01) (371, 4.05093059938429533862e-01) (372, 4.67101469481159492503e-01) (373, 4.23595060303363191156e-01) (374, 4.65653735035323701474e-01) (375, 9.29443220785915125148e-01) (376, 5.18388587265604439125e-01) (377, 4.63702158844757517109e-01) (378, 1.50000000000000000000e+03) (379, 1.50000000000000000000e+03) (380, 1.50000000000000000000e+03) (381, 1.50000000000000000000e+03) (382, 1.50000000000000000000e+03) (383, 1.50000000000000000000e+03) (384, 4.05124086156629814592e-01) (385, 4.72818176463388695208e-01) (386, 3.62828622047985382970e-01) (387, 4.00877947394932099279e-01) (388, 4.65429873234886104516e-01) (389, 2.24075924100358397917e-01) (390, 5.65945309179788358378e-01) (391, 4.93995773561714590638e-01) (392, -2.58450232070772611959e-01) (393, 9.86057215117362162449e-02) (394, 1.50000000000000000000e+03) (395, 1.50000000000000000000e+03) (396, 1.50000000000000000000e+03) (397, 1.50000000000000000000e+03) (398, 1.50000000000000000000e+03) (399, 1.50000000000000000000e+03) (400, 4.30572634076080373866e-01) (0, 1.50000000000000000000e+03) (1, 1.50000000000000000000e+03) (2, 1.50000000000000000000e+03) (3, 1.50000000000000000000e+03) (4, 1.50000000000000000000e+03) (5, 1.50000000000000000000e+03) (6, 1.50000000000000000000e+03) (7, 1.50000000000000000000e+03) (8, 1.50000000000000000000e+03) (9, 1.50000000000000000000e+03) (10, 3.23393423800093560150e-01) (11, 1.21542963331644826575e+00) (12, 3.47820829484016336153e+00) (13, 5.42911535640312248319e+00) (14, 1.50000000000000000000e+03) (15, 1.50000000000000000000e+03) (16, 1.50000000000000000000e+03) (17, 1.50000000000000000000e+03) (18, 1.50000000000000000000e+03) (19, 1.50000000000000000000e+03) (20, 1.50000000000000000000e+03) (21, 1.50000000000000000000e+03) (22, 1.50000000000000000000e+03) (23, 8.99159104065069270106e-02) (24, 1.46477186723149604974e-01) (25, 1.24311339301181944528e+00) (26, 7.09677047881920586292e+00) (27, 1.79354767327547759415e+00) (28, 1.43582285297309697469e+00) (29, 2.22589610681068250653e-01) (30, -1.67469650710992579157e+00) (31, 4.85014571538558425523e-01) (32, 3.82867365405913318011e-01) (33, 4.03613528291812739823e-01) (34, 2.51979435572153853684e+00) (35, 1.50000000000000000000e+03) (36, 1.50000000000000000000e+03) (37, 1.50000000000000000000e+03) (38, 1.50000000000000000000e+03) (39, 1.50000000000000000000e+03) (40, 1.50000000000000000000e+03) (41, 1.50000000000000000000e+03) (42, 2.05522605820096293527e-01) (43, 3.91866926771878454350e-01) (44, 1.58176117165403889997e-01) (45, -5.25295653154883357416e-01) (46, 2.89822200798762252827e-01) (47, 8.54234957382910969903e-02) (48, 1.55459791790075546603e-01) (49, 2.62504211446210888870e-01) (50, 2.45507357091260786097e-01) (51, 4.10565107753042668470e-01) (52, 3.36794214227949251228e-01) (53, 4.33009588928023880783e-01) (54, -1.67424839320066076720e-01) (55, 1.22704572597639005593e-01) (56, 8.03085573625841875334e-01) (57, 1.21892828313876955271e+00) (58, 1.50000000000000000000e+03) (59, 1.50000000000000000000e+03) (60, 1.50000000000000000000e+03) (61, 1.47264549179471321283e-01) (62, 1.33086079402364138025e-01) (63, 7.78183960084321890704e-01) (64, 4.90200320499844355293e-01) (65, 5.74514007051982078522e-01) (66, 6.92829754535084663125e-01) (67, 4.36106553699420362857e-01) (68, 4.87862473212495803554e-02) (69, -5.81663282352538946185e-01) (70, 6.79494566903547148051e-01) (71, 4.06310955439709686754e-01) (72, 3.67492492286767669096e-01) (73, 9.66702164718141465638e-02) (74, 1.97637016250887453950e+00) (75, 4.77558445097089390163e-01) (76, 2.54576499783713050551e-01) (77, 8.92891552828404488906e-01) (78, 1.50000000000000000000e+03) (79, 1.50000000000000000000e+03) (80, 1.50000000000000000000e+03) (81, 5.64442329541810366988e-02) (82, 9.39132987699741877963e-02) (83, 3.30930829085846978099e-01) (84, 4.43665235364774812599e-01) (85, 5.48248964434064123274e-01) (86, 1.69122967966364168291e-01) (87, 9.69729016680988264998e-02) (88, 4.08857195799891159904e-01) (89, 2.82463039771323531912e-01) (90, 1.19585260864611697684e+00) (91, 1.17427307198931152321e+00) (92, 7.84243662921417894474e-01) (93, 7.14337738957853574107e-01) (94, -1.50682371627091360455e-01) (95, 7.40209637226480698935e-01) (96, 1.52939738307361272618e+00) (97, 1.50000000000000000000e+03) (98, 1.50000000000000000000e+03) (99, 1.50000000000000000000e+03) (100, 1.50000000000000000000e+03) (101, 5.21839723424085133452e-02) (102, 2.02114802323209330481e+00) (103, 3.83089529631848113578e-01) (104, -8.65591192055482350209e-02) (105, -2.58728707499656374047e-01) (106, 1.01329926507429876614e-01) (107, -1.04809162878325118351e-01) (108, 3.43229324581106720604e-01) (109, 3.58750575050010900302e-01) (110, 1.08413063786928365317e+00) (111, 1.25153363800635331060e+00) (112, 9.49657441413907177363e-01) (113, 8.11531717648424466560e-01) (114, -1.23013551428885103967e+00) (115, 1.13461912088060579151e+00) (116, 1.32171935310852539658e+00) (117, 1.50000000000000000000e+03) (118, 1.50000000000000000000e+03) (119, 1.50000000000000000000e+03) (120, 1.50000000000000000000e+03) (121, 1.77723557190068784384e-02) (122, 3.47348667911537567488e-01) (123, -3.72491611503610930978e-01) (124, 1.82906456092026825644e-01) (125, -9.85403557170295596457e-01) (126, -4.09634052094019818213e-01) (127, 1.87908621743607340271e-01) (128, 3.93673598355931686488e-01) (129, 1.57109417068503964821e+00) (130, 1.07109732146186420465e+00) (131, 1.38232738507967090058e+00) (132, 1.18834946628308735228e+00) (133, 7.16873384504810307050e-01) (134, 6.11543620849500313419e-01) (135, 6.19006098559863437991e-01) (136, 1.12023117943554861853e+01) (137, 1.50000000000000000000e+03) (138, 1.50000000000000000000e+03) (139, 1.50000000000000000000e+03) (140, 1.50000000000000000000e+03) (141, 6.42384194270737979293e-02) (142, -8.51926865189988835603e-01) (143, -4.23158580818029594894e+00) (144, 2.19204044346238247076e-01) (145, -1.33587049606379260069e+00) (146, -3.13754944149040870816e-01) (147, -2.10277725961821398970e-01) (148, 3.25704292382277937890e-01) (149, 9.80609300308084796960e-01) (150, 7.68307628990196000984e-01) (151, 2.19735684050291646408e-01) (152, 7.41288047190886034699e-01) (153, 9.94208769627884403342e-01) (154, 9.99859774867428163780e-01) (155, 7.30087487479967878201e-01) (156, 7.26066513420934978029e-01) (157, 1.50000000000000000000e+03) (158, 1.50000000000000000000e+03) (159, 1.50000000000000000000e+03) (160, 1.50000000000000000000e+03) (161, 1.63420552058614054758e-01) (162, -7.11636519211051032929e-02) (163, -1.94602345333333448529e+00) (164, -3.90032600242887772524e+00) (165, -6.23157527484190398859e-01) (166, -1.30984893498258503364e+00) (167, 3.39197853970068519125e-01) (168, 1.07285227504177660407e+00) (169, 7.67376352757870527910e-01) (170, 5.75923978034326933262e-01) (171, 1.02969829658268263728e+00) (172, 8.75333760056644316627e-01) (173, -9.53152323899883191505e-02) (174, 5.36463119739789440210e-01) (175, 5.90721539838389819721e-01) (176, 7.49906836511488261721e-01) (177, 1.50000000000000000000e+03) (178, 1.50000000000000000000e+03) (179, 1.50000000000000000000e+03) (180, 1.50000000000000000000e+03) (181, 1.50000000000000000000e+03) (182, -3.50181010953007743058e-01) (183, -5.48852184168571444189e+00) (184, -4.82883899978403308140e-01) (185, -1.11797755061717940528e+00) (186, -1.34496994236370515097e+00) (187, 4.07202986637227315470e-01) (188, 4.52936423196882986808e-01) (189, 4.70826044144040556372e-01) (190, 5.42638251660913284447e-01) (191, 4.47358904027477410903e-01) (192, 6.98581984012975998333e-01) (193, 1.19738886516099829471e+00) (194, 6.48904763158829278602e-01) (195, 9.01196193931549510703e-02) (196, -1.85327077624627301056e-01) (197, -9.24434561264219745169e+00) (198, -5.21518263610440957478e-01) (199, 1.50000000000000000000e+03) (200, 1.50000000000000000000e+03) (201, 1.50000000000000000000e+03) (202, 1.37367509862414802768e+01) (203, 3.19139126810509798915e+00) (204, 3.00178231937767103776e-01) (205, -6.09131280537969832523e-01) (206, -1.43406541198227821532e+00) (207, 1.45500194190828158192e-01) (208, -6.40858986390703821989e-01) (209, -2.68596505015277764450e-01) (210, -3.88029674727784004706e-02) (211, 9.71769218014758295876e-02) (212, -5.31803831719096092856e-02) (213, 2.66668949982698355594e-01) (214, 5.69670129244671308300e-01) (215, -3.01084447576337288499e-01) (216, -1.86183523592038868699e+00) (217, 1.50000000000000000000e+03) (218, 1.50000000000000000000e+03) (219, 1.50000000000000000000e+03) (220, 1.50000000000000000000e+03) (221, -1.48046250132183143666e-01) (222, -1.03295182407748403763e-01) (223, 8.71883021469372687662e-01) (224, -1.20464151804318220229e+00) (225, -1.79671959019659466250e+00) (226, -2.17760667682956388091e+00) (227, -8.40598870735352998729e-01) (228, -2.41030671805741947278e-01) (229, 3.68072262825104967732e-01) (230, -2.78699089520926590602e-01) (231, -1.43489877134550392057e+00) (232, -7.02828212867878887593e-01) (233, -6.87075517956817538590e-01) (234, -5.52648703496883220154e-01) (235, -1.73600119068037211933e-01) (236, 5.67774076354779499987e-01) (237, 1.50000000000000000000e+03) (238, 1.50000000000000000000e+03) (239, 1.50000000000000000000e+03) (240, 1.50000000000000000000e+03) (241, 1.50000000000000000000e+03) (242, 1.60388140575824422740e+00) (243, -7.66365199861414270188e-01) (244, -7.33678312367355589529e-01) (245, -9.73345727934738280673e-01) (246, -2.16954057192911031748e+00) (247, -8.25016293828663149768e-01) (248, -3.03840936230396319040e-01) (249, -5.53716546272997933720e-01) (250, -2.94161105328861915975e-01) (251, -5.83730721946052022453e-01) (252, -1.98531859982646774476e-01) (253, -5.17521252536403547628e-02) (254, 1.22066119046799204106e+00) (255, 1.69217220699931641947e-02) (256, 7.07077745578640226576e-01) (257, 1.50000000000000000000e+03) (258, 1.50000000000000000000e+03) (259, 1.50000000000000000000e+03) (260, 1.50000000000000000000e+03) (261, 1.50000000000000000000e+03) (262, 1.76854464251955167953e-01) (263, -2.52450107317934657747e-01) (264, 1.27948097420478967834e+00) (265, -2.73599004083393237963e+00) (266, -7.23866100990905092516e-01) (267, 6.33040663600530795208e-01) (268, 2.42661114993983773047e+00) (269, 1.40192871914293015756e+00) (270, -2.08507672912065400439e-01) (271, -8.98592506658141054743e-01) (272, -3.32286366259671728240e-01) (273, 4.20650300874508970006e-02) (274, -6.13807598747959232144e-02) (275, -6.63851739038683330563e-02) (276, 4.17571992510793910114e-01) (277, -4.95553906651574727071e-01) (278, 1.50000000000000000000e+03) (279, 1.50000000000000000000e+03) (280, 1.50000000000000000000e+03) (281, 1.50000000000000000000e+03) (282, -2.18428210458925198267e+00) (283, -2.61241154342129666688e+00) (284, -2.97903958172784344427e+00) (285, -2.61741251986578404853e+00) (286, -1.41567605912598426521e+00) (287, 5.64407746609968286045e-01) (288, 3.69173829111612228360e-01) (289, 8.86038189178027235648e-01) (290, 3.04570967700447226001e-01) (291, -8.53420577359657178684e-02) (292, 3.29697073487359437749e-01) (293, 6.20972091417304385835e-03) (294, 9.16871782140055296972e-02) (295, -1.74399988835769792495e+00) (296, 7.48388623332332425520e+00) (297, -3.85153513046342599324e-01) (298, -4.64047554524976313406e-01) (299, 1.50000000000000000000e+03) (300, 1.50000000000000000000e+03) (301, 1.50000000000000000000e+03) (302, 1.50000000000000000000e+03) (303, -2.88944061415650488289e-01) (304, -3.69475831969215517958e+00) (305, -1.03083496138799399211e-01) (306, -5.96321117516897092337e-01) (307, 8.95690412716612538446e-01) (308, 3.02954379538277196460e-01) (309, 1.84971658568651164956e-01) (310, 8.51427818453350526706e-02) (311, 5.17894592704809864081e-01) (312, -2.24451288876438198594e-01) (313, 1.77563140402588887090e-01) (314, 2.28308139836000539846e-01) (315, 5.88431128998908925531e-01) (316, 2.59345458678421625365e+00) (317, -4.64938673766690790945e-01) (318, -5.44113475473958718709e-01) (319, 1.50000000000000000000e+03) (320, 1.50000000000000000000e+03) (321, 1.50000000000000000000e+03) (322, 1.50000000000000000000e+03) (323, 4.52068009959084637917e-01) (324, -1.52146496716742163358e+00) (325, -4.14441592861661822766e-01) (326, 5.59678422539581554851e-01) (327, 8.97508393861285447279e-01) (328, 3.95113289191931005284e-01) (329, 3.87888861506466953166e-01) (330, 4.93933647269650166756e-01) (331, 2.93343553953333446849e-01) (332, 3.13171807767285259594e-01) (333, 2.66519698524002868201e-01) (334, 1.16587031168243412949e-01) (335, -1.44670272691407375554e+00) (336, -8.07733815862018822429e+00) (337, -4.45065620931226313406e-01) (338, 1.50000000000000000000e+03) (339, 1.50000000000000000000e+03) (340, 1.50000000000000000000e+03) (341, 1.50000000000000000000e+03) (342, 1.50000000000000000000e+03) (343, 6.78042598060916712477e-01) (344, -4.63461883134886620805e-02) (345, -1.04005388841656221111e+00) (346, -8.04127710062249256850e-01) (347, 9.10377820216492272820e-01) (348, 5.46532695000364054927e-01) (349, 2.42879890135652143357e-01) (350, 1.69964259386707533528e-01) (351, 4.66683780751144250409e-01) (352, 8.41969159289609914154e-01) (353, 7.43760223596131808677e-01) (354, -4.63324670549806749698e-01) (355, 1.13225330381807182123e-01) (356, 4.52629130714901004029e-02) (357, 7.31658130506865789222e-01) (358, 1.56674927215481124554e-01) (359, 1.50000000000000000000e+03) (360, 1.50000000000000000000e+03) (361, 1.50000000000000000000e+03) (362, 1.50000000000000000000e+03) (363, 1.50000000000000000000e+03) (364, -8.24870156288601608097e-01) (365, 5.40078835412199920185e-01) (366, 3.60668262795694805067e-01) (367, -4.80274421919451091623e-02) (368, 5.05686920392708461058e-01) (369, 3.06594822427402990961e-01) (370, 2.38622928607023138126e-01) (371, 3.41733033280829379130e-01) (372, 8.20608683411549355569e-01) (373, 3.89710234131271315849e-01) (374, 3.50451381550732519662e-03) (375, 8.37958829584600911611e-02) (376, 3.40390633928452190915e+00) (377, 2.69925236272201285459e+00) (378, 1.50000000000000000000e+03) (379, 1.50000000000000000000e+03) (380, 1.50000000000000000000e+03) (381, 1.50000000000000000000e+03) (382, 1.50000000000000000000e+03) (383, 1.50000000000000000000e+03) (384, 2.42734775557458748452e+00) (385, 2.44795322655976166359e+00) (386, 6.40749218810971465921e-01) (387, 6.26668407519038406228e-01) (388, 1.13306880815927124573e+00) (389, 2.52823906458327174462e+00) (390, 2.65067852417663596398e+00) (391, 4.00793488874115644283e-01) (392, 2.09602755813988600453e-01) (393, 5.60087927328191681475e-01) (394, 1.50000000000000000000e+03) (395, 1.50000000000000000000e+03) (396, 1.50000000000000000000e+03) (397, 1.50000000000000000000e+03) (398, 1.50000000000000000000e+03) (399, 1.50000000000000000000e+03) (400, 7.10863886653374410507e-01) (0, 1.50000000000000000000e+03) (1, 1.50000000000000000000e+03) (2, 1.50000000000000000000e+03) (3, 1.50000000000000000000e+03) (4, 1.50000000000000000000e+03) (5, 1.50000000000000000000e+03) (6, 1.50000000000000000000e+03) (7, 1.50000000000000000000e+03) (8, 1.50000000000000000000e+03) (9, 1.50000000000000000000e+03) (10, 1.16960579711065570940e+00) (11, 7.31715966095657366353e-01) (12, 5.44302775314302267340e-01) (13, 2.85152782306739904783e+00) (14, 1.50000000000000000000e+03) (15, 1.50000000000000000000e+03) (16, 1.50000000000000000000e+03) (17, 1.50000000000000000000e+03) (18, 1.50000000000000000000e+03) (19, 1.50000000000000000000e+03) (20, 1.50000000000000000000e+03) (21, 1.50000000000000000000e+03) (22, 1.50000000000000000000e+03) (23, 6.32000835586462139659e-01) (24, 6.54589945424471020274e-01) (25, 3.53435605351849368994e-01) (26, 2.62194260645460530679e-01) (27, 2.29644032271820242030e+00) (28, 9.43026320535770068432e-01) (29, 6.27371705573687266089e-01) (30, 9.17190172331587394439e-01) (31, 5.03383029282262528525e-01) (32, 3.26135418508157999898e-03) (33, 5.54961257443402411482e-01) (34, 6.50601575561367662104e-01) (35, 1.50000000000000000000e+03) (36, 1.50000000000000000000e+03) (37, 1.50000000000000000000e+03) (38, 1.50000000000000000000e+03) (39, 1.50000000000000000000e+03) (40, 1.50000000000000000000e+03) (41, 1.50000000000000000000e+03) (42, 6.86358747977886318736e-01) (43, 1.04354839548712455266e-01) (44, 9.02847245014406635244e-02) (45, -1.97979979566523210666e-02) (46, -1.82028065243021702768e-01) (47, -5.63985671403090527143e-01) (48, -4.26809137616816880456e-01) (49, -1.44370230943844735094e+00) (50, -8.86303194272941713416e-02) (51, 7.66660234553592556672e-01) (52, 4.02839993986167987927e-01) (53, 5.85040777402589418088e-01) (54, 6.47809443788320282742e-01) (55, 3.39484982922291844698e-01) (56, 2.51566553037400941761e+00) (57, 1.36763145596280755178e+00) (58, 1.50000000000000000000e+03) (59, 1.50000000000000000000e+03) (60, 1.50000000000000000000e+03) (61, 5.93835553128395199352e-01) (62, 7.23059182960662960582e-01) (63, 3.81906124016759995765e-01) (64, 1.94144872888516251130e+00) (65, 2.41432480226090451225e+00) (66, -1.33772056273666450910e-01) (67, -1.39107583486546837470e-02) (68, 2.98782309706140281058e-01) (69, 1.43720656124809331722e-01) (70, 2.39693124342534730209e-01) (71, 4.50770424830941318639e-01) (72, -1.53762480297619397868e-02) (73, -1.46479263209655773820e-02) (74, -1.10573429353328367419e-01) (75, 3.45436206952399071923e-01) (76, 7.87903628191099936195e-01) (77, 4.06504523972737796811e+00) (78, 1.50000000000000000000e+03) (79, 1.50000000000000000000e+03) (80, 1.50000000000000000000e+03) (81, 7.29901229936752438121e-01) (82, 3.51337840199999307256e-01) (83, 4.21053061373899362163e-01) (84, -5.96209825743034133039e-02) (85, 3.65069268841113181434e-01) (86, 1.03899438972024513173e-01) (87, 3.07357254683151670527e-01) (88, 5.85063038883983588256e-01) (89, 4.62639599537908896565e-01) (90, 5.61981384992361165942e-01) (91, 8.69003814246775974084e-01) (92, 4.29941420977932031722e-01) (93, -7.77204936432889792464e-02) (94, 5.90330034335631095854e-02) (95, 1.26384626039283287646e+00) (96, 9.62134259013321901932e+00) (97, 1.50000000000000000000e+03) (98, 1.50000000000000000000e+03) (99, 1.50000000000000000000e+03) (100, 1.50000000000000000000e+03) (101, 7.56091406542930721812e-01) (102, 2.04209283183206213863e+00) (103, 4.20657748922727697805e-02) (104, 3.73350478795886134287e-02) (105, 1.44289667812064120733e-01) (106, -4.74048633498069582615e-01) (107, -2.07394452132943982181e-02) (108, 1.04479158631535271051e-01) (109, 2.16990705247916665366e-01) (110, 2.65226782054682808099e-01) (111, 2.06215334146283207906e-01) (112, 2.79387136348182629764e-01) (113, -1.53855925206727389698e-01) (114, 1.23806713958916778107e-01) (115, 3.63650711290844974588e-01) (116, 2.25243660000291362477e-01) (117, 1.50000000000000000000e+03) (118, 1.50000000000000000000e+03) (119, 1.50000000000000000000e+03) (120, 1.50000000000000000000e+03) (121, 7.65399267871055721812e-01) (122, 4.93876828259814937283e-01) (123, 2.44743950488937683785e-01) (124, 6.95666355520616397357e-01) (125, -1.01073951794147820493e+00) (126, -2.89664616766915183899e-01) (127, -5.34400665006353081665e-01) (128, -1.36632640851736791854e-01) (129, 4.74073783744818033625e+00) (130, 7.52749414615271783546e-01) (131, 2.18796188887558251679e-01) (132, 3.45634683805032039139e-01) (133, 1.45313693563116047569e-01) (134, 5.32245684733540391775e-01) (135, 6.37203629955091499504e-02) (136, -2.15953268488142313686e+00) (137, 1.50000000000000000000e+03) (138, 1.50000000000000000000e+03) (139, 1.50000000000000000000e+03) (140, 1.50000000000000000000e+03) (141, 7.89514264065895199352e-01) (142, -3.24499624325218594123e+00) (143, 5.44850197398703262053e+00) (144, -1.24129847056195030675e+00) (145, -6.53941550041861829889e-01) (146, -2.73932125781144175658e-01) (147, -4.79779089337725103692e-02) (148, -3.95162274128702112330e-02) (149, -4.45953254266973284081e-02) (150, 4.75116866244189695045e-01) (151, 9.82758650429733426890e-01) (152, 4.62679661549014076272e-01) (153, 1.07228990167937784928e-01) (154, 2.47639327238168088785e-01) (155, 1.38190401456193573404e-01) (156, 3.27298967018368691662e-01) (157, 1.50000000000000000000e+03) (158, 1.50000000000000000000e+03) (159, 1.50000000000000000000e+03) (160, 1.50000000000000000000e+03) (161, 7.38775735695037960582e-01) (162, -4.79854403406482332706e-01) (163, -1.61820870334925070999e+00) (164, -1.55167713820882985365e-01) (165, 3.41657634316793190621e-01) (166, -7.77797402770502299685e-02) (167, -2.60233079800028799244e-02) (168, -6.39474443413303728079e-02) (169, -4.05391568615024067146e-01) (170, 2.53110892257663255833e-01) (171, 4.00951695703778587809e-01) (172, 2.69398744565150538577e+00) (173, -7.45023119350514545500e-02) (174, 2.93516066731359159814e-01) (175, 2.39134218750172711232e-01) (176, 2.31174697950127155943e-01) (177, 1.50000000000000000000e+03) (178, 1.50000000000000000000e+03) (179, 1.50000000000000000000e+03) (180, 1.50000000000000000000e+03) (181, 1.50000000000000000000e+03) (182, -5.83902277273167014116e-01) (183, 3.11386287291992225335e+00) (184, 6.45717153192265080897e-02) (185, -3.22802567522097294539e-01) (186, -2.09039441210991522313e-02) (187, -1.92131894657056823128e-01) (188, 3.26630555289125046325e-01) (189, 1.13137722081143810016e+00) (190, 5.13216833853944565114e-01) (191, 4.51837424714834345885e-01) (192, 4.05976581662534530270e-01) (193, 7.36560460772473640789e-02) (194, 2.37208768686584109409e-01) (195, -1.70686679978293620596e-01) (196, 1.88726072674479522506e-01) (197, -8.91563921485470367578e-02) (198, 2.25630521859570221110e-01) (199, 1.50000000000000000000e+03) (200, 1.50000000000000000000e+03) (201, 1.50000000000000000000e+03) (202, -6.45998822444279197086e-01) (203, 2.35514007568055377950e-01) (204, -6.73846706362380865052e-01) (205, 3.38277932709283968293e-01) (206, 3.09370057727541891701e-01) (207, -6.38040837725436404959e-01) (208, 2.57691845532787289219e-01) (209, 3.07548984842676786933e-01) (210, 2.14692464525240045425e-01) (211, 2.85731483486558635043e-01) (212, 2.42291708131314471181e-03) (213, 2.59894726726228708635e-01) (214, 3.51662902791267328872e-01) (215, 4.36393972493357984455e-01) (216, 9.58357698084414261208e-02) (217, 1.50000000000000000000e+03) (218, 1.50000000000000000000e+03) (219, 1.50000000000000000000e+03) (220, 1.50000000000000000000e+03) (221, 4.05351295821006196718e+00) (222, -1.40832279541689253666e-01) (223, -1.77493797662453656194e+00) (224, -2.99784591350683082833e-01) (225, -3.79315190474893593198e-01) (226, -1.15004334858782542028e+00) (227, -4.39128544675806753439e-01) (228, 2.60028023207170444486e-01) (229, 3.80786770281029030016e-01) (230, 3.15078895367182143517e-01) (231, 4.33052474424066968783e-01) (232, 7.54236219233408999862e-02) (233, -4.81697986695012403402e-01) (234, 2.72289516119183727660e-01) (235, -5.80469752012255035822e-01) (236, 9.12318244512054343787e-01) (237, 1.50000000000000000000e+03) (238, 1.50000000000000000000e+03) (239, 1.50000000000000000000e+03) (240, 1.50000000000000000000e+03) (241, 1.50000000000000000000e+03) (242, 8.61925546313087709294e-01) (243, -3.08386799880434103738e-01) (244, -1.73208293636254606618e+00) (245, -1.11684736202318735110e+00) (246, -7.82207029945424237027e-01) (247, -3.23368720120494446135e-01) (248, 3.97167231057613367984e-01) (249, 3.31033715763932034903e-01) (250, 4.95630163993478423112e-01) (251, -9.69170670329078526306e-02) (252, 3.04575925632948329991e-01) (253, -3.59131330560758521564e-02) (254, 2.05699753244173749733e-01) (255, -7.60862057570522054561e-01) (256, 1.73120965833735462880e+00) (257, 1.50000000000000000000e+03) (258, 1.50000000000000000000e+03) (259, 1.50000000000000000000e+03) (260, 1.50000000000000000000e+03) (261, 1.50000000000000000000e+03) (262, -1.31481903214703016447e-01) (263, -4.75444538423829610174e-01) (264, -8.93964076756518122302e-01) (265, -3.93539990851994936349e+00) (266, -6.04491563427756339877e+00) (267, 2.94317320069357513113e-01) (268, 3.43322031419119655382e-01) (269, 3.95781847546101850366e-01) (270, 3.74240331551739080496e-01) (271, -4.43546030323344830926e-01) (272, 3.39014031394670123376e-01) (273, -7.88085439017355005031e-02) (274, 5.28141522870370708209e-02) (275, -8.89339234583480867102e-03) (276, 1.09575132341597408780e-01) (277, 3.20747718300267214975e-01) (278, 1.50000000000000000000e+03) (279, 1.50000000000000000000e+03) (280, 1.50000000000000000000e+03) (281, 1.50000000000000000000e+03) (282, -2.22095567909559553355e-02) (283, -7.18897491011998845956e-01) (284, -6.34443587912391038230e+00) (285, -3.34119908700044687677e+00) (286, -2.45696604487339737011e-01) (287, 6.21948014783438751785e-01) (288, 2.54035894422110108959e-01) (289, 5.02376761453031561722e-01) (290, 5.56370719062894592000e-01) (291, 1.47387567889107878177e-02) (292, 3.69406225267166821169e-01) (293, -6.35292730533212474109e-02) (294, 5.21338427158248157722e-02) (295, -1.02462024233997706091e+00) (296, -4.91060898936323830810e+00) (297, 2.82875403847142214975e-01) (298, 2.06746243025704101726e-01) (299, 1.50000000000000000000e+03) (300, 1.50000000000000000000e+03) (301, 1.50000000000000000000e+03) (302, 1.50000000000000000000e+03) (303, -1.93803852950781507758e+00) (304, 1.78231144887134962396e+00) (305, -1.13357672201216219676e+00) (306, -5.53640303451101822851e-01) (307, 3.42498208355059841068e-01) (308, 2.89302723944290074432e-01) (309, 3.28828340274098462892e-01) (310, 1.35050735799821408634e-01) (311, 9.83377857469248523037e-02) (312, -2.03410621399437770845e-03) (313, -7.21577443585059790342e-04) (314, 2.03396058559505182872e-01) (315, -2.31653263692139899099e-01) (316, 8.01656996203603422479e-01) (317, 2.19478182579918579265e-01) (318, 2.45650053109570276622e-01) (319, 1.50000000000000000000e+03) (320, 1.50000000000000000000e+03) (321, 1.50000000000000000000e+03) (322, 1.50000000000000000000e+03) (323, -6.81960432529058191431e-02) (324, -1.22136076375456870124e+00) (325, -7.14746525751663863701e-01) (326, -1.32993410455695404426e-01) (327, 1.08961317555548650726e-01) (328, 1.07346777151644048875e-01) (329, 6.02484980058561048200e-02) (330, 6.04865310064877786944e-02) (331, 5.30651058509241727035e-02) (332, 2.03575875595401689644e-01) (333, 4.27339311603588539734e-02) (334, -1.44022386953516901009e+00) (335, 2.75834662841320354953e-01) (336, 6.71941546305648840232e-01) (337, 2.08339266564293579265e-01) (338, 1.50000000000000000000e+03) (339, 1.50000000000000000000e+03) (340, 1.50000000000000000000e+03) (341, 1.50000000000000000000e+03) (342, 1.50000000000000000000e+03) (343, 1.81976973924082879863e-01) (344, -1.75555222595584625722e+00) (345, -1.93862271474019864925e+00) (346, 1.22719525004239993216e-01) (347, 1.93969988042275026663e-01) (348, 9.23256183187944889923e-02) (349, 6.05626521431372744075e-02) (350, -1.21925670403507199757e-01) (351, 1.60400955981453735566e-01) (352, 9.44264012064573554639e-01) (353, -1.60284708568554506991e-01) (354, 2.32073785430418705333e-01) (355, -1.82321767921323985018e-01) (356, -5.52600445354062830283e-01) (357, -7.96774409920419479647e-01) (358, 7.03053332063926950113e-01) (359, 1.50000000000000000000e+03) (360, 1.50000000000000000000e+03) (361, 1.50000000000000000000e+03) (362, 1.50000000000000000000e+03) (363, 1.50000000000000000000e+03) (364, -3.46476159891734303287e-01) (365, -1.09304320694059398100e+00) (366, -1.20209316796105625258e+00) (367, 1.69897103176634450827e-01) (368, 2.69180029439762200094e-02) (369, -1.69286924054676213292e-01) (370, -6.52754657422024153757e-02) (371, -6.64329633298226668314e-02) (372, -9.77423427927779642221e-02) (373, -3.79672323822532853388e-01) (374, -1.36107414752780972456e-03) (375, -3.14859378764930808448e-01) (376, -8.51903761954890592634e-01) (377, 1.64500529551492680191e+00) (378, 1.50000000000000000000e+03) (379, 1.50000000000000000000e+03) (380, 1.50000000000000000000e+03) (381, 1.50000000000000000000e+03) (382, 1.50000000000000000000e+03) (383, 1.50000000000000000000e+03) (384, 1.47537321287420630789e+00) (385, 1.57600797402885772769e+00) (386, 4.04703207181566659845e-01) (387, 3.94614096598499719537e-01) (388, 7.69549038762124687496e-02) (389, 1.46654561417145012925e+00) (390, 4.04299514381730173973e-01) (391, 4.00356251823964559566e-01) (392, -2.68159668102950166091e-01) (393, 1.23801740482183153524e+00) (394, 1.50000000000000000000e+03) (395, 1.50000000000000000000e+03) (396, 1.50000000000000000000e+03) (397, 1.50000000000000000000e+03) (398, 1.50000000000000000000e+03) (399, 1.50000000000000000000e+03) (400, 4.20081854089952133613e-01) (0, 1.50000000000000000000e+03) (1, 1.50000000000000000000e+03) (2, 1.50000000000000000000e+03) (3, 1.50000000000000000000e+03) (4, 1.50000000000000000000e+03) (5, 1.50000000000000000000e+03) (6, 1.50000000000000000000e+03) (7, 1.50000000000000000000e+03) (8, 1.50000000000000000000e+03) (9, 1.50000000000000000000e+03) (10, -1.35946257594465658158e-01) (11, 1.06404966541192178009e-01) (12, -8.49491834935579337440e-01) (13, -4.84971751618766544478e-02) (14, 1.50000000000000000000e+03) (15, 1.50000000000000000000e+03) (16, 1.50000000000000000000e+03) (17, 1.50000000000000000000e+03) (18, 1.50000000000000000000e+03) (19, 1.50000000000000000000e+03) (20, 1.50000000000000000000e+03) (21, 1.50000000000000000000e+03) (22, 1.50000000000000000000e+03) (23, -1.13351008825353524734e-01) (24, -4.57850945818938440124e-02) (25, -1.56252191137079582406e-01) (26, 9.34497536611974405352e-02) (27, 1.90349909578867798610e-01) (28, 4.30408194421715156741e-02) (29, -3.78467115126939965264e-02) (30, 5.08921031035090582623e-03) (31, -8.02166748190879241864e-02) (32, 6.72135526832230018046e-02) (33, 8.88927720597587275875e-03) (34, 1.67911217345299512704e-01) (35, 1.50000000000000000000e+03) (36, 1.50000000000000000000e+03) (37, 1.50000000000000000000e+03) (38, 1.50000000000000000000e+03) (39, 1.50000000000000000000e+03) (40, 1.50000000000000000000e+03) (41, 1.50000000000000000000e+03) (42, -3.76918269026793664733e-02) (43, -4.40017138426268217266e-01) (44, 1.08918591019147859011e-01) (45, 1.87040833683374901897e-01) (46, -1.06767713541686637413e+00) (47, -4.43746310222253248501e-01) (48, 1.02261087520409660323e-01) (49, 1.71077650693718719133e-01) (50, 1.22245862897621085374e-01) (51, 3.74493290898274475142e-02) (52, 1.21950046497818556657e-01) (53, 5.67929990092298914162e-02) (54, 8.88543274295795215689e-02) (55, 2.98104331903780050972e-01) (56, 2.90872759054575824589e-01) (57, 3.32268216005677408109e-01) (58, 1.50000000000000000000e+03) (59, 1.50000000000000000000e+03) (60, 1.50000000000000000000e+03) (61, -1.27523372851661681571e-01) (62, -1.52590515993884984214e-01) (63, -2.11158217968392819541e-01) (64, 1.22167839338083242251e-01) (65, 1.36452765984474672090e-01) (66, -6.81702526316674273232e-02) (67, 1.63899813807220628981e-01) (68, 1.06461242302601302723e-01) (69, 9.63509905225682916630e-02) (70, 1.10371572542080437218e-01) (71, 1.21590061305397151292e-01) (72, 1.54220275549431101725e-01) (73, 4.95528025012813427841e-02) (74, 1.50955921992745240034e-01) (75, -4.36159265904645446210e-02) (76, 2.17346681683275005925e-01) (77, -1.65001205254755284324e-01) (78, 1.50000000000000000000e+03) (79, 1.50000000000000000000e+03) (80, 1.50000000000000000000e+03) (81, -4.30873362052954858581e-02) (82, -4.91463196216749675233e-03) (83, -5.89704331821290922422e-02) (84, 1.26630972296734339855e-01) (85, 3.15226820012416697470e-02) (86, 2.54363888559149334267e-02) (87, 9.28428501744061884793e-02) (88, 9.35059973609968092534e-02) (89, 2.23552842587420280696e-01) (90, 9.87313087226953933762e-02) (91, 3.44616682628047718562e-02) (92, 8.87996085519530964358e-02) (93, -7.93242604785752980501e-02) (94, 1.03607568731139562668e-01) (95, -2.84094458381972891914e-01) (96, 6.88311198007333091553e-02) (97, 1.50000000000000000000e+03) (98, 1.50000000000000000000e+03) (99, 1.50000000000000000000e+03) (100, 1.50000000000000000000e+03) (101, -1.59755227792777003415e-02) (102, 6.10873872619540292384e-01) (103, -9.62373345607267088875e-02) (104, 8.15921061878037562343e-02) (105, 1.34994613915845190766e-01) (106, 4.24730486218586819613e-02) (107, 1.10639110365865198093e-01) (108, 9.53117123861082909952e-02) (109, 7.82566275060053023749e-02) (110, 1.15030871551903279837e-01) (111, -4.76878820518579266043e-04) (112, -2.39399013855565931386e-02) (113, 1.14805931104581711300e-02) (114, -2.17439973192388807943e-01) (115, 3.79067416821169400620e-02) (116, -7.39744312604387055377e-02) (117, 1.50000000000000000000e+03) (118, 1.50000000000000000000e+03) (119, 1.50000000000000000000e+03) (120, 1.50000000000000000000e+03) (121, -8.13868967521704650414e-02) (122, -9.91929103780339084528e-03) (123, 6.29895498464222262924e-03) (124, -5.00833379229370587171e-02) (125, 1.00957046093805138942e-01) (126, 5.14904225007351418197e-02) (127, 1.69387636828689141025e-03) (128, 1.42215508039015614550e-01) (129, 1.13959889000895139843e-01) (130, -6.28371376535995784796e-02) (131, -9.43989505243616605634e-02) (132, 2.35239981694091229714e-02) (133, 6.78661211938204854410e-03) (134, -1.81414929062782753766e-01) (135, -1.27779546680899802613e-02) (136, -5.48084876398595086111e-02) (137, 1.50000000000000000000e+03) (138, 1.50000000000000000000e+03) (139, 1.50000000000000000000e+03) (140, 1.50000000000000000000e+03) (141, -5.02650690901793664733e-02) (142, 1.90040265563134365412e-02) (143, 1.35019993069220634041e-01) (144, 8.77386460504543524985e-02) (145, 1.59278617776236669501e-01) (146, 2.11570714884355026708e-01) (147, 1.98867223843052470800e-01) (148, 6.13034034522304260850e-02) (149, 1.13218126276291561338e-01) (150, 1.37349492952833392156e-02) (151, -2.04486735329414345830e-02) (152, -3.24205715705079416944e-02) (153, -1.72620068031849351053e-02) (154, 1.34818930576306256208e-01) (155, -7.54166537765609164279e-03) (156, -2.42321224362272887032e-02) (157, 1.50000000000000000000e+03) (158, 1.50000000000000000000e+03) (159, 1.50000000000000000000e+03) (160, 1.50000000000000000000e+03) (161, -1.46371032081893864829e-01) (162, -3.90751759560254048609e-03) (163, -1.47555583503344106555e-01) (164, -7.15015067200237969258e-02) (165, 1.67049237499373198768e-01) (166, 1.36001476767566825687e-01) (167, 3.68014939602583635025e-02) (168, 6.86901476035175623247e-02) (169, 7.08977697607253848355e-02) (170, -8.01209512324931039107e-02) (171, -8.72135564620984821138e-02) (172, -3.37954236577773126093e-01) (173, 1.01022154308944331347e-01) (174, 7.88891397889833895229e-02) (175, -5.94356476772249023299e-02) (176, -1.94591687471289201405e-02) (177, 1.50000000000000000000e+03) (178, 1.50000000000000000000e+03) (179, 1.50000000000000000000e+03) (180, 1.50000000000000000000e+03) (181, 1.50000000000000000000e+03) (182, 1.23665375881552214166e-01) (183, 1.71597508325996045420e-01) (184, -1.55572648286277287477e-01) (185, 1.11490945687484327431e-01) (186, 9.64862895501300277257e-02) (187, 1.80856937708275510024e-02) (188, 7.80215466581318378703e-02) (189, 1.93361669362336702216e-01) (190, 1.72947330754247619033e-01) (191, 3.89434566177711757873e-02) (192, 1.43198671217115713894e-01) (193, 5.42504545987574290922e-02) (194, 1.51300370609754097906e-01) (195, -8.05879374249792723717e-02) (196, 1.43882309581005979338e-01) (197, 4.82817413816326243547e-02) (198, -3.16402943820333237834e-01) (199, 1.50000000000000000000e+03) (200, 1.50000000000000000000e+03) (201, 1.50000000000000000000e+03) (202, 6.10541552685711308435e-01) (203, -6.43692108921753991524e-02) (204, 4.06249027933203998852e-02) (205, 1.26770578064196892676e-01) (206, 1.14724944893620631192e-01) (207, 3.26387977826894173927e-02) (208, 1.78555118480277691395e-01) (209, 6.49663349988313654215e-02) (210, -6.31947587798529220038e-02) (211, 1.83731630507406540342e-01) (212, 1.95414805190995050088e-01) (213, 4.54858468441869060600e-03) (214, 2.70418658623590331402e-02) (215, -3.21865537010860638945e-02) (216, 1.00665235509081435472e-01) (217, 1.50000000000000000000e+03) (218, 1.50000000000000000000e+03) (219, 1.50000000000000000000e+03) (220, 1.50000000000000000000e+03) (221, 1.80707179174775828256e-01) (222, 6.01017903288796007111e-01) (223, -3.59112158121313168602e-02) (224, -1.67779615266583193023e-01) (225, 1.50147176426647182244e-03) (226, 8.23803225330195371123e-02) (227, 4.14980018508654679987e-02) (228, 6.39364552099663252527e-02) (229, 6.36411808727673083963e-02) (230, 1.47342032376944209737e-01) (231, 2.45132318981647542855e-02) (232, 2.02062192126064160691e-01) (233, 3.84366230757311744259e-02) (234, 6.50652144981190838635e-02) (235, 9.01924949741475801002e-02) (236, -1.52294505496840103936e-02) (237, 1.50000000000000000000e+03) (238, 1.50000000000000000000e+03) (239, 1.50000000000000000000e+03) (240, 1.50000000000000000000e+03) (241, 1.50000000000000000000e+03) (242, -2.11830299212720868374e-01) (243, 1.43335684590160522545e-02) (244, -5.67913491212956866860e-02) (245, -2.45424244099613254877e-02) (246, -3.95297434769569175361e-02) (247, 1.72975037112230001224e-01) (248, 2.01875023888056059906e-01) (249, 4.28115251641386987402e-02) (250, 4.74559900843939605486e-02) (251, 1.73694490090390174508e-01) (252, 1.82896589466479492225e-01) (253, 6.93108739799163653394e-02) (254, 9.24017102191042744019e-02) (255, 5.70782633072135364705e-02) (256, -1.16591624643055061933e-02) (257, 1.50000000000000000000e+03) (258, 1.50000000000000000000e+03) (259, 1.50000000000000000000e+03) (260, 1.50000000000000000000e+03) (261, 1.50000000000000000000e+03) (262, -1.99011339087991595553e-01) (263, -3.25960584207215658958e-02) (264, -9.66128788933861004651e-02) (265, 1.80033610374574909452e-01) (266, -5.60899226570582831730e-02) (267, -1.72389888510307426328e-02) (268, 4.37330920717149407295e-02) (269, 9.80029761988721742627e-02) (270, 1.36709348754857934471e-01) (271, 1.74145404233860323640e-01) (272, 5.97992197729369234782e-02) (273, 1.51719959195678627539e-01) (274, 1.70414413078576243432e-01) (275, -2.38948093560649027500e-02) (276, 1.45922170742238510588e-01) (277, -3.87759143502092118450e-01) (278, 1.50000000000000000000e+03) (279, 1.50000000000000000000e+03) (280, 1.50000000000000000000e+03) (281, 1.50000000000000000000e+03) (282, 3.66494361059673479097e-01) (283, 5.85634657571862615733e-01) (284, 1.02235129286589815356e-01) (285, 1.87993617616370872758e-01) (286, 8.71511999341463144964e-02) (287, 1.38353476659002994076e-01) (288, 1.42036817042515722820e-01) (289, -2.62118920374306008103e-02) (290, -9.29036014637542317818e-03) (291, -2.41994259609985308546e-02) (292, 1.30143589041120610883e-01) (293, 1.67325163894553485822e-01) (294, 7.39709825739683218826e-02) (295, 1.51600850108637968949e-01) (296, -2.14163301084103335770e-01) (297, -4.96181996554708126812e-01) (298, -3.72012065739011521526e-01) (299, 1.50000000000000000000e+03) (300, 1.50000000000000000000e+03) (301, 1.50000000000000000000e+03) (302, 1.50000000000000000000e+03) (303, 2.64244501382059765460e-02) (304, 7.60482775655542231341e-01) (305, 1.17658384249691133627e-01) (306, 2.36033008342965311410e-01) (307, 1.45427413561241891671e-01) (308, 1.29764544619676430726e-01) (309, 1.49641606879380995032e-01) (310, 1.51406367727243418297e-01) (311, 5.53388414449472176848e-02) (312, 1.94336261838535528934e-02) (313, 1.37249184134822399539e-01) (314, 1.80376904183242564583e-01) (315, -8.36428202800734710287e-02) (316, -1.27770826536736298307e-01) (317, -3.78011832029199357219e-01) (318, -4.29940538496350999065e-01) (319, 1.50000000000000000000e+03) (320, 1.50000000000000000000e+03) (321, 1.50000000000000000000e+03) (322, 1.50000000000000000000e+03) (323, -1.70528195016574846132e-01) (324, 5.15223417035238356876e-02) (325, 1.98872094369929391933e-01) (326, 1.71848420337192608898e-01) (327, 2.07585555576363683938e-01) (328, 1.36552625052825366003e-01) (329, 1.85248495001931801074e-01) (330, 2.46394303694610822264e-01) (331, 1.30359835603827051154e-01) (332, -1.79516782976806878180e-02) (333, 1.31092317487751380822e-02) (334, -5.98966717849692548148e-02) (335, -1.80827771724921537722e-02) (336, 6.49418871604149905430e-02) (337, -3.48830925316190476604e-01) (338, 1.50000000000000000000e+03) (339, 1.50000000000000000000e+03) (340, 1.50000000000000000000e+03) (341, 1.50000000000000000000e+03) (342, 1.50000000000000000000e+03) (343, 1.24855754352559022990e-01) (344, -4.29980570264595685082e-01) (345, 7.97354259807511595026e-02) (346, 1.39923871029932728183e-01) (347, 5.11235575144545068005e-02) (348, 1.24709691059002397706e-01) (349, 1.27063186896091612210e-01) (350, 1.55107179956929047693e-01) (351, 5.07861877226167823807e-02) (352, 6.67382958890202909741e-02) (353, 1.03801625181322076941e-01) (354, -2.00286370783630401915e-02) (355, 7.42637151761420810647e-02) (356, 1.39850326003235408967e-01) (357, -7.93444953629968696696e-02) (358, -4.74929819025845800784e-01) (359, 1.50000000000000000000e+03) (360, 1.50000000000000000000e+03) (361, 1.50000000000000000000e+03) (362, 1.50000000000000000000e+03) (363, 1.50000000000000000000e+03) (364, 1.05560920799911209245e-01) (365, 1.83060083010303131790e-01) (366, 1.48327118886845660262e-01) (367, 9.56787274652927816065e-02) (368, 8.59870921747803718116e-02) (369, 1.79177064802888391659e-01) (370, 1.04435001046944087033e-01) (371, 9.50509422573947437840e-02) (372, 3.05424102214957304824e-02) (373, -1.25849534808768703797e-01) (374, 5.54954312203450178531e-02) (375, -1.78736460909584005119e-01) (376, -1.13133360389988057992e-01) (377, -9.86264085598128337207e-02) (378, 1.50000000000000000000e+03) (379, 1.50000000000000000000e+03) (380, 1.50000000000000000000e+03) (381, 1.50000000000000000000e+03) (382, 1.50000000000000000000e+03) (383, 1.50000000000000000000e+03) (384, 6.64332152780562346095e-02) (385, 1.20852166551020767660e-01) (386, 2.32554646787376771699e-02) (387, -8.44166529717712832426e-02) (388, -4.51142114611302394445e-02) (389, 1.19018037564834186504e-01) (390, 1.67666007978754805219e-02) (391, 5.38349856084501809939e-02) (392, 1.31981443966286166036e-01) (393, -3.77695199223445521319e-01) (394, 1.50000000000000000000e+03) (395, 1.50000000000000000000e+03) (396, 1.50000000000000000000e+03) (397, 1.50000000000000000000e+03) (398, 1.50000000000000000000e+03) (399, 1.50000000000000000000e+03) (400, 1.41418418713503191153e-01) (0, 1.50000000000000000000e+03) (1, 1.50000000000000000000e+03) (2, 1.50000000000000000000e+03) (3, 1.50000000000000000000e+03) (4, 1.50000000000000000000e+03) (5, 1.50000000000000000000e+03) (6, 1.50000000000000000000e+03) (7, 1.50000000000000000000e+03) (8, 1.50000000000000000000e+03) (9, 1.50000000000000000000e+03) (10, 1.85696409209764289050e-02) (11, -2.26963569899029160570e-01) (12, -3.94196480735903020953e-01) (13, -2.85987207867250070592e-01) (14, 1.50000000000000000000e+03) (15, 1.50000000000000000000e+03) (16, 1.50000000000000000000e+03) (17, 1.50000000000000000000e+03) (18, 1.50000000000000000000e+03) (19, 1.50000000000000000000e+03) (20, 1.50000000000000000000e+03) (21, 1.50000000000000000000e+03) (22, 1.50000000000000000000e+03) (23, 3.65028115168123667988e-01) (24, 3.32203405156641429219e-01) (25, -7.04291587603922075722e-01) (26, 1.18313171103009248664e-01) (27, -1.81034670179894080499e-01) (28, -1.22602171808342944037e-01) (29, 2.52766713981101183439e-02) (30, 4.92092000489568540122e-02) (31, -2.73060300599781091702e-01) (32, -2.29748486906141718977e-01) (33, -1.80463776540976728047e-01) (34, 1.43886666655977646379e+00) (35, 1.50000000000000000000e+03) (36, 1.50000000000000000000e+03) (37, 1.50000000000000000000e+03) (38, 1.50000000000000000000e+03) (39, 1.50000000000000000000e+03) (40, 1.50000000000000000000e+03) (41, 1.50000000000000000000e+03) (42, 2.78358185842543071065e-01) (43, 2.70212014487260510087e-01) (44, -1.04335310449338494049e-02) (45, -2.42803010082082659782e-01) (46, -9.58252411929816916292e-02) (47, -6.91513298454686647920e-02) (48, -4.50099004572235728006e-01) (49, -2.08406362797428912348e-01) (50, -6.07890702851136000007e-02) (51, -8.61599209375017022206e-02) (52, -1.61116217823919521956e-01) (53, -1.49435283895662740505e-01) (54, 2.13026392073286607864e-01) (55, 4.54267933202988638541e-01) (56, 4.08195191967691939361e-01) (57, 4.91155582874462925957e-01) (58, 1.50000000000000000000e+03) (59, 1.50000000000000000000e+03) (60, 1.50000000000000000000e+03) (61, 2.87312047734766429219e-01) (62, 4.18549845173864787373e-01) (63, 6.10779117680720684547e-01) (64, 2.05591184860763553921e-01) (65, 9.05015944578475006743e-02) (66, 8.54361735249555970251e-02) (67, -5.20506230507805089935e-02) (68, -1.72937504402093045197e-01) (69, -6.86244945213907026060e-02) (70, -4.72738640480514990538e-02) (71, -1.46551733424264502004e-01) (72, -1.71214116749449640764e-01) (73, 1.41439018897087182003e-01) (74, 5.87159907756434062964e-02) (75, 4.58974505424020115529e-02) (76, 1.12215407662250785115e-01) (77, 2.90478714044658359317e-01) (78, 1.50000000000000000000e+03) (79, 1.50000000000000000000e+03) (80, 1.50000000000000000000e+03) (81, 3.27058138504534190449e-01) (82, -8.88439389844118965200e-02) (83, 2.29226167805003405720e-01) (84, -1.20263345337473334662e-01) (85, -1.27918924570411401964e-01) (86, 1.97827382215908648133e-01) (87, -1.18911614689954106550e-01) (88, -2.56943532459339603335e-02) (89, -1.88917457165329510937e-01) (90, -6.29603907450564242998e-02) (91, -1.07344940243351449904e-01) (92, -2.34531758696235409500e-01) (93, 2.03661306558878471562e-02) (94, 1.36121465565272131704e-01) (95, -1.87879550443577417185e-02) (96, 1.25700828746797887980e-01) (97, 1.50000000000000000000e+03) (98, 1.50000000000000000000e+03) (99, 1.50000000000000000000e+03) (100, 1.50000000000000000000e+03) (101, 4.38612098053007548604e-01) (102, -1.94790224740323592023e-01) (103, -2.32622947475423114128e-01) (104, -1.26499948494983111003e-01) (105, -1.18301995336181256513e-01) (106, -1.16321937125843336003e-01) (107, -4.18600312630468873731e-01) (108, -1.38663269408235478863e-01) (109, 2.83538397370767469852e-01) (110, 1.07005934729901677760e-01) (111, -1.70905001038782505818e-01) (112, -2.57203539112151546853e-01) (113, 1.11418683278913188683e-01) (114, -5.31281861765686962834e-03) (115, 1.34685632577288081496e-02) (116, 4.69474162123206459341e-02) (117, 1.50000000000000000000e+03) (118, 1.50000000000000000000e+03) (119, 1.50000000000000000000e+03) (120, 1.50000000000000000000e+03) (121, 4.04432410553007437581e-01) (122, 1.43082742564139775432e-01) (123, -3.38804529706545121126e-01) (124, -3.31639355784156708573e-01) (125, -1.84869820630033959707e-01) (126, -4.38153032707587694605e-02) (127, -1.43470683995593817350e-01) (128, -1.53728762284428503021e-02) (129, -1.46528039217186295540e-01) (130, -2.09981281293164623314e-01) (131, -1.07325354699749006548e-01) (132, -3.63449869177935702691e-01) (133, -9.41668215098529354234e-02) (134, 1.55066846535849595101e-01) (135, 1.09160502969638126269e-01) (136, -8.49350042713439834507e-03) (137, 1.50000000000000000000e+03) (138, 1.50000000000000000000e+03) (139, 1.50000000000000000000e+03) (140, 1.50000000000000000000e+03) (141, 2.94440956964998667988e-01) (142, 6.90054787456489395966e-04) (143, 2.98868801337909828497e-01) (144, 2.24378428741288910020e-01) (145, -4.12306260622878825717e-02) (146, -1.68645334404987662369e-01) (147, -3.70278316859279062537e-03) (148, -7.11921373473817231670e-02) (149, -4.35078949054187036349e-02) (150, -6.08408762122684271256e-02) (151, -2.07991228672897182639e-01) (152, -4.27137611077852863417e-01) (153, -3.61342156458388172324e-02) (154, 1.32323848798913290548e-01) (155, 6.80388546781933029051e-02) (156, -6.55336537154750653489e-02) (157, 1.50000000000000000000e+03) (158, 1.50000000000000000000e+03) (159, 1.50000000000000000000e+03) (160, 1.50000000000000000000e+03) (161, 3.28883091166525309834e-01) (162, 5.21849148466292378501e-01) (163, 3.74581185398606464343e-01) (164, 4.07474063713031964262e-01) (165, 2.45717739194827283766e-01) (166, -8.81653108701447307816e-02) (167, -1.82656738385744088493e-01) (168, -7.04549681351530343587e-02) (169, -1.97277233404295537778e-01) (170, -1.43181596697791624351e-01) (171, -7.16150353003587453182e-02) (172, -9.43735122046962873754e-03) (173, -1.34484072165569996590e-03) (174, 9.01192058518712757476e-02) (175, 8.83222369871920591489e-03) (176, 7.01883353866763690099e-03) (177, 1.50000000000000000000e+03) (178, 1.50000000000000000000e+03) (179, 1.50000000000000000000e+03) (180, 1.50000000000000000000e+03) (181, 1.50000000000000000000e+03) (182, 2.17278182728333241203e-01) (183, 3.10732065973985727148e-01) (184, 4.20316571919847337124e-01) (185, 3.21111662736215996983e-01) (186, 1.05092086952187829807e-01) (187, 2.41892303419441352663e-02) (188, -1.00493832697994819880e-01) (189, -1.40529578388223524987e-01) (190, -5.77466586606102255663e-02) (191, -1.13885830862927653340e-01) (192, -1.17600258064579382689e-01) (193, 2.57570199486101721054e-02) (194, 1.91206938192231723495e-01) (195, 1.77681332674384157011e-01) (196, -2.82290763956076252994e-02) (197, 8.76138273367997988395e-01) (198, 4.94435410261383878616e-01) (199, 1.50000000000000000000e+03) (200, 1.50000000000000000000e+03) (201, 1.50000000000000000000e+03) (202, -1.35456145044611481199e-01) (203, 3.75782730492011163292e-01) (204, 3.39494596912003121503e-01) (205, 3.66215521709271019102e-01) (206, 3.17356346749766260462e-01) (207, -1.52865948374442589541e-01) (208, -7.18195802153436414078e-03) (209, -1.42751873873709661522e-01) (210, -1.11621507563049421341e-01) (211, -1.61397694541519559630e-01) (212, -3.48309498335301961913e-02) (213, 2.13724901307431547348e-01) (214, 1.55084359176878905373e-01) (215, 1.96054354082713933050e-01) (216, -1.54352716128813372345e-03) (217, 1.50000000000000000000e+03) (218, 1.50000000000000000000e+03) (219, 1.50000000000000000000e+03) (220, 1.50000000000000000000e+03) (221, -9.60573483962705448880e-02) (222, -1.16522178315078203670e-02) (223, 2.73698909320917060928e-01) (224, 2.76612634644804067374e-01) (225, 3.08483499409155037529e-01) (226, 4.74075484194891483281e-01) (227, -6.53274448799977119906e-02) (228, 3.50978195330410414066e-01) (229, -2.41901379011620371040e-01) (230, -3.02334729127901324919e-01) (231, -6.47362390577603946662e-02) (232, -3.02443526846339037772e-02) (233, -9.49074832079045693778e-02) (234, -9.56824079463317184180e-02) (235, 1.19133270144543862434e-01) (236, 4.25393750128197287164e-02) (237, 1.50000000000000000000e+03) (238, 1.50000000000000000000e+03) (239, 1.50000000000000000000e+03) (240, 1.50000000000000000000e+03) (241, 1.50000000000000000000e+03) (242, 2.56469853818428794590e-01) (243, 3.12199849211076851940e-01) (244, 4.57720652583154474780e-01) (245, 3.86446077327255332889e-01) (246, 4.16407168179907860583e-01) (247, 3.58891210204582422616e-01) (248, 4.25268605946264754980e-01) (249, 4.50067745192476609262e-01) (250, -8.67493836664436773765e-02) (251, -6.32436249625670798835e-02) (252, -1.48543932597819394736e-01) (253, 1.05319418858842120401e-01) (254, 4.46034632418764384609e-02) (255, 4.26493086863246398388e-02) (256, 2.35183029152877948187e-01) (257, 1.50000000000000000000e+03) (258, 1.50000000000000000000e+03) (259, 1.50000000000000000000e+03) (260, 1.50000000000000000000e+03) (261, 1.50000000000000000000e+03) (262, 3.56680358929417240521e-01) (263, 1.64967433658726736478e-01) (264, 2.64851819752212336301e-01) (265, 4.07347724664125387939e-01) (266, 2.99956613851107722901e-01) (267, 3.79701341479459830719e-01) (268, 3.91512984315821099823e-01) (269, 4.07024632041564693452e-01) (270, -3.12016788246918218286e-02) (271, -9.55122498390034296856e-02) (272, -8.29574101553051806990e-02) (273, 1.94378399696881587477e-01) (274, 5.28620998065904637575e-02) (275, 1.43885352260571752758e-01) (276, -2.50558304526101727205e-01) (277, 6.10127552658548788500e-01) (278, 1.50000000000000000000e+03) (279, 1.50000000000000000000e+03) (280, 1.50000000000000000000e+03) (281, 1.50000000000000000000e+03) (282, 4.83547131927530515760e-01) (283, -1.17163916419297159388e-01) (284, 2.16936186968636840477e-01) (285, 2.66090423311184043342e-01) (286, 3.88063648809347183644e-01) (287, 2.54085109106366946463e-01) (288, 1.59006772294949583202e-01) (289, -1.41396006617546497741e-02) (290, -3.59466649330339518831e-02) (291, -1.03991466517221631261e-01) (292, -1.79759634606824814096e-01) (293, -1.02379804435846238908e-01) (294, 2.06820508954352139108e-01) (295, 1.41348640111641721262e-01) (296, -3.66202075718795538872e-01) (297, 5.70637799114218191576e-01) (298, 5.03938581109276140246e-01) (299, 1.50000000000000000000e+03) (300, 1.50000000000000000000e+03) (301, 1.50000000000000000000e+03) (302, 1.50000000000000000000e+03) (303, 3.65173106010725445625e-01) (304, -1.18994086681944971629e-01) (305, -1.89050577119965035333e-01) (306, -2.65530714956735747201e-01) (307, -2.22436911750975740976e-01) (308, 1.51292220858105064263e-01) (309, -1.36473613665413440188e-01) (310, -1.45950022731714035285e-01) (311, -2.06006486217408468775e-01) (312, -4.80767871629349391460e-02) (313, -1.81559305090813777328e-01) (314, 2.16595368180739461517e-01) (315, 7.46317229405788623575e-02) (316, -2.93385921356095036305e-01) (317, 5.92702015549173788500e-01) (318, 5.77723979264727072191e-01) (319, 1.50000000000000000000e+03) (320, 1.50000000000000000000e+03) (321, 1.50000000000000000000e+03) (322, 1.50000000000000000000e+03) (323, 3.55213098470808730234e-01) (324, 3.02347821889304091414e-01) (325, -2.68218076971897256833e-01) (326, -2.27576654541719464175e-01) (327, -4.39425712436841905961e-02) (328, -1.88955756273961716918e-01) (329, -4.81658899658142305999e-02) (330, -1.34892522167948225587e-01) (331, -1.94700098406061367085e-01) (332, -1.20680892196837738495e-01) (333, -3.51445852571919264973e-02) (334, 7.21949502613650727356e-03) (335, 6.13402590448738627149e-02) (336, 1.93344031105223490563e+00) (337, 6.15327744990816549731e-01) (338, 1.50000000000000000000e+03) (339, 1.50000000000000000000e+03) (340, 1.50000000000000000000e+03) (341, 1.50000000000000000000e+03) (342, 1.50000000000000000000e+03) (343, 8.42187554656142062237e-02) (344, 3.89252484361767625565e-01) (345, -7.71760859605160470798e-02) (346, 2.47695277752275448691e-02) (347, 4.79938429979398614895e-04) (348, 9.12607744382425006835e-02) (349, -1.19196770361908191416e-01) (350, -8.60796875434488711898e-02) (351, 2.68767315372889139397e-03) (352, -1.26789389369888427783e-01) (353, -2.39590466004003549427e-01) (354, 4.26865318646310124007e-02) (355, -5.34079586376873360898e-01) (356, 1.92965594632643788753e-01) (357, 2.28309706654576616280e-01) (358, -1.52917573754673186137e-01) (359, 1.50000000000000000000e+03) (360, 1.50000000000000000000e+03) (361, 1.50000000000000000000e+03) (362, 1.50000000000000000000e+03) (363, 1.50000000000000000000e+03) (364, 1.86266647006522928498e-01) (365, 4.11098368757380275285e-02) (366, -1.25001768947286019673e-02) (367, -1.93900294578640858267e-01) (368, -1.58762299811649160164e-01) (369, -1.90906688354680637021e-01) (370, -1.86129152706895756308e-01) (371, -1.41457351670513348241e-01) (372, -2.40601217556563495847e-01) (373, -5.08341768108104608004e-01) (374, 